tree
version=v3
num_class=1
num_tree_per_iteration=1
label_index=0
max_feature_idx=140
objective=regression
feature_names=px_buy_1 amt_buy_1 px_buy_2 amt_buy_2 px_buy_3 amt_buy_3 px_buy_4 amt_buy_4 px_buy_5 amt_buy_5 px_buy_6 amt_buy_6 px_buy_7 amt_buy_7 px_buy_8 amt_buy_8 px_buy_9 amt_buy_9 px_buy_10 amt_buy_10 px_buy_11 amt_buy_11 px_buy_12 amt_buy_12 px_buy_13 amt_buy_13 px_buy_14 amt_buy_14 px_buy_15 amt_buy_15 px_buy_16 amt_buy_16 px_buy_17 amt_buy_17 px_buy_18 amt_buy_18 px_buy_19 amt_buy_19 px_buy_20 amt_buy_20 px_buy_21 amt_buy_21 px_buy_22 amt_buy_22 px_buy_23 amt_buy_23 px_buy_24 amt_buy_24 px_buy_25 amt_buy_25 px_sell_1 amt_sell_1 px_sell_2 amt_sell_2 px_sell_3 amt_sell_3 px_sell_4 amt_sell_4 px_sell_5 amt_sell_5 px_sell_6 amt_sell_6 px_sell_7 amt_sell_7 px_sell_8 amt_sell_8 px_sell_9 amt_sell_9 px_sell_10 amt_sell_10 px_sell_11 amt_sell_11 px_sell_12 amt_sell_12 px_sell_13 amt_sell_13 px_sell_14 amt_sell_14 px_sell_15 amt_sell_15 px_sell_16 amt_sell_16 px_sell_17 amt_sell_17 px_sell_18 amt_sell_18 px_sell_19 amt_sell_19 px_sell_20 amt_sell_20 px_sell_21 amt_sell_21 px_sell_22 amt_sell_22 px_sell_23 amt_sell_23 px_sell_24 amt_sell_24 px_sell_25 amt_sell_25 aggr_trade_last_buy_px aggr_trade_last_buy_amt aggr_trade_last_buy_cnt aggr_trade_last_sell_px aggr_trade_last_sell_amt aggr_trade_last_sell_cnt ImBalance1 ImBalance2 ImBalance3 ImBalance4 ImBalance5 ImBalance10 ImBalance1v ImBalance2v ImBalance3v OFIa OFI2a OFI3a OFIb OFI2b OFI3b OFI4 OFI5 OFI10 OFI1v OFIV OFIV2 OFIV3 slope5 slope10 TruePrice MeanRev2 MeanRev1 MidReturn Momentum1 Momentum2 Momentum3 overA overB Volume TrueVolume
feature_infos=[28250.099999999999:28630.099999999999] [0.001:314.76600000000002] [28250:28630] [0.001:202.852] [28249.900000000001:28629.900000000001] [0.001:272.38299999999998] [28249.799999999999:28629.799999999999] [0.001:314.76600000000002] [28249.700000000001:28629.599999999999] [0.001:271.52100000000002] [28249.599999999999:28629.5] [0.001:272.38299999999998] [28249.5:28629.400000000001] [0.001:207.89099999999999] [28249.400000000001:28629.299999999999] [0.001:149.601] [28249.299999999999:28629.200000000001] [0.001:272.38299999999998] [28249.200000000001:28629.099999999999] [0.001:272.36099999999999] [28249.099999999999:28629] [0.001:314.92599999999999] [28249:28628.900000000001] [0.001:209.249] [28248.900000000001:28628.799999999999] [0.001:272.38299999999998] [28248.799999999999:28628.700000000001] [0.001:215.89099999999999] [28248.700000000001:28628.599999999999] [0.001:297.072] [28248.599999999999:28628.5] [0.001:274.26100000000002] [28248.5:28628.400000000001] [0.001:205.00899999999999] [28248.400000000001:28628.200000000001] [0.001:161.93700000000001] [28248.299999999999:28628.099999999999] [0.001:215.80699999999999] [28248.200000000001:28628] [0.001:215.79599999999999] [28248.099999999999:28627.900000000001] [0.001:199.125] [28248:28627.799999999999] [0.001:271.87200000000001] [28247.900000000001:28627.599999999999] [0.001:207.79599999999999] [28247.799999999999:28627.400000000001] [0.001:207.89099999999999] [28247.700000000001:28627.299999999999] [0.001:207.89099999999999] [28250.200000000001:28632.099999999999] [0.001:360.17500000000001] [28250.299999999999:28632.200000000001] [0.001:151.58600000000001] [28251.099999999999:28632.299999999999] [0.001:240.15600000000001] [28251.5:28632.400000000001] [0.001:151.55099999999999] [28251.700000000001:28632.5] [0.001:121.961] [28252.099999999999:28632.599999999999] [0.001:143.31800000000001] [28252.400000000001:28632.700000000001] [0.001:240.15600000000001] [28252.5:28632.799999999999] [0.001:150.22] [28252.599999999999:28632.900000000001] [0.001:144.506] [28252.700000000001:28633] [0.001:321.79300000000001] [28252.799999999999:28633.099999999999] [0.001:321.79300000000001] [28252.900000000001:28633.200000000001] [0.001:318.02300000000002] [28253:28633.299999999999] [0.001:124.319] [28253.099999999999:28633.400000000001] [0.001:97.280000000000001] [28253.200000000001:28633.5] [0.001:210.221] [28253.299999999999:28633.599999999999] [0.001:145.61699999999999] [28253.400000000001:28633.700000000001] [0.001:145.61500000000001] [28253.5:28633.900000000001] [0.001:210.06200000000001] [28253.599999999999:28634] [0.001:210.221] [28253.700000000001:28634.099999999999] [0.001:210.06100000000001] [28253.799999999999:28634.200000000001] [0.001:147.93700000000001] [28253.900000000001:28634.299999999999] [0.001:318.053] [28254:28634.400000000001] [0.001:147.63] [28254.099999999999:28634.5] [0.001:147.90299999999999] [28254.200000000001:28634.599999999999] [0.001:147.63] [28251.099999999999:28632.5] [0.001:90.739000000000004] [1:303] [28250.099999999999:28631.900000000001] [0.001:132.16999999999999] [1:182] [-0.99994141940775039:0.99996417504075097] [-0.9999861757204177:0.99999006823125125] [-0.9999748202797466:0.99998663119477005] [-0.99998105881238741:0.99998663119477005] [-0.99998360144963172:0.9999926341143629] [-0.99999378484372003:0.9999866312841319] [-1.9945132833867294:1.9871265471674262] [-1.9990145808076756:1.9989249059563612] [-1.999285277938011:1.9984726193902422] [-141.61000000000001:360.27500000000003] [-199.374:120.426] [-217.47200000000001:247.58100000000002] [-237.727:55.314] [-204.84399999999999:36.994] [-218.12200000000001:27.424999999999997] [-140.61800000000002:272.53899999999999] [-121.917:271.52100000000002] [-57.401000000000003:321.79300000000001] [-160.374:360.27500000000003] [-1:1] [-1:1] [-1:1] [-1:1] [-1:1] [28250.150000000001:28631.049999999999] [-19.094999999997526:25.754999999997381] [-18.090000000003783:21.209999999995489] [-0.0005396644618687052:0.0011448317889846127] [-0.00070849613763868113:0.0007075972770673733] [-0.0005396644618687052:0.00072129735483450474] [-0.00035109709063396721:0.0010616771345228759] [0:1] [0:1] [0.094:365.18299999999999] [-205.49600000000001:350.09999999999997]
tree_sizes=4795 7700 4684 4803 4665 4368 4589 4478 4280 4386 4398 8204 4233 4398 4189 4334 4210 4398 3849 4431 4242 4308 7037 4082 4075 4098 4159 4133 4296 4458 4114 4819 4506 6702 4802 4627 4495 4410 4585 4426 4673 4398 4625 6988 5167 5299 5064 4853 3456 3761 3966 3864 3093 4199 3011 4654 3393 3368 3367 3219 5186 4933 5566 5645 3542 3524 3975 4105 4480 3501 3349 3391 3431 3206 3321 3273 2426 3717 2910 3760 3155 3068 3513 2759 3078 3096 3054 2745 3043 3623 3458 2686 3690 3009 3218 2990 2830 2648 2699 3093 2758 2729 3014 2807 3442 3298 3243 3106 2954 2672 2611 2956 1938 1881 1906 1912 2511 2395 2553 2757 2711 2927 2659 3368 2344 3322 2177 2412 2319 3175 2481 2319 3696 2873 2957 2286 2872 2792 2719 2492 2696 2657 3510 2476 2745 2660 3894 2822 2473 2567 3076 2447 2493 2923 2553 2830 2700 3068 3361 2886 2291 2335 2298 2468 4160 2867 2535 2803 2425 2546 2654 2526 3379 3498 3306 3184 2689 3750 2777 2930 2344 3772 2387 2636 2651 2438 2436 2705 3015 3063 2943 3131 2792 2886 2813 2736 2356 3309 3699 3134 2611 2712 2978 3468 2444 2889 2813 2836 2735 2486 2607 3665 2351 2609 2270 2537 2651 2255 2266 2391 2707 3005 2581 2974 2519 2431 2447 2479 2804 3831 2849 2843 3126 3607 3435 2591 2685 2343 2648 2752 2888 2913 3652 3678 2907 3141 3469 3267 2432 2481 2458 2662 2211 2346 2114 2094 2589 2502 2484 3422 4318 4392 2636 2540 2024 2557 2405 2360 2678 2939 3128 2775 2900 3120 3197 2685 2567 2131 2491 2144 2396 2433 2385 3390 3339 3278 3238 3485 2586 2750 2709 2768 2787 2652 2509 2475 1999 2867 2794 2612 3618 2749 2672 2658 2469 2435 2537 3759 3412 2476 2598 2480 2915 2641 2861 2612 2501 2319 2447 2405 4317 2461 2880 2327 3302 3621 3774 3037 2574 3100 3095 2892 2601 3409 2233 2411 2794 2540 2842 2908 2160 2323 3769 2426 2401 2444 2648 2576 2647 2656 2711 2775 2320 2225 3457 2380 2844 3975 2439 2572 2459 3634 2449 2697 3190 3612 2733 3590 3454 3682 2491 2146 3608 2703 2765 2472 2600 2411 2750 2448 3428 3286 2855 2745 2862 2392 2340 2884 2781 2679 2699 2576 2085 1962 2089 2052 3708 2591 2604 2493 3478 3755 2844 3375 2899 3007 3092 2956 2023 2300 2229 1912 2557 2528 2620 2886 2511 3601 3251 3154 2876 2748 2479 2158 2447 2365 2841

Tree=0
num_leaves=50
num_cat=0
split_feature=134 134 134 134 134 134 134 134 134 134 139 134 97 134 134 134 132 134 134 134 134 134 134 134 134 83 134 132 134 134 134 134 132 134 134 134 134 134 134 134 134 134 134 134 134 134 134 134 134
split_gain=6973.1 6521.68 1535.23 1229.03 1030.94 828.783 334.099 310.846 293.947 288.998 109.11 101.592 84.4342 67.2944 65.9899 61.4612 45.1124 43.2326 36.6973 35.2522 15.1396 12.2271 11.4987 10.3111 9.67575 6.71202 6.25943 5.83817 5.70599 5.40516 4.03435 3.64607 3.55805 2.78483 2.53175 2.50204 1.71951 1.60131 1.24516 1.21755 1.04452 1.0139 0.84446 0.621702 0.322388 0.191929 0.181119 0.0552549 0.0201704
threshold=4.8259936334171811e-05 -4.0531463151083351e-05 0.00014974388968691524 -0.00012429185378048932 1.2289919290475739e-05 -1.3183133187155692e-05 8.7752711152466758e-05 0.00021727949559180451 -0.00017323900425120217 -7.3779104196591825e-05 12.741500000000004 2.8004539483816874e-05 0.44750000000000006 -5.2606475506866693e-06 -2.4727642848887396e-05 5.2559931638107579e-06 -2.3425000000024734 0.0001149342058585079 6.6716178043768628e-05 -5.9525999147380653e-05 3.8497343692878168e-05 0.00017090917804085673 1.7688721463460236e-05 -1.9299103410086446e-05 -1.0000000180025095e-35 1.0385000000000002 -0.00010523872990664261 -3.6899999999986899 -3.1803524992324299e-05 -4.7278048951326916e-05 5.9509956820025252e-05 0.00010153300469428751 1.8900000000048751 -9.6515108484185302e-06 8.7720934949242508e-06 0.00013415236969482883 -8.0791493883680663e-05 3.15229251868221e-05 -1.5782665602093179e-05 -6.6507049969133356e-05 2.1988500695124816e-05 1.7501793935226221e-05 4.1256080781537647e-05 -2.119530953759163e-05 -3.1489506125581539e-05 -5.2666505175713578e-05 5.1119763736395825e-05 -3.7002112707185113e-05 3.5023325792749034e-05
decision_type=10 8 10 10 10 8 10 10 10 10 2 10 2 8 10 10 2 10 10 10 10 10 10 10 8 2 10 2 10 10 10 10 2 10 10 10 10 10 10 10 10 10 10 10 10 10 10 10 10
left_child=1 3 6 8 5 14 18 21 12 16 -9 22 -1 33 28 24 26 31 30 39 37 -4 41 43 -15 -14 -5 -10 47 45 46 -8 -20 -7 -17 -19 -18 -13 -25 -11 -24 -6 -22 -16 -30 -21 -2 -3 -39
right_child=2 4 7 9 11 13 17 10 27 19 -12 20 25 15 23 34 36 35 32 29 42 -23 40 38 -26 -27 -28 -29 44 -31 -32 -33 -34 -35 -36 -37 -38 48 -40 -41 -42 -43 -44 -45 -46 -47 -48 -49 -50
leaf_value=-0.54297888982500186 0.08469404265250223 -0.066223335539124017 0.27376776373883444 -0.19556927258985998 0.024316059646469511 -0.018060376095985355 0.16170191618182328 0.44210879185664492 -0.26734039718901981 -0.11922143614874793 0.67150136370578462 0.049064673507734052 -0.33276885146006735 -0.0054703812589911261 -0.041464663380221367 0.012000229706065953 -0.14737072638431375 0.21342039748593225 0.12076221331133385 -0.093878862562321946 0.066727191521208665 0.32856898643541738 0.036114046485324874 -0.029874881989423917 0.00019014166381980954 -0.4010739856153861 -0.16934934367943211 -0.22807202255888154 -0.054080396841980391 -0.075084040191290363 0.10682948530574862 0.18438664322043546 0.1387211524324346 -0.011832456474672091 0.018114092109629169 0.24207481042341733 -0.13198619886850232 0.055182215017686088 -0.023979724352736445 -0.10676902729014422 0.042540911959560855 0.03029789161002058 0.075965888968568249 -0.035769744495122532 -0.048064886658317485 -0.085253781616663957 0.094501378377543549 -0.05976921691229025 0.061000784275307487
leaf_weight=15.999999999999998 68 117 37 90 350 481 86 24 32 121 11.999999999999998 179 15.999999999999998 1106 237 631 116 58 137 135 125 40 280 310 408618 19 89 58 158 181 129 76 99 662 454 38 95 192 350 120 254 221 173 250 227 114 163 173 124
leaf_count=16 68 117 37 90 350 481 86 24 32 121 12 179 16 1106 237 631 116 58 137 135 125 40 280 310 408618 19 89 58 158 181 129 76 99 662 454 38 95 192 350 120 254 221 173 250 227 114 163 173 124
internal_value=0.000188174 -0.000210377 0.162274 -0.140786 0.000196073 -7.72815e-06 0.134533 0.371731 -0.308524 -0.118474 0.519173 0.0446372 -0.425012 0.000172211 -0.0406798 0.000212903 -0.159928 0.1921 0.109577 -0.0943477 0.0611741 0.302517 0.0327499 -0.0318121 0.000174915 -0.370466 -0.182653 -0.242274 -0.0557162 -0.0837814 0.0971865 0.172478 0.128387 -0.0144722 0.0145784 0.224988 -0.140546 0.0545149 -0.0267814 -0.113111 0.0392115 0.0266691 0.0721631 -0.0385856 -0.0505897 -0.0900168 0.0917079 -0.0624476 0.0575338
internal_weight=0 416874 967 1202 415672 413774 854 113 141 1061 36 1898 51 411952 1822 410809 390 258 596 671 793 77 1105 1147 409724 35 179 90 675 430 360 162 236 1143 1085 96 211 495 660 241 534 571 298 487 385 249 231 290 316
internal_count=417841 416874 967 1202 415672 413774 854 113 141 1061 36 1898 51 411952 1822 410809 390 258 596 671 793 77 1105 1147 409724 35 179 90 675 430 360 162 236 1143 1085 96 211 495 660 241 534 571 298 487 385 249 231 290 316
is_linear=0
shrinkage=1


Tree=1
num_leaves=83
num_cat=0
split_feature=118 132 132 125 132 132 117 132 132 118 137 132 124 132 132 132 123 132 139 125 123 106 132 115 118 140 125 119 132 132 128 132 132 118 136 118 122 123 132 136 123 118 132 132 132 124 136 132 135 127 31 132 123 136 132 57 71 85 97 131 118 120 122 132 122 51 119 51 115 139 127 118 122 51 116 21 119 1 125 118 124 120
split_gain=2173.29 2693.42 1651.46 2968.17 707.486 680.098 610.34 718.943 310.04 287.26 213.925 303.482 211.729 178.511 176.293 108.828 107.353 105.089 104.982 82.1738 71.7278 69.1695 62.9176 60.1485 60.2125 59.6573 53.3283 49.6453 143.357 47.6568 47.2414 45.4391 45.1245 41.2593 41.2431 37.6602 34.1428 33.1818 32.5093 23.455 20.1863 17.2697 14.4214 13.1877 12.8594 12.4477 12.0812 11.1319 10.4952 9.54219 8.35388 6.55426 6.23509 4.77669 4.10655 3.44711 3.17586 1.98828 1.64771 1.5586 1.13591 1.06217 0.773322 0.647042 0.593531 0.495018 0.403611 0.254988 0.248615 0.239255 0.155358 0.0966304 0.0821883 0.0764697 0.0404375 0.0395908 0.0371152 0.035695 0.0277606 0.0251583 0.0124081 0.0103591
threshold=-7.152499999999999 -1.6174999999948338 2.2450000000008008 0.999956795990668 -3.6899999999986899 5.1349999999984002 0.73200000000000021 0.8000000000010915 -0.80249999999978161 0.00099999999999994212 1.0000000180025095e-35 -2.9699999999993447 0.41800000000000043 3.4300000000021105 -2.6100000000024006 1.4399999999968716 -0.0010000000000000002 0.25249999999869038 12.741500000000004 -0.99995281906109923 0.0050000000000000036 -0.38412377553315885 -0.35999999999512505 8.9780000000000033 0.0030000000000001679 5.0669999999999975 -0.88427527446247567 -2.0274999999999994 -0.80249999999978161 1.0649999999986905 0.94182886561628243 -1.1599999999980353 -1.6174999999948338 0.00099999999999994212 -1.0000000180025095e-35 0.00099999999999994212 -0.0010000000000000002 2.3150000000000004 -1.8900000000012367 -1.0000000180025095e-35 0.010000000000000122 0.00099999999999994212 4.0375000000003647 0.53000000000065495 -2.9699999999993447 -5.1454999999999975 -1.0000000180025095e-35 -0.62749999999869022 -1.7651393797724067e-06 -0.99986647220913416 0.35250000000000004 0.082500000002255561 0.0030000000000000009 -3.5125988138151594e-06 -0.17749999999978169 0.40250000000000008 0.081500000000000017 0.31650000000000006 2.7715000000000005 2.3750000000018194 0.0019999999999998357 -2.1444999999999994 1.0285000000000002 -0.25999999999658024 -0.14899999999999994 0.30950000000000005 -1.1704999999999999 2.0665000000000004 3.4665000000000004 24.0335 0.9999329983249583 0.22300000000000023 -0.28450000000000003 1.0325000000000002 0.43100000000000011 0.34050000000000008 -0.8879999999999999 3.6755000000000004 -0.79669418016088078 0.091999999999999818 -6.7530000000000019 -0.7094999999999968
decision_type=2 2 2 10 2 2 2 2 2 2 2 2 2 2 2 2 2 2 2 10 2 2 2 2 2 2 10 2 2 2 8 2 2 2 10 2 2 2 2 10 2 2 2 2 2 2 10 2 10 8 2 2 2 10 2 2 2 2 2 2 2 2 2 2 2 2 2 2 2 2 8 2 2 2 2 2 2 2 8 2 2 2
left_child=1 4 6 62 21 9 10 17 16 13 23 30 -7 25 44 33 31 51 57 34 71 -1 36 27 29 -5 32 28 -2 -25 -12 39 -13 40 -16 -22 47 -29 -36 -3 -9 43 -15 -19 -6 -41 64 52 -48 54 55 65 -10 -49 63 -23 -46 -14 78 -56 -53 69 68 -24 -33 -8 70 -28 74 -18 -38 -17 -71 -11 81 -76 80 -35 -51 -43 -63 -4
right_child=2 8 3 5 14 12 7 15 22 73 11 26 18 42 19 20 61 41 -20 -21 35 50 49 24 -26 -27 67 37 -30 -31 -32 46 -34 77 38 -37 66 -39 -40 45 -42 79 -44 -45 56 -47 48 53 -50 58 -52 60 -54 -55 59 -57 -58 -59 -60 -61 -62 76 -64 -65 -66 -67 -68 -69 -70 72 -72 -73 -74 -75 75 -77 -78 -79 -80 -81 -82 -83
leaf_value=-0.42298917206384296 -0.045905767629604549 -0.0072881615716432445 -0.0017756190350977589 0.16736110954790867 -0.20531693498872236 0.1800712916062164 0.0052416589935717463 0.017357499096187754 -0.033948681260283109 0.0055681302365379343 -0.33021933681017157 -0.12058282081482091 0.36251612357310775 0.22335220023830818 -0.014090223682606639 0.0064115719062097102 -0.01724290095513285 0.016561944190887679 0.60812394646987489 0 0.098258470129634998 -0.28798485584870476 -0.014033296843569071 0.019469999627540074 0 0.083147648975981397 -0.0089983182489117696 5.3012561962032493e-06 -0.002133470011712566 0.067053148597521511 -0.16538180856419477 -0.0195921232609013 -0.038171060250345508 0.0036532241198141031 -0.13577580522115004 0 -0.0061184061200232724 0.011903505189336874 -0.10056776437090068 -0.080104017274340633 0.053691664451517004 0.0029528366951608932 0.27284141706017007 0.027829964298113723 -0.1297577760595725 -0.045603651130402302 -0.012359907961188252 -0.0084326229844268307 -0.049976453549349195 -0.00017313631142578317 -0.25055506391064086 0.0085944124945038763 -0.0064011454790019427 -0.022703311417422441 -0.0046073272313256475 -0.34894935019466827 -0.1741293365271544 0.4216052030888186 0.02250335041002437 -0.020942123957611917 0.00014012430848310428 0 0.014117928475053004 -0.0098561524747182716 -0.0017492920982161561 7.1784414330697074e-05 0 -4.2983631902967159e-05 0.0088636508553916558 -0.010177057630425115 0 0 -0.0018680142219539126 0 0.0044333158353297934 0 0 0 0.0026994972647849526 0 -0.0032821140396016467 2.5688119306479909e-06
leaf_weight=23 331 20 11.999999999999998 220 85 12.999999999999998 70 62 503 19 12.999999999999998 32 13.000000000000002 49 13.999999999999998 22 20 767 12.999999999999998 23 338 17.000000000000004 348 552 642 37 13.999999999999998 400647 1575 90 14.000000000000002 34 107 12.999999999999998 243 14.999999999999998 78 858 170 318 797 11.999999999999998 55 781 11.999999999999998 47 30 101 597 604 17 479 34 841 622 11.999999999999998 46 14.999999999999998 11.999999999999998 23 72 11.999999999999998 14.999999999999998 315 11.999999999999998 2395 173 100 11.999999999999998 18 20 13.999999999999998 15.999999999999998 17 15.000000000000002 11.999999999999998 85 52 11.999999999999998 133 22 748
leaf_count=23 331 20 12 220 85 13 70 62 503 19 13 32 13 49 14 22 20 767 13 23 338 17 348 552 642 37 14 400647 1575 90 14 34 107 13 243 15 78 858 170 318 797 12 55 781 12 47 30 101 597 604 17 479 34 841 622 12 46 15 12 23 72 12 15 315 12 2395 173 100 12 18 20 14 16 17 15 12 85 52 12 133 22 748
internal_value=0 -0.03749 0.000485896 0.0694352 -0.151942 0.19381 0.000273626 0.019373 -0.0220763 0.166344 -1.03288e-05 -0.0528196 0.395336 0.18258 -0.13057 0.058923 -0.0483443 0.00834073 0.463064 -0.111876 0.0858091 -0.335307 -0.0132979 2.61554e-05 0.0130863 0.155321 -0.0321662 -1.53597e-05 -0.0097464 0.0261742 -0.245548 -0.0555631 -0.057299 0.0475807 -0.11787 0.0940998 -0.0216076 3.07811e-05 -0.121336 -0.0722219 0.0510943 0.0203924 0.249732 0.0222609 -0.189246 -0.0757207 -0.046001 -0.0252223 -0.0482111 -0.00577534 -0.290995 0.00156846 -0.0322448 -0.0211962 -0.008716 -0.313957 -0.165322 0.394943 0.000315063 -0.00522331 0.0075289 -0.00407207 0.000498342 -0.0120813 -0.0154073 0.000227363 -0.00180013 -0.00133233 0.000215608 -0.0111325 -0.00489944 0.00391371 -0.00690253 0.00293331 5.62848e-05 0.00235859 -0.000686577 0.000814433 -8.20937e-05 0.000296354 -0.00237429 0
internal_weight=0 5579 412262 1265 662 451 410997 6022 4917 397 404975 280 54 361 593 1313 1231 4709 41 450 389 69 3686 404695 1284 257 253 403411 1906 642 27 1058 139 924 427 353 1750 401505 413 385 859 1693 104 1548 143 365 673 1479 627 1936 46 3016 537 942 1308 29 58 28 628 645 551 173 814 663 46 2465 271 114 799 54 98 36 34 36 787 27 119 65 616 145 34 760
internal_count=417841 5579 412262 1265 662 451 410997 6022 4917 397 404975 280 54 361 593 1313 1231 4709 41 450 389 69 3686 404695 1284 257 253 403411 1906 642 27 1058 139 924 427 353 1750 401505 413 385 859 1693 104 1548 143 365 673 1479 627 1936 46 3016 537 942 1308 29 58 28 628 645 551 173 814 663 46 2465 271 114 799 54 98 36 34 36 787 27 119 65 616 145 34 760
is_linear=0
shrinkage=0.0604378


Tree=2
num_leaves=49
num_cat=0
split_feature=134 134 134 134 134 134 134 134 134 134 139 106 134 134 134 134 134 132 132 134 134 134 134 134 134 134 134 134 134 134 63 134 132 134 134 134 134 134 134 134 134 134 134 134 134 134 134 134
split_gain=5566.47 5159.6 1270.1 961.603 718.547 657.105 329.531 240.044 225.517 213.847 82.8436 79.2039 64.0255 53.4647 50.6013 45.116 34.6204 32.7216 28.4074 24.8107 23.1007 8.9075 8.70828 7.07887 6.93583 4.55775 4.37713 3.98815 3.4118 2.88891 2.85918 2.73706 2.67767 2.35032 2.129 2.11234 2.06247 1.2324 1.07136 0.974787 0.683226 0.450548 0.446861 0.411023 0.227225 0.218026 0.123629 0.0454662
threshold=4.2415492772396319e-05 -4.0531463151083351e-05 0.00013415236969482883 -0.00012429185378048932 1.2289919290475739e-05 -1.3183133187155692e-05 0.00021727949559180451 -0.00017323900425120217 -7.7138040075419565e-05 7.7403108196261186e-05 12.741500000000004 -0.38412377553315885 2.4750462738420968e-05 -2.4727642848887396e-05 -5.2606475506866693e-06 5.2559931638107579e-06 -5.9525999147380653e-05 2.6250000000000004 -2.3425000000024734 0.00017090917804085673 5.9509956820025252e-05 1.7688721463460236e-05 -1.9299103410086446e-05 3.5023325792749034e-05 -1.7675658477989129e-06 -3.1803524992324299e-05 -4.7278048951326916e-05 -0.00010523872990664261 -0.00014058879630646223 9.154785438614256e-05 0.49150000000000005 6.7142435622891141e-05 3.0625000000036384 -7.0733863998251314e-06 -6.7168546079188194e-05 5.1119763736395825e-05 1.0496245025026775e-05 0.00014974388968691524 -1.5782665602093179e-05 1.7501793935226221e-05 2.1988500695124816e-05 -2.119530953759163e-05 -8.6178544408677102e-05 3.8497343692878168e-05 -5.2917620830428273e-05 3.15229251868221e-05 -2.8255721963910126e-05 -3.7002112707185113e-05
decision_type=10 8 10 10 10 8 10 10 10 10 2 2 10 10 8 10 10 2 2 10 10 10 10 10 8 10 10 10 10 10 2 10 2 10 10 10 10 10 10 10 10 10 10 10 10 10 10 10
left_child=1 3 9 7 5 13 19 11 18 20 -8 -1 21 25 33 24 34 29 27 37 35 39 41 45 -16 47 44 -5 -9 -11 -13 -22 -19 -7 -10 -2 -17 -4 -24 -6 -23 -15 -20 -25 -18 -14 -27 -3
right_child=2 4 6 8 12 14 10 28 16 17 -12 30 23 22 15 36 26 32 42 -21 31 40 38 43 -26 46 -28 -29 -30 -31 -32 -33 -34 -35 -36 -37 -38 -39 -40 -41 -42 -43 -44 -45 -46 -47 -48 -49
leaf_value=-0.479149234247776 0.073402965916798818 -0.05953505038452931 0.21425880098934855 -0.17342603722574917 0.021153581399108896 -0.015763426204798807 0.39320561856177644 -0.23099864715096805 -0.11023682891843667 0.1289885035553453 0.59398689656347825 -0.29408291195167963 0.043772894949043135 -0.037199268342652803 -0.0051367839042236732 0.010152655612286636 -0.086162503452809153 0.16939116211669428 -0.13666216050494814 0.2905555424622786 0.097452789624102462 0.032068568570500104 -0.026651579633575392 0.05441074107972714 -1.5483827602462291e-06 -0.047641930264555168 -0.067122861970264111 -0.15145882093044269 -0.1997487461843738 0.14818308139321421 -0.34953794577342079 0.11210633209228851 0.19522575652501284 -0.0100907859522764 -0.09688481575019646 0.085040825502113337 0.015757800296765104 0.24193411244851762 -0.021169611652796586 0.026963698251604003 0.037697950737852252 -0.032117613084664209 -0.12280766547473966 0.061683434796778597 -0.077476514773571217 0.049094455264711609 -0.042632934531450707 -0.053450506864899383
leaf_weight=19 166 117 38 90 350 525 24 40 121 115 11.999999999999998 18 204 237 963 668 89 76 54 40 169 280 310 124 408761 202 181 89 50 73 13.999999999999998 112 40 618 158 163 417 37 350 221 229 250 119 200 160 192 183 173
leaf_count=19 166 117 38 90 350 525 24 40 121 115 12 18 204 237 963 668 89 76 54 40 169 280 310 124 408761 202 181 89 50 73 14 112 40 618 158 163 417 37 350 221 229 250 119 200 160 192 183 173
internal_value=0 -0.000372536 0.137977 -0.125409 -1.08308e-05 -0.000176638 0.300443 -0.273792 -0.105669 0.111113 0.460733 -0.3791 0.0380919 -0.036392 -1.64101e-05 1.88694e-05 -0.0859617 0.152627 -0.145304 0.250077 0.0903882 0.0287404 -0.0284061 0.0520892 -1.36708e-05 -0.0499302 -0.0750167 -0.162625 -0.213878 0.136557 -0.31902 0.10337 0.178486 -0.0127152 -0.102753 0.0792345 0.0123268 0.2282 -0.0237772 0.0234402 0.0346437 -0.034635 -0.127257 0.0589668 -0.0806679 0.0464076 -0.0453172 -0.0559798
internal_weight=0 416776 1065 1202 415574 413774 151 141 1061 914 36 51 1800 1822 411952 410809 709 304 352 115 610 1080 1147 720 409724 675 430 179 90 188 32 281 116 1143 279 329 1085 75 660 571 509 487 173 324 249 396 385 290
internal_count=417841 416776 1065 1202 415574 413774 151 141 1061 914 36 51 1800 1822 411952 410809 709 304 352 115 610 1080 1147 720 409724 675 430 179 90 188 32 281 116 1143 279 329 1085 75 660 571 509 487 173 324 249 396 385 290
is_linear=0
shrinkage=0.0604378


Tree=3
num_leaves=50
num_cat=0
split_feature=134 134 134 134 134 134 134 134 134 134 139 106 134 134 134 134 134 132 134 134 134 134 134 134 134 134 119 134 134 134 134 134 132 134 134 134 134 134 134 134 134 134 134 134 134 134 134 134 134
split_gain=4915.07 4555.86 1121.43 849.09 634.497 580.247 290.74 211.823 199.037 188.746 72.8228 69.6243 56.504 47.1842 44.6782 40.2155 30.5009 28.7899 25.072 21.7196 20.3659 7.84443 7.66946 6.21486 6.0962 5.72324 5.15168 3.99089 3.81742 2.95008 2.93455 2.86815 2.4936 2.35247 2.08589 1.81039 1.16049 1.11596 0.934602 0.929797 0.84477 0.579858 0.374461 0.323219 0.161286 0.146384 0.0786863 0.0140229 0.00252164
threshold=4.2415492772396319e-05 -4.0531463151083351e-05 0.00013415236969482883 -0.00012429185378048932 1.2289919290475739e-05 -1.3183133187155692e-05 0.00021727949559180451 -0.00017323900425120217 -7.7138040075419565e-05 7.7403108196261186e-05 12.741500000000004 -0.38412377553315885 2.4750462738420968e-05 -2.4727642848887396e-05 -5.2606475506866693e-06 1.767529330565232e-06 -5.9525999147380653e-05 2.6250000000000004 -9.8491515630905177e-05 0.00017090917804085673 5.9969646932889205e-05 1.7688721463460236e-05 -1.9299103410086446e-05 3.5023325792749034e-05 -1.7675658477989129e-06 5.2909633116993157e-06 -1.6994999999999998 -3.1803524992324299e-05 -4.7278048951326916e-05 5.1119763736395825e-05 -8.6178544408677102e-05 -0.00014058879630646223 2.340000000001965 0.0001149342058585079 -9.6515108484185302e-06 -6.7168546079188194e-05 6.7142435622891141e-05 -0.00011385079891151893 0.00014974388968691524 -1.5782665602093179e-05 1.7501793935226221e-05 2.1988500695124816e-05 -2.119530953759163e-05 3.8497343692878168e-05 3.15229251868221e-05 -5.2917620830428273e-05 -2.8255721963910126e-05 -5.2891773597574235e-06 -3.7002112707185113e-05
decision_type=10 8 10 10 10 8 10 10 10 10 2 2 10 10 8 10 10 2 10 10 10 10 10 10 8 10 2 10 10 10 10 10 2 10 10 10 10 10 10 10 10 10 10 10 10 10 10 10 10
left_child=1 3 9 7 5 13 19 11 18 20 -8 -1 21 27 34 24 35 32 37 38 29 40 42 44 -16 -17 -13 48 45 -2 -20 -9 -11 -19 -7 -10 -22 -5 -4 -24 -6 -23 -15 -25 -14 -18 -29 -36 -3
right_child=2 4 6 8 12 14 10 31 16 17 -12 26 23 22 15 25 28 33 30 -21 36 41 39 43 -26 -27 -28 46 -30 -31 -32 -33 -34 -35 47 -37 -38 -39 -40 -41 -42 -43 -44 -45 -46 -47 -48 -49 -50
leaf_value=-0.45019053648448309 0.068966654654616044 -0.055936886554430042 0.20130947591531831 -0.16979452557627808 0.019875105741175757 -0.015058791281117036 0.36944116836119711 -0.21703760555862522 -0.10357436061324345 0.12084275087373494 0.55808764500959029 -0.32516359064730027 0.041127359647277345 -0.034951028434895233 -0.0048263281628945264 0.0051109917505794142 -0.080955032147011177 0.15583897889276033 -0.13271282455699057 0.27299502217661309 0.093321448320660028 0.030130415138689456 -0.025040817518150363 0.051122277774787873 -1.1880920227766887e-05 0.011779762070162257 -0.26101805857545479 -0.044762559006833146 -0.063066106746843612 0.081318099248522971 -0.11538544546249997 -0.1876763806922305 0.13879488632902165 0.17920824146884723 -0.0098178776673479417 -0.091029315722919918 0.10533087757129884 -0.15089115201476355 0.22731216971612409 -0.019890168299029332 0.025334072410094697 0.035419570859660313 -0.03017649688971025 0.05795542580511294 0.046127297237194609 -0.072794009116998293 -0.040056295664400013 -0.00600944299106476 -0.050220077343284673
leaf_weight=19 166 117 38 46 350 481 24 40 121 111 11.999999999999998 19 204 237 963 885 89 58 97 40 125 280 310 124 407919 1042 12.999999999999998 202 181 207 119 50 77 58 628 158 112 90 37 350 221 229 250 200 192 160 183 34 173
leaf_count=19 166 117 38 46 350 481 24 40 121 111 12 19 204 237 963 885 89 58 97 40 125 280 310 124 407919 1042 13 202 181 207 119 50 77 58 628 158 112 90 37 350 221 229 250 200 192 160 183 34 173
internal_value=0 -0.000350068 0.129653 -0.117844 -1.01794e-05 -0.000165991 0.282319 -0.257282 -0.0992929 0.104407 0.432924 -0.356239 0.0357948 -0.0341976 -1.54215e-05 1.77258e-05 -0.0807737 0.143416 -0.136533 0.234986 0.0849318 0.027007 -0.0266927 0.0489465 -2.32728e-05 0.00872826 -0.29978 -0.0469183 -0.0704889 0.0758791 -0.123267 -0.200966 0.12831 0.16771 -0.0119479 -0.0965475 0.099088 -0.157444 0.214426 -0.0223422 0.0220258 0.0325525 -0.0325444 0.055407 0.0436061 -0.0757978 -0.0425817 -0.00965492 -0.052601
internal_weight=0 416776 1065 1202 415574 413774 151 141 1061 914 36 51 1800 1822 411952 410809 709 304 352 115 610 1080 1147 720 408882 1927 32 675 430 373 216 90 188 116 1143 279 237 136 75 660 571 509 487 324 396 249 385 662 290
internal_count=417841 416776 1065 1202 415574 413774 151 141 1061 914 36 51 1800 1822 411952 410809 709 304 352 115 610 1080 1147 720 408882 1927 32 675 430 373 216 90 188 116 1143 279 237 136 75 660 571 509 487 324 396 249 385 662 290
is_linear=0
shrinkage=0.0604378


Tree=4
num_leaves=48
num_cat=0
split_feature=134 134 134 134 134 134 134 140 134 134 134 134 114 134 134 134 134 1 134 134 134 134 29 131 134 131 134 134 134 134 134 134 131 134 134 134 134 129 134 134 134 134 134 134 132 132 134
split_gain=4750.04 3839.79 1480.64 741.919 720.095 434.328 382.242 311.096 221.132 133.873 63.828 58.6976 52.508 49.1813 48.5399 34.4925 32.9099 29.0826 17.2864 15.4431 13.5191 10.6721 7.60474 7.13423 5.8027 5.60738 5.43781 5.22852 4.53621 4.45999 3.8589 3.80045 2.58564 2.02102 1.81851 1.63185 1.32341 1.19138 0.863415 0.74571 0.689859 0.586501 0.208829 0.167999 0.0168697 0.0126152 0.00986353
threshold=5.1119763736395825e-05 -3.7002112707185113e-05 0.00021727949559180451 1.4126164306516033e-05 -0.00010523872990664261 -1.0602505018775242e-05 0.00010592453926450142 0.72200000000000009 -0.00017323900425120217 -6.6507049969133356e-05 3.1785497353831189e-05 5.2559931638107579e-06 0.50883046660718434 0.00014974388968691524 7.4053183201305841e-05 -3.5356490720173102e-06 -2.4516714277500459e-05 0.44750000000000006 -8.6178544408677102e-05 -5.2666505175713578e-05 -0.00014058879630646223 2.1988500695124816e-05 0.49950000000000006 5.0587500000001464 4.1256080781537647e-05 3.325000000002547 6.3296937624857122e-05 1.0000000180025095e-35 1.0496245025026775e-05 9.154785438614256e-05 -3.1489506125581539e-05 -1.5782665602093179e-05 -3.1487500000002906 -4.5576934056046341e-05 -7.3779104196591825e-05 -9.6515108484185302e-06 2.8004539483816874e-05 0.58004110352902793 -1.9299103410086446e-05 1.7688721463460236e-05 1.2289919290475739e-05 -5.9525999147380653e-05 -2.4727642848887396e-05 4.8259936334171811e-05 -2.3425000000024734 0.85500000000138254 3.8497343692878168e-05
decision_type=10 8 10 10 10 8 10 2 10 10 10 10 2 10 10 8 10 2 10 10 10 10 2 2 10 2 10 10 10 10 10 10 2 10 10 10 10 10 10 10 10 10 10 10 2 2 10
left_child=1 4 6 5 8 16 14 17 12 18 21 15 22 25 26 35 30 -4 44 41 -10 39 -1 -15 46 -8 -2 -17 45 -16 -3 38 -22 -21 -20 -7 -23 -19 -18 -5 -30 -11 -32 -26 -6 -13 -12
right_child=2 3 7 10 9 11 13 -9 20 19 24 28 -14 23 29 27 31 37 34 33 32 36 -24 -25 43 -27 -28 -29 40 -31 42 -33 -34 -35 -36 -37 -38 -39 -40 -41 -42 -43 -44 -45 -46 -47 -48
leaf_value=-0.24435142793802395 0.077271287873124636 -0.045204259913875867 0.45935246838496402 0.023205606516962175 -0.13318102081095792 -0.013929318957851461 0.15580394149371196 0.73592202834314402 -0.20309408489140979 -0.083790623733514882 0.047158448153781118 0.0091931514777811099 -0.42616947393240417 0.21798712295835471 0.11205176857611861 -2.1678866343451166e-05 -0.028819653690932465 0.36270813408871938 -0.10654721329100461 -0.064962041018284317 -0.17232263681845991 0.033674670784616195 -0.31884195967036771 0.26670438260016194 0.060565359029894787 0.18443202956724775 0.093504066139873762 0.0044885316454376144 0.014120460805491064 0.13191232349292442 -0.038010658421383611 -0.018325575972397035 -0.14947793659037603 -0.055398323430221857 -0.093710610322270807 -0.0089005948458817478 0.040465568785192273 0.30667677012079481 -0.023518695835589479 0.028267073217442564 0.018446088563417198 -0.074522809898692269 -0.033305091514513108 0.068136216337630257 -0.1206013664417778 0.0069203497688465647 0.052784938847520259
leaf_weight=16.000000000000004 224 318 11.999999999999998 302 82 410 71 11.999999999999998 46 120 149 546 13.999999999999998 55 154 408503 298 11.999999999999996 154 201 69 250 12.999999999999998 21 199 65 148 941 396 84 222 405 58 238 118 669 318 12.000000000000004 312 297 303 140 197 82 62 98 129
leaf_count=16 224 318 12 302 82 410 71 12 46 120 149 546 14 55 154 408503 298 12 154 201 69 250 13 21 199 65 148 941 396 84 222 405 58 238 118 669 318 12 312 297 303 140 197 82 62 98 129
internal_value=0 -0.000289646 0.141078 3.87365e-05 -0.102779 -0.000126219 0.12199 0.467516 -0.203849 -0.0831801 0.0395811 1.46271e-06 -0.327074 0.192005 0.097621 -3.97525e-05 -0.0301544 0.377446 -0.110406 -0.0669457 -0.173096 0.0314953 -0.278489 0.231733 0.0564229 0.169645 0.0837876 -1.12605e-05 0.012616 0.119152 -0.0399154 -0.0230455 -0.16206 -0.0598264 -0.101058 -0.0108314 0.0375147 0.335593 -0.0261438 0.0257513 0.0160264 -0.0788834 -0.0358498 0.0628516 -0.127915 0.00888085 0.049847
internal_weight=0 416675 870 415344 1331 413618 822 48 216 1115 1726 411866 43 212 610 410523 1752 36 416 699 173 1167 29 76 559 136 372 409444 1343 238 737 1015 127 439 272 1079 568 24 610 599 699 260 419 281 144 644 278
internal_count=417545 416675 870 415344 1331 413618 822 48 216 1115 1726 411866 43 212 610 410523 1752 36 416 699 173 1167 29 76 559 136 372 409444 1343 238 737 1015 127 439 272 1079 568 24 610 599 699 260 419 281 144 644 278
is_linear=0
shrinkage=0.0604378


Tree=5
num_leaves=45
num_cat=0
split_feature=134 134 134 134 134 134 134 97 134 134 134 134 106 131 134 134 134 83 134 134 134 134 134 65 134 134 134 134 134 134 134 134 132 134 134 134 134 134 132 134 134 134 134 132
split_gain=4194.27 3390.57 1307.55 655.136 635.975 383.516 337.444 271.903 169.538 141.767 56.337 51.8424 49.7366 43.65 42.7895 31.0302 29.0354 21.8076 18.3894 17.7276 9.58178 9.40008 7.15494 6.48699 5.08448 4.79537 4.74407 4.59741 3.99577 3.85712 3.377 3.34154 2.06546 1.95849 1.7587 1.34438 1.14307 0.744636 0.71806 0.640993 0.598222 0.160261 0.113546 0.00516855
threshold=5.1119763736395825e-05 -3.7002112707185113e-05 0.00021727949559180451 1.4126164306516033e-05 -0.00011385079891151893 -1.0602505018775242e-05 0.00010592453926450142 0.87150000000000005 -0.00017323900425120217 -6.7168546079188194e-05 3.1785497353831189e-05 5.2559931638107579e-06 -0.57094993611899969 3.8537500000002187 7.4053183201305841e-05 -1.7675658477989129e-06 -2.4516714277500459e-05 0.17350000000000002 -8.6178544408677102e-05 -5.2666505175713578e-05 0.00017090917804085673 2.1988500695124816e-05 -0.00014058879630646223 0.71550000000000014 4.1256080781537647e-05 -5.2891773597574235e-06 6.3296937624857122e-05 1.767529330565232e-06 1.0496245025026775e-05 9.154785438614256e-05 -3.1489506125581539e-05 -1.5782665602093179e-05 3.0625000000036384 -9.8491515630905177e-05 -4.232603106807397e-05 -5.9917808028664414e-05 2.8004539483816874e-05 -1.9299103410086446e-05 -2.0200000000004361 1.7688721463460236e-05 1.2289919290475739e-05 -2.4727642848887396e-05 4.579650023273097e-05 0.85500000000138254
decision_type=10 8 10 10 10 8 10 2 10 10 10 10 2 2 10 8 10 2 10 10 10 10 10 2 10 10 10 10 10 10 10 10 2 10 10 10 10 10 2 10 10 10 10 2
left_child=1 4 6 5 8 16 14 17 12 18 21 15 -1 32 26 25 30 -4 33 35 -15 39 -10 -14 -12 -7 -2 -17 43 -16 -3 37 -8 -6 -21 -11 -23 -18 -20 -5 -30 -32 -26 -13
right_child=2 3 7 10 9 11 13 -9 22 19 24 28 23 20 29 27 31 -19 38 34 -22 36 -24 -25 42 -27 -28 -29 40 -31 41 -33 -34 -35 -36 -37 -38 -39 -40 -41 -42 -43 -44 -45
leaf_value=-0.41508600739046303 0.072601184700792867 -0.042472216767327403 0.41884480871298951 0.02180311181036038 -0.13369070482724107 -0.010505657307288349 0.14247014766459271 0.69040751884072316 -0.1908195277356261 -0.081707877379009766 0.046839093212773249 0.0086375380371249821 -0.23372449889326419 0.19486411618319091 0.10527961118522332 -9.8834944642373638e-06 -0.027077858591950766 0.3134752766876131 -0.10415691293000473 -0.060032691202979813 0.23969328466146089 0.03163944946373886 -0.15780054540353688 -0.30137129539894614 0.056051649406477853 -0.004506551166616711 0.087852890344501236 0.0044927548774218893 0.01326705194871115 0.12393983741391537 -0.035713379741921278 -0.01721801859957928 0.16465395417829021 -0.11665233461579433 -0.050951419548695732 -0.071167355902420112 0.038019921704511662 -0.022097278035229678 -0.092752862611035422 0.026558675623614254 0.017331247707150395 -0.031292205850116037 0.062583872195038137 0.0065020992696840354
leaf_weight=11.999999999999998 224 318 13.999999999999998 302 72 1012 51 11.999999999999998 46 126 278 546 17.000000000000004 59 154 407709 298 22 81 252 35 250 92 13.999999999999998 155 972 148 830 396 84 222 405 67 107 187 177 318 312 148 297 303 197 126 98
leaf_count=12 224 318 14 302 72 1012 51 12 46 126 278 546 17 59 154 407709 298 22 81 252 35 250 92 14 155 972 148 830 396 84 222 405 67 107 187 177 318 312 148 297 303 197 126 98
internal_value=0 -0.000272168 0.132568 3.64048e-05 -0.0965799 -0.0001186 0.114628 0.439342 -0.201963 -0.0799747 0.0371942 1.37748e-06 -0.307367 0.180419 0.0917274 -3.73531e-05 -0.0283356 0.355053 -0.108668 -0.0641682 0.211786 0.0295951 -0.168963 -0.264972 0.0530198 -0.00757747 0.0787272 -6.82903e-07 0.0118565 0.111956 -0.0375065 -0.0216552 0.155249 -0.123626 -0.0562136 -0.0756219 0.0352497 -0.0245658 -0.096881 0.0241971 0.0150597 -0.0336863 0.0590576 0.00834614
internal_weight=0 416675 870 415344 1331 413618 822 48 181 1150 1726 411866 43 212 610 410523 1752 36 408 742 94 1167 138 31 559 1984 372 408539 1343 238 737 1015 118 179 439 303 568 610 229 599 699 419 281 644
internal_count=417545 416675 870 415344 1331 413618 822 48 181 1150 1726 411866 43 212 610 410523 1752 36 408 742 94 1167 138 31 559 1984 372 408539 1343 238 737 1015 118 179 439 303 568 610 229 599 699 419 281 644
is_linear=0
shrinkage=0.0604378


Tree=6
num_leaves=47
num_cat=0
split_feature=134 134 134 134 134 134 134 140 134 134 134 114 134 134 134 134 1 134 134 134 134 134 29 134 134 134 134 134 134 134 134 134 65 134 132 134 134 134 134 134 134 134 134 134 134 134
split_gain=3703.5 2993.9 1154.51 578.489 561.929 338.654 297.898 260.813 172.195 104.315 49.8693 45.7957 45.7892 38.3824 37.9362 27.3979 26.3809 25.6161 13.2383 11.9138 10.7762 7.56087 6.09502 5.32395 5.25529 5.24256 4.22815 4.08712 3.94705 3.5192 2.95337 2.94404 2.73182 2.2717 1.60693 1.55842 1.40131 0.668876 0.549594 0.533785 0.517978 0.429382 0.385736 0.234668 0.118838 0.0802065
threshold=5.1119763736395825e-05 -3.7002112707185113e-05 0.00021727949559180451 1.4126164306516033e-05 -0.00010523872990664261 -1.0602505018775242e-05 0.00010592453926450142 0.72200000000000009 -0.00017323900425120217 -6.6507049969133356e-05 3.15229251868221e-05 0.50883046660718434 5.2559931638107579e-06 0.00014974388968691524 7.0580222366500869e-05 -1.7675658477989129e-06 0.44750000000000006 -2.4516714277500459e-05 -8.6178544408677102e-05 -5.2666505175713578e-05 -0.00012429185378048932 4.1256080781537647e-05 0.49950000000000006 8.4250445754108241e-05 2.1988500695124816e-05 0.00017090917804085673 -5.2891773597574235e-06 1.0000000180025095e-35 0.00012289595683911972 1.0496245025026775e-05 -3.1489506125581539e-05 -1.7500078752952227e-05 0.19450000000000003 5.9969646932889205e-05 -3.6899999999986899 -4.5576934056046341e-05 -7.7138040075419565e-05 3.529036040406109e-05 1.7688721463460236e-05 -1.9299103410086446e-05 1.2289919290475739e-05 9.5340837995339114e-05 -5.9525999147380653e-05 2.4750462738420968e-05 -2.4727642848887396e-05 4.8259936334171811e-05
decision_type=10 8 10 10 10 8 10 2 10 10 10 2 10 10 10 8 2 10 10 10 10 10 2 10 10 10 10 10 10 10 10 10 2 10 2 10 10 10 10 10 10 10 10 10 10 10
left_child=1 4 6 5 8 17 14 16 11 18 24 22 15 28 33 26 -4 30 -6 42 34 37 -1 -16 38 -15 -7 -17 -8 -14 -3 39 -18 -2 -10 -21 -20 -12 -5 -19 -31 -25 -11 -26 -32 -23
right_child=2 3 7 10 9 12 13 -9 20 19 21 -13 29 25 23 27 32 31 36 35 -22 45 -24 41 43 -27 -28 -29 -30 40 44 -33 -34 -35 -36 -37 -38 -39 -40 -41 -42 -43 -44 -45 -46 -47
leaf_value=-0.21238028580791563 0.066854408326478751 -0.039905290173424535 0.40809263163368825 0.020485380820617429 -0.11287824141485481 -0.0098707193902790227 0.13621349336113961 0.65867922528466594 -0.18233016041304217 -0.073984690507954032 0.039418045755582901 -0.38140305385566509 0.0078437434465554196 0.18670367664538803 0.09322675229236449 -9.8763173082693238e-06 0.25897030214811717 -0.025441333976121326 -0.096194208341277246 -0.057407639640912646 -0.13476192063208234 0.053429997418831789 -0.27997231073089535 0.10609913489629445 0.029393833969302813 0.22520676516818722 -0.004234185339499083 0.0039778231164059891 0.16106500954340838 0.012465221003193191 -0.033554941386339389 -0.016465431020996773 0.32022783772221336 0.078651885358136039 -0.1581194655595245 -0.04885317366296462 -0.084472815139262622 0.046028205021094309 0.024953529063431401 -0.020899507073067314 0.01628378628193497 0.11972002562738161 -0.065717627796827688 0.033892205600073347 -0.029400975471558271 0.060235787243696493
leaf_weight=16.000000000000004 184 318 11.999999999999998 302 144 1012 63 11.999999999999998 36 120 243 13.999999999999998 644 41 135 407598 12.000000000000002 298 109 201 78 199 12.999999999999998 85 220 35 972 941 73 396 222 441 11.999999999999998 148 59 238 163 163 297 276 303 58 140 220 197 82
leaf_count=16 184 318 12 302 144 1012 63 12 36 120 243 14 644 41 135 407598 12 298 109 201 78 199 13 85 220 35 972 941 73 396 222 441 12 148 59 238 163 163 297 276 303 58 140 220 197 82
internal_value=0 -0.000255747 0.124571 3.42108e-05 -0.0907546 -0.000111441 0.107711 0.412843 -0.180045 -0.0734377 0.0349508 -0.288851 1.2974e-06 0.169534 0.0861901 -3.50987e-05 0.330298 -0.0266268 -0.0974806 -0.0590979 -0.152876 0.0476243 -0.243425 0.102845 0.0265501 0.20472 -0.00712016 -6.38434e-07 0.149712 0.0111428 -0.0352433 -0.020349 0.2905 0.0721786 -0.167522 -0.0528191 -0.0892494 0.0421251 0.0227369 -0.0232951 0.0141514 0.111775 -0.0696163 0.0316921 -0.0316535 0.0554929
internal_weight=0 416675 870 415344 1331 413618 822 48 216 1115 1726 43 411866 212 610 410523 36 1752 416 699 173 687 29 278 1039 76 1984 408539 136 1343 737 1015 24 332 95 439 272 406 599 574 699 143 260 440 419 281
internal_count=417545 416675 870 415344 1331 413618 822 48 216 1115 1726 43 411866 212 610 410523 36 1752 416 699 173 687 29 278 1039 76 1984 408539 136 1343 737 1015 24 332 95 439 272 406 599 574 699 143 260 440 419 281
is_linear=0
shrinkage=0.0604378


Tree=7
num_leaves=46
num_cat=0
split_feature=134 134 134 134 134 134 134 81 134 134 134 134 134 114 134 0 134 132 134 134 134 134 29 134 134 134 134 134 134 134 131 134 132 134 132 134 134 134 134 134 134 134 134 134 132
split_gain=3270.37 2644.53 1019.58 511.222 461.432 349.499 263.037 253.788 131.898 91.0621 44.0086 43.2735 40.4728 40.2028 28.1304 27.0313 25.7667 25.0145 11.5527 11.5235 6.64415 5.40219 5.21697 5.12204 4.84234 4.74053 4.62231 4.24925 3.9074 2.81981 2.68152 2.54365 2.29371 1.361 0.945634 0.604085 0.562163 0.521387 0.469891 0.44775 0.395075 0.185863 0.183202 0.0481958 0.00285273
threshold=5.1119763736395825e-05 -4.0531463151083351e-05 0.00021727949559180451 1.4126164306516033e-05 -0.00011385079891151893 -1.3183133187155692e-05 0.0001149342058585079 1.5005000000000002 -0.00017323900425120217 -7.0354781596559932e-05 3.15229251868221e-05 7.7403108196261186e-05 5.2909633116993157e-06 0.50883046660718434 -2.4727642848887396e-05 28464.150000000005 -1.7675658477989129e-06 4.0375000000003647 -5.2917620830428273e-05 -9.1658080571044285e-05 4.1256080781537647e-05 -0.00014058879630646223 0.49950000000000006 6.6716178043768628e-05 9.5340837995339114e-05 -1.9299103410086446e-05 2.1988500695124816e-05 -7.0733863998251314e-06 1.767529330565232e-06 1.0496245025026775e-05 5.0587500000001464 -3.1803524992324299e-05 3.4300000000021105 -8.0791493883680663e-05 -1.6174999999948338 -4.7278048951326916e-05 3.529036040406109e-05 -1.5782665602093179e-05 1.7688721463460236e-05 1.2289919290475739e-05 5.6443163537811543e-05 2.4750462738420968e-05 -2.119530953759163e-05 4.2415492772396319e-05 2.340000000001965
decision_type=10 8 10 10 10 8 10 2 10 10 10 10 10 2 10 2 8 2 10 10 10 10 2 10 10 10 10 10 10 10 2 10 2 10 2 10 10 10 10 10 10 10 10 10 2
left_child=1 4 6 5 8 14 11 15 13 19 26 23 16 22 31 -4 27 32 34 -6 36 -10 -1 40 -13 42 38 -7 -18 44 -19 -3 -8 -21 -11 -20 -12 -27 -5 -31 -2 -28 -16 -22 -14
right_child=2 3 7 10 9 12 17 -9 21 18 20 24 29 -15 25 -17 28 30 35 33 43 -23 -24 -25 -26 37 41 -29 -30 39 -32 -33 -34 -35 -36 -37 -38 -39 -40 -41 -42 -43 -44 -45 -46
leaf_value=-0.19954449974952604 0.060854253656049052 -0.041045837402066104 0.25883108109050434 0.019247290466666098 -0.11341392508046889 -0.011749282896686976 0.13948853286948526 0.63039336070063601 -0.16858529870211125 -0.073846161656014708 0.037035707941027424 0.095978058553304116 0.007598302744312467 -0.35835191129509825 -0.027277665138528532 0.37195553166402467 -8.7548708703392988e-06 0.18561182338010584 -0.056270836377433804 -0.095727649787418836 0.047238995240946456 -0.13936685505630989 -0.26305141058182485 0.080841279407184774 0.11584486784410936 -0.019529570130708926 0.027617337395966286 -0.0052359662443670048 0.0040389539988445137 0.011711850941505817 0.22248785179411254 -0.032867647131497341 0.16173020933970758 -0.083779740741490916 -0.06452963600299419 -0.049246439000941375 0.043246364312677033 -0.015537297862640236 0.023445393418193478 0.015299631156776234 0.068913727527775637 0.031843836694042914 -0.023498635942513186 0.053856631461846077 0.0022611311273955026
leaf_weight=16.000000000000004 122 295 21 302 124 492 69 11.999999999999998 46 147 243 152 589 13.999999999999998 247 14.999999999999998 407709 38 174 122 76 92 12.999999999999998 136 89 312 220 1539 873 396 21 362 53 126 150 190 163 358 297 303 142 220 248 205 11.999999999999998
leaf_count=16 122 295 21 302 124 492 69 12 46 147 243 152 589 14 247 15 407709 38 174 122 76 92 13 136 89 312 220 1539 873 396 21 362 53 126 150 190 163 358 297 303 142 220 248 205 12
internal_value=0 -0.000240319 0.11706 1.99018e-05 -0.089312 -0.000116979 0.101214 0.387973 -0.178411 -0.0736794 0.0328437 0.0829792 -9.99848e-08 -0.271454 -0.0265288 0.306567 -3.38612e-05 0.165673 -0.0601325 -0.0976924 0.0447517 -0.149263 -0.228758 0.070619 0.103404 -0.0208461 0.0249492 -0.00682443 -5.34095e-08 0.010647 0.199103 -0.0365726 0.149328 -0.0897445 -0.0692136 -0.0526636 0.0395824 -0.0174286 0.0213649 0.013298 0.0652711 0.0297797 -0.025428 0.0521437 0.00752769
internal_weight=0 416675 870 415461 1214 413735 822 48 181 1033 1726 641 411913 43 1822 36 410613 181 661 372 687 138 29 400 241 1165 1039 2031 408582 1300 59 657 122 248 297 364 406 670 599 699 264 440 495 281 601
internal_count=417545 416675 870 415461 1214 413735 822 48 181 1033 1726 641 411913 43 1822 36 410613 181 661 372 687 138 29 400 241 1165 1039 2031 408582 1300 59 657 122 248 297 364 406 670 599 699 264 440 495 281 601
is_linear=0
shrinkage=0.0604378


Tree=8
num_leaves=44
num_cat=0
split_feature=134 134 134 134 134 134 134 63 134 134 0 134 134 112 134 134 134 134 134 134 134 67 134 134 134 131 134 134 134 134 134 131 134 134 134 132 134 134 134 134 132 134 134
split_gain=2771.81 2399.2 795.497 464.481 399.745 303.079 251.626 193.427 108.832 99.4879 48.3515 38.7316 37.7731 30.8181 29.4276 24.2864 23.8411 23.6748 16.0405 13.0996 5.93629 5.16333 4.36061 3.88027 3.86497 3.79097 3.52856 3.13757 3.12449 2.2314 1.91841 1.5277 1.24287 1.23549 1.21297 0.69492 0.596881 0.445889 0.42134 0.240333 0.203248 0.166592 0.11132
threshold=4.8259936334171811e-05 -4.0531463151083351e-05 0.00021727949559180451 -0.00012429185378048932 1.4011489452681049e-05 -1.3183133187155692e-05 0.00010592453926450142 0.74250000000000005 -7.3779104196591825e-05 -0.00017323900425120217 28448.550000000003 7.0580222366500869e-05 2.8004539483816874e-05 -0.15255134319075478 0.00014974388968691524 -2.4727642848887396e-05 -5.2606475506866693e-06 5.2909633116993157e-06 -9.8491515630905177e-05 -5.6234667618226812e-05 3.8497343692878168e-05 0.070500000000000021 9.154785438614256e-05 -1.9299103410086446e-05 2.0999837267776659e-05 3.325000000002547 -1.0000000180025095e-35 5.9509956820025252e-05 0.00017090917804085673 -3.1803524992324299e-05 -8.6178544408677102e-05 -3.8949999999949791 -4.7278048951326916e-05 -9.6515108484185302e-06 8.7720934949242508e-06 -1.6925000000010184 3.1785497353831189e-05 -1.5782665602093179e-05 1.7501793935226221e-05 2.1988500695124816e-05 1.9850000000024013 4.2415492772396319e-05 -2.4516714277500459e-05
decision_type=10 10 10 10 10 10 10 2 10 10 2 10 10 2 10 10 10 10 10 10 10 2 10 10 10 2 10 10 10 10 10 2 10 10 10 2 10 10 10 10 2 10 10
left_child=1 3 6 9 5 15 11 13 18 10 -1 27 24 -4 25 29 33 26 -5 35 36 -12 40 42 38 -8 -18 -2 -16 -3 -20 -11 -21 -7 -19 -10 -14 -25 -6 -26 -13 -22 -17
right_child=2 4 7 8 12 16 14 -9 19 31 21 22 20 -15 28 23 17 34 30 32 41 -23 -24 37 39 -27 -28 -29 -30 -31 -32 -33 -34 -35 -36 -37 -38 -39 -40 -41 -42 -43 -44
leaf_value=-0.33323706985449086 0.056501989202014553 -0.038663620226510501 0.21663101202062257 -0.11589415526672257 0.014864510903738448 -0.011197099386377377 0.12039683125421073 0.56788044699518736 -0.07300067531870065 -0.16315983383320423 -0.16922161009278935 0.079842121888400841 0.031503212059295897 0.34578709468320051 0.16501125671393124 -0.026025456793871492 -0.0033981524277696368 0.0069489472561848897 -0.096664231818138519 -0.054363718023333278 0.042433364191472395 -0.23285086866404359 0.102919787494407 -0.018387682165796053 0.022248281932116344 0.14347392250471583 2.8562474204458737e-07 0.06847510586866111 0.19795832004212069 -0.030892660214972528 -0.082972422613882948 -0.14042457630969346 -0.046353406882719946 -0.0069740244805451251 0.011170382794004195 -0.063942209275927725 0.03715177792244137 -0.014593513064828346 0.018883374023329017 0.026210366808528254 0.08985614625696621 0.04848602020512361 -0.022425506615150245
leaf_weight=20 238 278 15.999999999999998 130 300 485 72 11.999999999999998 121 45 12.000000000000002 88 328 14.000000000000002 37 167 1119 584 97 219 206 15.999999999999998 95 301 238 75 408745 168 34 374 143 49 201 632 503 149 174 352 263 254 88 104 325
leaf_count=20 238 278 16 130 300 485 72 12 121 45 12 88 328 14 37 167 1119 584 97 219 206 16 95 301 238 75 408745 168 34 374 143 49 201 632 503 149 174 352 263 254 88 104 325
internal_value=0 -0.000237988 0.103828 -0.0855013 8.4803e-06 -0.000117342 0.091732 0.361069 -0.0717175 -0.188243 -0.259672 0.0734838 0.0279115 0.277624 0.148303 -0.024884 -9.28357e-06 1.46312e-05 -0.0982458 -0.0574609 0.0377415 -0.206353 0.0913434 -0.019538 0.0203252 0.132318 -8.93998e-06 0.0615096 0.181093 -0.0342392 -0.0885962 -0.151538 -0.0505817 -0.00882703 0.00892226 -0.0680818 0.0335041 -0.0163755 0.0167803 0.0243377 0.0849719 0.0445336 -0.0236914
internal_weight=0 416934 937 1202 415732 413865 895 42 1060 142 48 677 1867 30 218 1797 412068 410951 370 690 812 28 271 1145 1055 147 409864 406 71 652 240 94 420 1117 1087 270 502 653 563 492 176 310 492
internal_count=417871 416934 937 1202 415732 413865 895 42 1060 142 48 677 1867 30 218 1797 412068 410951 370 690 812 28 271 1145 1055 147 409864 406 71 652 240 94 420 1117 1087 270 502 653 563 492 176 310 492
is_linear=0
shrinkage=0.0604378


Tree=9
num_leaves=45
num_cat=0
split_feature=134 134 134 134 134 134 134 63 134 134 0 134 134 43 134 134 134 134 134 134 132 134 67 134 134 134 134 132 134 134 134 132 134 134 134 134 134 134 134 134 134 134 134 134
split_gain=2447.66 2118.59 702.457 410.196 353.018 267.634 222.37 170.455 96.2516 87.7705 42.4733 33.4487 32.9762 31.9777 26.5285 21.469 21.4182 20.8984 14.5676 11.1122 6.20317 5.13374 4.41941 3.41295 3.3427 3.2511 3.09898 2.96612 2.63654 1.9571 1.58808 1.26732 1.22656 1.08473 1.06319 0.737097 0.736907 0.647588 0.382617 0.360673 0.125045 0.108409 0.0851351 0.0340117
threshold=4.8259936334171811e-05 -4.0531463151083351e-05 0.00021727949559180451 -0.00012429185378048932 1.4011489452681049e-05 -1.3183133187155692e-05 0.00010153300469428751 0.74250000000000005 -7.7138040075419565e-05 -0.00017323900425120217 28448.550000000003 2.8230843672316656e-05 0.00014974388968691524 0.50550000000000017 6.7142435622891141e-05 1.767529330565232e-06 -2.4727642848887396e-05 -5.2606475506866693e-06 -5.6234667618226812e-05 -9.8491515630905177e-05 3.0625000000036384 2.0999837267776659e-05 0.070500000000000021 -1.9299103410086446e-05 3.8497343692878168e-05 8.7720934949242508e-06 -1.0000000180025095e-35 2.1000000000003642 0.00017090917804085673 -3.5027006303756096e-05 5.6443163537811543e-05 -3.6899999999986899 -6.6507049969133356e-05 -9.6515108484185302e-06 -4.7278048951326916e-05 -8.6178544408677102e-05 5.2909633116993157e-06 2.1988500695124816e-05 -1.5782665602093179e-05 1.7501793935226221e-05 4.1256080781537647e-05 -2.8255721963910126e-05 -2.119530953759163e-05 3.1785497353831189e-05
decision_type=10 10 10 10 10 10 10 2 10 10 2 10 10 2 10 10 10 10 10 10 2 10 2 10 10 10 10 2 10 10 10 2 10 10 10 10 10 10 10 10 10 10 10 10
left_child=1 3 6 9 5 16 14 13 19 10 -1 21 20 -4 30 17 29 33 32 -5 -8 39 -12 42 43 36 -19 -16 -14 -3 -2 -11 -10 -7 -20 -21 -17 -23 -25 -6 -26 -31 -18 -13
right_child=2 4 7 8 11 15 12 -9 18 31 22 24 28 -15 27 25 23 26 34 35 -22 37 -24 38 40 -27 -28 -29 -30 41 -32 -33 -34 -35 -36 -37 -38 -39 -40 -41 -42 -43 -44 -45
leaf_value=-0.31309697202239289 0.052380375732179116 -0.036864561248897913 0.34018906328010112 -0.10888977186664466 0.013966133270573316 -0.010520371679187486 0.1082156509058395 0.53355902657049459 -0.07006739375854662 -0.15407875906616744 -0.15899423732758416 0.030818113402504271 0.15503835287163831 0.20682130519304207 0.075300092973467264 0.0036672531095895415 -0.023969958925878811 -0.0031927756302151332 -0.051078098635504096 -0.090822062567409517 0.13311067777481442 0.02090364639494894 -0.21877788893475633 -0.017276372231967686 0.038617710245201338 0.010495270325531811 -7.7616508767961795e-06 0.089916774864160276 0.18599416301166752 -0.031208337341214306 0.061879733798923593 -0.13254006040898947 -0.060347254159077574 -0.0065525302000050169 -0.043551911316411424 -0.079557707314416873 0.0065289684723523174 0.025707952493141277 -0.013711514019323833 0.017742105552611933 0.044088468413223288 -0.027176426932451155 -0.020742077241513186 0.034906407702379551
leaf_weight=20 208 241 12.000000000000002 130 300 485 93 11.999999999999998 152 42 12.000000000000002 196 37 18 153 899 225 1119 219 97 87 238 15.999999999999998 301 131 503 407846 120 34 218 163 52 157 632 201 104 584 386 352 263 179 193 267 174
leaf_count=20 208 241 12 130 300 485 93 12 152 42 12 196 37 18 153 899 225 1119 219 97 87 238 16 301 131 503 407846 120 34 218 163 52 157 632 201 104 584 386 352 263 179 193 267 174
internal_value=0 -0.000223633 0.097568 -0.0803458 7.97091e-06 -0.000110266 0.0861996 0.339309 -0.0673904 -0.176902 -0.244032 0.0262295 0.134541 0.260889 0.067325 -8.71932e-06 -0.0233837 -3.91304e-05 -0.0550475 -0.0945095 0.120368 0.0200667 -0.193928 -0.0183606 0.0369554 0.00625988 -1.65293e-05 0.0818042 0.170167 -0.0321719 0.0566122 -0.142394 -0.0651986 -0.00829471 -0.0475277 -0.0851013 0.00480876 0.0239102 -0.0153878 0.0157684 0.0418463 -0.0293676 -0.0222622 0.0327991
internal_weight=0 416934 937 1202 415732 413865 895 42 1060 142 48 1867 251 30 644 412068 1797 410082 729 331 180 1187 28 1145 680 1986 408965 273 71 652 371 94 309 1117 420 201 1483 624 653 563 310 411 492 370
internal_count=417871 416934 937 1202 415732 413865 895 42 1060 142 48 1867 251 30 644 412068 1797 410082 729 331 180 1187 28 1145 680 1986 408965 273 71 652 371 94 309 1117 420 201 1483 624 653 563 310 411 492 370
is_linear=0
shrinkage=0.0604378


Tree=10
num_leaves=45
num_cat=0
split_feature=134 134 134 134 134 134 134 112 134 134 89 134 134 134 134 134 134 134 67 134 67 134 134 134 134 134 134 134 134 134 134 134 132 134 134 134 134 134 134 134 134 134 134 132
split_gain=2161.4 1870.84 620.319 362.265 311.76 236.355 196.506 158.942 84.935 77.4299 40.8528 30.1808 29.5835 22.6871 18.9608 18.9096 18.4541 12.8247 12.1879 9.73975 9.09031 4.82596 3.3025 3.00704 2.86481 2.84617 2.7357 2.68968 2.37233 2.21313 1.49679 1.03897 1.02308 0.952 0.906626 0.647293 0.59351 0.475523 0.37148 0.275618 0.231574 0.12957 0.102605 0.0538023
threshold=4.8259936334171811e-05 -4.0531463151083351e-05 0.00021727949559180451 -0.00012429185378048932 1.4011489452681049e-05 -1.3183133187155692e-05 0.00010592453926450142 0.54366276250686185 -7.7138040075419565e-05 -0.00017323900425120217 0.29550000000000004 7.0580222366500869e-05 2.4750462738420968e-05 0.00014974388968691524 1.767529330565232e-06 -2.4516714277500459e-05 -5.2606475506866693e-06 -5.6234667618226812e-05 0.37950000000000006 -9.8491515630905177e-05 0.83450000000000013 3.8497343692878168e-05 9.154785438614256e-05 -3.1489506125581539e-05 8.7720934949242508e-06 0.00012289595683911972 -1.0000000180025095e-35 1.7688721463460236e-05 5.9509956820025252e-05 0.00017090917804085673 -1.7500078752952227e-05 -6.6507049969133356e-05 -3.6899999999986899 -9.6515108484185302e-06 -4.7278048951326916e-05 5.2909633116993157e-06 -8.6178544408677102e-05 3.1785497353831189e-05 -3.5027006303756096e-05 -1.9299103410086446e-05 1.7501793935226221e-05 2.1988500695124816e-05 4.2415492772396319e-05 1.9850000000024013
decision_type=10 10 10 10 10 10 10 2 10 10 2 10 10 10 10 10 10 10 2 10 2 10 10 10 10 10 10 10 10 10 10 10 2 10 10 10 10 10 10 10 10 10 10 2
left_child=1 3 6 9 5 15 11 18 19 10 -1 28 27 25 16 23 33 31 -4 -5 -12 37 43 38 35 -8 -18 40 -2 -15 39 -10 -11 -7 -19 -16 -21 -14 -3 -17 -6 -29 -23 -13
right_child=2 4 7 8 12 14 13 -9 17 32 20 22 21 29 24 30 26 34 -20 36 -22 42 -24 -25 -26 -27 -28 41 -30 -31 -32 -33 -34 -35 -36 -37 -38 -39 -40 -41 -42 -43 -44 -45
leaf_value=-0.31428830406378372 0.049849015560660889 -0.034636549248911776 0.18601638170335663 -0.1023087203933437 0.013122051635732674 -0.0098845441886780613 0.10600116743412262 0.48658145490107302 -0.065832678722302418 -0.14476658626393599 -0.1608560856238391 0.070465675295066435 0.027713854157635612 0.14566818328115799 0.0034456126294427885 -0.019781739502885913 -0.0029998114572858817 -0.047991052085943897 0.27458147916520742 -0.085332982019482681 -0.23334942357706445 0.037414441855507179 0.090881006914319856 -0.024715125028378873 0.0098609596563605292 0.12652540526779896 -7.2925538395612773e-06 0.019459639373554494 0.060422514118325527 0.17475309501304212 -0.013077665715535744 -0.056700000382549402 -0.12452963277083816 -0.0061565100171387345 -0.040919731420293988 0.0061343720831936272 -0.074749418373592211 0.032796743071915505 -0.029518314253233459 -0.016304543430044668 0.016482342179733895 0.022797991368853902 0.042891024943305829 0.079302272745704561
leaf_weight=14.999999999999998 238 241 13.000000000000002 130 300 485 70 13.999999999999998 152 42 20 88 352 37 899 325 1119 219 14.999999999999998 97 12.999999999999998 206 95 391 503 77 407846 269 168 34 380 157 52 632 201 584 104 174 187 273 232 230 104 88
leaf_count=15 238 241 13 130 300 485 70 14 152 42 20 88 352 37 899 325 1119 219 15 97 13 206 95 391 503 77 407846 269 168 34 380 157 52 632 201 584 104 174 187 273 232 230 104 88
internal_value=0 -0.000210152 0.0916851 -0.0755018 7.48603e-06 -0.000103623 0.0810001 0.318864 -0.0633249 -0.166248 -0.229338 0.0648667 0.0246491 0.131003 -8.19235e-06 -0.0219748 -3.6775e-05 -0.0517259 0.234234 -0.0888054 -0.190069 0.0331277 0.0806513 -0.0287841 0.00588286 0.116899 -1.55335e-05 0.0177532 0.0542775 0.159901 -0.0162504 -0.0612624 -0.133802 -0.00779456 -0.0446584 0.00451901 -0.0799644 0.0294364 -0.0324508 -0.0182305 0.0146281 0.0210417 0.0393215 0.0750068
internal_weight=0 416934 937 1202 415732 413865 895 42 1060 142 48 677 1867 218 412068 1797 410082 729 28 331 33 836 271 819 1986 147 408965 1031 406 71 978 309 94 1117 420 1483 201 526 428 598 532 499 310 176
internal_count=417871 416934 937 1202 415732 413865 895 42 1060 142 48 677 1867 218 412068 1797 410082 729 28 331 33 836 271 819 1986 147 408965 1031 406 71 978 309 94 1117 420 1483 201 526 428 598 532 499 310 176
is_linear=0
shrinkage=0.0604378


Tree=11
num_leaves=90
num_cat=0
split_feature=118 131 121 131 131 83 131 131 125 131 140 136 131 117 51 140 131 140 117 122 131 125 131 119 131 139 131 118 115 123 131 139 125 118 115 118 106 125 131 122 128 131 77 87 131 136 131 124 131 73 136 125 135 127 118 1 51 69 51 73 139 37 131 122 131 117 126 57 51 123 140 93 113 45 115 119 125 100 125 118 31 127 89 126 119 125 1 118 93
split_gain=623.019 626.53 360.347 673.275 277.84 151.45 125.401 116.938 103.049 71.1156 61.5744 57.9877 53.0675 47.7173 46.7961 43.3606 27.4399 206.429 73.7875 30.8839 26.855 25.8266 25.7248 25.0274 80.0487 37.6372 45.0545 21.9808 18.2789 18.2395 16.7849 16.7233 15.4652 15.1987 13.9404 14.591 13.7702 12.9664 12.0948 11.8296 11.1689 10.8979 7.78746 7.26684 7.23798 6.59165 6.14607 5.50614 5.16658 4.56287 4.42639 4.31214 4.20406 4.04761 3.2733 2.70063 2.72659 2.69006 1.76647 1.69361 1.61878 1.60212 1.43686 1.35008 1.1689 1.1328 1.1224 1.01632 0.883252 0.808423 0.776192 0.600877 0.415343 0.39899 0.391339 0.196898 0.098179 0.0932237 0.0822892 0.0603141 0.0205623 0.0168482 0.00549502 0.00395128 0.0037509 0.00343794 0.00319798 0.0021947 0.000103157
threshold=-7.152499999999999 -2.3225000000020368 0.44350000000000006 3.325000000002547 0.7500000000018191 2.3305000000000002 -3.8949999999949791 -1.3150000000005091 0.999956795990668 1.7075000000004368 -3.5874999999999981 1.060349843862163e-05 5.0587500000001464 -0.022999999999999993 8.6075000000000017 4.085 2.520000000002256 -2.9715000000000011 0.0050000000000000027 1.3065000000000004 -0.46374999999898131 0.999956795990668 3.8537500000002187 -0.8879999999999999 -1.0449999999964346 6.4345000000000008 -3.8949999999949791 0.0019999999999998357 7.4140000000000015 -0.0010000000000001108 0.26125000000320148 16.706500000000009 -0.99995281906109923 0.0050000000000003939 4.9890000000000008 4.9944999999999995 -0.46077458324415271 0.999956795990668 2.1000000000003642 -0.0010000000000000002 0.38588521141479032 1.8362500000002913 1.6795000000000002 0.25750000000000006 -2.7749999999996358 -3.4991829474528831e-06 -1.837500000001455 -4.7179999999999991 -0.83999999999832642 0.38950000000000007 -1.0000000180025095e-35 0.999956795990668 -1.0000000180025095e-35 -0.99978433265594779 0.00099999999999994212 0.95950000000000013 4.4155000000000006 1.0475000000000001 0.59550000000000003 4.3945000000000007 16.626500000000011 0.25250000000000006 -0.27875000000130962 -3.0499999999999989 -3.1487500000002906 8.5050000000000008 0.99996270048489377 8.1780000000000026 2.5995000000000004 0.81950000000000012 -10.665499999999998 0.32550000000000007 0.87399286400792453 0.044500000000000005 7.4140000000000015 -0.9454999999999999 -0.99995281906109923 28595.850000000002 -0.99995281906109923 -16.449999999999996 0.50650000000000006 0.99975673087698858 0.68450000000000022 -0.99996894892097499 -0.8879999999999999 0.18373870592457112 1.5805000000000002 -12.712499999999997 0.62750000000000006
decision_type=2 2 2 2 2 2 2 2 10 2 2 10 2 2 2 2 2 2 2 2 2 10 2 2 2 2 2 2 2 2 2 2 8 2 2 2 2 10 2 2 10 2 2 2 2 10 2 2 2 2 10 10 10 8 2 2 2 2 2 2 2 2 2 2 2 2 10 2 2 2 2 2 2 2 2 2 10 2 10 2 2 8 2 8 2 10 2 2 2
left_child=1 6 16 4 30 8 13 14 85 27 38 12 -10 43 31 44 23 18 -18 34 29 -12 61 24 25 26 -2 37 65 45 58 46 -27 41 69 -36 71 -6 -11 50 -24 -30 57 -1 64 76 47 -3 -47 -45 79 84 -52 59 -53 56 -26 -33 66 62 -46 -20 -22 -48 73 70 -4 -44 -67 -19 -25 -17 81 -8 -60 78 -9 -57 -31 -16 -51 -55 -73 87 -32 -5 -29 -41 -85
right_child=2 7 3 5 9 -7 15 20 11 10 21 -13 -14 -15 39 36 17 19 22 -21 53 -23 40 28 55 32 -28 86 33 75 51 42 -34 -35 35 -37 -38 -39 -40 83 -42 -43 67 49 60 48 63 -49 -50 80 52 54 -54 72 -56 77 -58 -59 74 -61 -62 -63 -64 -65 -66 68 -68 -69 -70 -71 -72 82 -74 -75 -76 -77 -78 -79 -80 -81 -82 -83 -84 88 -86 -87 -88 -89 -90
leaf_value=-0.1760344812642477 -0.15127981584221262 -0.065486993792548631 -0.00052664578544356518 0 0 0.33038773611537459 -0.091858949055538611 -0.0052486845440307449 0.11051797975339832 0.051523109993692764 0.00036968219695304873 0 0.18728983429811832 -0.26757736434628099 -0.0074096753357806057 -0.017181536986666759 0 7.4617902302137485e-06 0.064218382265156235 0.07670892795834168 -0.0088899620687599018 0.035850545771853391 0.20252342775806007 0.003369373064041086 -0.010651794395626829 -0.02211393659944192 -0.03942622682205451 0.00073756172473455305 0.010759909018568945 -0.0036760600192769135 -0.0010266072699159311 -0.017435946929153252 0.00073850661393854485 0 0.074753203639145796 0 -0.071639125941838508 0.023301594899457326 0.077472336239638062 -0.0010487715514961517 0.11830108667090365 0.045005572747999462 -0.046275599031034058 -0.096269883647729357 -0.079403598214698515 -0.021164041401155624 -0.031459653117991239 -0.021630949291884825 -0.014340463596415779 -0.12918654782457972 -0.0011218892861729697 0.012020960516968408 -0.02799129420362783 -0.0011210329347043531 0 -1.4217284526122428e-05 -0.0006409840143563227 -0.03254491172974365 5.58705114225441e-06 -0.029281435517024935 -0.050022309846880733 0.096004093686823694 -0.0044656208432991293 -0.047123755713829305 -0.091159994202597724 0.01146434138167966 0.006485055433892762 -0.023519105191392106 0 0.0084227238481912447 -5.9606881905498414e-06 -0.0012882092696259422 0.011235065711157073 -0.11326639390391476 0.003937909268979376 0 0 -0.0049722622164389951 0 -0.00092463307519990523 -0.15933802236348044 0 0.00011473889498644743 0 0 0.0010327004348519675 0 0 0.00020346008426569512
leaf_weight=19 14.999999999999998 133 112 16.000000000000004 93 11.999999999999998 19 146 101 140 97 11.999999999999998 51 13.999999999999998 35 11.999999999999998 28 1558 11.999999999999998 20 425 349 14 249 189 431 120 28 772 118 12.999999999999998 104 142 670 19 19 18 1646 139 20 13 36 114 15.999999999999998 96 869 34 12.999999999999998 820 16.000000000000004 25 779 260 55 95 2733 220 88 3878 11.999999999999998 11.999999999999998 49 832 156 71 56 274 11.999999999999998 45 43 396718 12.000000000000002 11.999999999999998 44 95 188 12.999999999999998 13.999999999999998 27 15.999999999999998 11.999999999999998 447 11.999999999999998 57 145 11.999999999999998 159 15.999999999999998 20
leaf_count=19 15 133 112 16 93 12 19 146 101 140 97 12 51 14 35 12 28 1558 12 20 425 349 14 249 189 431 120 28 772 118 13 104 142 670 19 19 18 1646 139 20 13 36 114 16 96 869 34 13 820 16 25 779 260 55 95 2733 220 88 3878 12 12 49 832 156 71 56 274 12 45 43 396718 12 12 44 95 188 13 14 27 16 12 447 12 57 145 12 159 16 20
internal_value=0 -0.0203234 0.000264174 0.0127714 0.010018 0.121211 -0.0959303 -0.0147534 0.108025 0.0260383 0.0421992 0.126321 0.136419 -0.16489 -0.0321677 -0.0779184 8.95336e-06 0.00750698 0.0854566 0.00204358 -0.00990236 0.0281823 0.112647 -2.40661e-05 -0.00486473 -0.0232319 -0.0520145 0.0199437 2.2811e-05 -0.0144045 0.00213599 -0.0425048 -0.016413 0.00673154 0.00111929 0.0373025 -0.0283588 0.0220611 0.0645287 -0.017063 0.162772 0.0123125 -0.0323892 -0.141728 -0.0888878 -0.0167517 -0.0520141 -0.06173 -0.017864 -0.126422 -0.0227522 0.00906804 -0.0257102 -0.00438311 0.0107292 -0.000737486 -0.00531984 -0.0244734 0.00048986 -0.0062161 -0.0763391 0.0901054 -0.00597871 -0.0444344 -0.0988405 -2.10634e-06 0.00439459 -0.0442798 0.00639761 0.000246979 -3.78905e-06 -0.00611834 0.000100262 -0.107153 0.000105054 -0.00131381 -0.00480008 -4.73528e-05 -0.00298733 -0.00579889 -0.14288 -0.00012286 0 0 0 9.25423e-05 0.000137794 -0.000623204 7.65419e-05
internal_weight=0 5440 412431 8246 8042 204 373 5067 192 2651 725 164 152 77 1103 296 404185 1775 116 1659 3964 446 88 402410 3864 708 135 1926 398546 2181 5391 654 573 1478 1639 38 54 1739 279 449 27 808 318 63 242 1848 336 146 1689 44 336 1032 285 1783 874 3156 409 192 4359 1269 108 61 1257 190 134 397068 386 126 101 1601 396967 36 514 63 3973 333 159 2747 145 51 28 502 24 113 158 28 187 36 77
internal_count=417871 5440 412431 8246 8042 204 373 5067 192 2651 725 164 152 77 1103 296 404185 1775 116 1659 3964 446 88 402410 3864 708 135 1926 398546 2181 5391 654 573 1478 1639 38 54 1739 279 449 27 808 318 63 242 1848 336 146 1689 44 336 1032 285 1783 874 3156 409 192 4359 1269 108 61 1257 190 134 397068 386 126 101 1601 396967 36 514 63 3973 333 159 2747 145 51 28 502 24 113 158 28 187 36 77
is_linear=0
shrinkage=0.0604378


Tree=12
num_leaves=43
num_cat=0
split_feature=134 134 134 112 134 134 134 134 134 97 134 81 134 134 134 132 134 134 134 134 99 134 132 134 134 134 134 134 134 134 134 131 134 134 132 134 134 134 29 134 134 132
split_gain=1775.64 1540.92 670.021 318.739 298.225 243.306 191.564 151.052 77.9231 51.9496 48.4164 33.4088 23.9134 19.0412 18.9612 17.8774 16.6396 12.7336 6.38796 5.87373 5.20829 3.54245 2.59325 2.58583 2.52445 2.22973 1.99831 1.81381 1.67896 1.63198 1.2878 0.792915 0.66942 0.368163 0.335312 0.318059 0.235429 0.226206 0.215282 0.148738 0.0806659 0.0769941
threshold=4.8259936334171811e-05 -4.0531463151083351e-05 0.00021727949559180451 0.24181115634502195 -0.00011385079891151893 1.4126164306516033e-05 -1.3183133187155692e-05 0.00010592453926450142 -0.00017323900425120217 0.44750000000000006 -7.0354781596559932e-05 0.19650000000000004 7.0580222366500869e-05 5.2909633116993157e-06 2.8230843672316656e-05 4.0375000000003647 -2.4727642848887396e-05 -5.2891773597574235e-06 -5.2917620830428273e-05 -9.1658080571044285e-05 1.2195000000000003 -0.00014058879630646223 2.340000000001965 3.8497343692878168e-05 -1.9299103410086446e-05 2.1988500695124816e-05 5.9509956820025252e-05 0.00012289595683911972 -1.7675658477989129e-06 8.7720934949242508e-06 -3.1803524992324299e-05 5.0587500000001464 -9.6515108484185302e-06 -8.0791493883680663e-05 -1.5399999999990539 1.2289919290475739e-05 2.0999837267776659e-05 -1.5782665602093179e-05 0.18050000000000002 -4.7278048951326916e-05 -2.119530953759163e-05 0.53000000000065495
decision_type=8 10 10 2 10 10 10 10 10 2 10 2 10 10 10 2 10 10 10 10 2 10 2 10 10 10 8 10 10 10 10 2 10 10 2 10 10 10 2 10 10 2
left_child=1 4 7 11 8 6 16 12 9 -1 19 -4 26 17 25 27 30 32 34 -6 -11 -10 -14 -16 40 36 -2 -9 -19 41 -3 -17 -8 -21 -12 -31 -7 -26 -22 -20 -18 -15
right_child=2 5 3 -5 10 14 13 15 21 20 18 -13 22 29 23 31 24 28 39 33 38 -23 -24 -25 37 -27 -28 -29 -30 35 -32 -33 -34 -35 -36 -37 -38 -39 -40 -41 -42 -43
leaf_value=-0.30585414717364512 0.045271411762692483 -0.030493401916140583 0.13670069894886283 0.58462733308075276 -0.083627710451550666 0.014087165015799695 -0.0085006392315854096 0.095088574833070122 -0.12774896573321812 -0.19793215389098384 -0.055259305315424598 0.27194075268710977 0.067571269330950118 0.0053974678775708679 0.027530797486182233 0.1388398576063874 -0.02022065395506193 -0.0025268522695143778 -0.041856325703799234 -0.070942717903240957 -0.15997855097385469 -0.10488884568238437 0.081533757855611927 0.035689782316857328 -0.014093066288412953 0.021601583771362596 0.054591978081355623 0.11361069631030554 -1.5482053865380566e-06 0.00796073934123997 -0.024572860522034494 0.16580116312865698 -0.0052541711440662097 -0.062413224735922868 -0.048214033769149602 0.010915329981274403 0.017452466069086493 -0.011195051665050533 -0.12714058007101753 -0.036750069723011425 -0.017171344838276793 0.0034064707035120563
leaf_weight=12.999999999999998 228 299 13.000000000000002 11.999999999999998 130 350 440 54 52 13.999999999999998 139 15.999999999999998 177 374 343 39 217 964 151 108 13.000000000000002 99 102 308 314 396 208 83 408700 424 382 19 630 125 140 309 219 340 12.999999999999998 197 259 183
leaf_count=13 228 299 13 12 130 350 440 54 52 14 139 16 177 374 343 39 217 964 151 108 13 99 102 308 314 396 208 83 408700 424 382 19 630 125 140 309 219 340 13 197 259 183
internal_value=0 -0.000193621 0.0824846 0.321632 -0.0687539 3.36776e-06 -8.79772e-05 0.071686 -0.135366 -0.198953 -0.0550059 0.212061 0.058767 -1.71642e-06 0.0234089 0.118945 -0.0197014 -2.47943e-05 -0.0447463 -0.0726675 -0.163671 -0.112904 0.0727533 0.0314242 -0.0151607 0.0179793 0.0497675 0.106468 -7.54337e-06 0.0073295 -0.0272041 0.148045 -0.00660936 -0.0664596 -0.0518015 0.00923574 0.0154204 -0.0126195 -0.144391 -0.0390278 -0.0186069 0.00478213
internal_weight=0 416645 951 41 1194 415451 413835 910 204 53 990 29 715 412024 1616 195 1811 410734 627 363 40 151 279 651 1130 965 436 137 409664 1290 681 58 1070 233 279 733 569 654 26 348 476 557
internal_count=417596 416645 951 41 1194 415451 413835 910 204 53 990 29 715 412024 1616 195 1811 410734 627 363 40 151 279 651 1130 965 436 137 409664 1290 681 58 1070 233 279 733 569 654 26 348 476 557
is_linear=0
shrinkage=0.0604378


Tree=13
num_leaves=45
num_cat=0
split_feature=134 134 134 112 134 134 134 134 134 97 134 81 134 134 134 132 134 134 134 134 99 134 134 134 134 134 134 134 134 134 134 131 134 134 134 132 134 134 120 134 131 134 134 134
split_gain=1568.05 1360.84 591.694 281.086 263.389 214.848 169.174 133.366 68.8109 45.6788 42.707 29.35 21.0741 16.824 16.729 15.713 14.6717 11.2453 5.60998 5.1322 4.52945 3.05132 2.40515 2.31524 2.21894 1.78324 1.73063 1.6502 1.55772 1.43532 1.11856 0.600485 0.586508 0.280348 0.274569 0.261198 0.197469 0.191209 0.170906 0.105078 0.0744329 0.0587066 0.0378892 0.0221911
threshold=4.8259936334171811e-05 -4.0531463151083351e-05 0.00021727949559180451 0.24181115634502195 -0.00011385079891151893 1.4126164306516033e-05 -1.3183133187155692e-05 0.00010592453926450142 -0.00017323900425120217 0.44750000000000006 -7.0354781596559932e-05 0.19650000000000004 7.0580222366500869e-05 5.2909633116993157e-06 3.15229251868221e-05 4.0375000000003647 -2.4727642848887396e-05 -5.2891773597574235e-06 -5.2917620830428273e-05 -9.1658080571044285e-05 1.0185000000000002 -0.00014058879630646223 2.1988500695124816e-05 8.4250445754108241e-05 -1.9299103410086446e-05 3.8497343692878168e-05 5.9509956820025252e-05 1.7630574253857392e-06 0.00013415236969482883 8.7720934949242508e-06 -3.1803524992324299e-05 5.0587500000001464 -9.6515108484185302e-06 -8.0791493883680663e-05 1.2289919290475739e-05 -1.5399999999990539 2.0999837267776659e-05 -1.5782665602093179e-05 -2.2454999999999994 -4.7278048951326916e-05 2.7199999999975266 -2.119530953759163e-05 2.4750462738420968e-05 4.2415492772396319e-05
decision_type=8 10 10 2 10 10 10 10 10 2 10 2 10 10 10 2 10 10 10 10 2 10 10 10 10 10 8 10 10 10 10 2 10 10 10 2 10 10 2 10 2 10 10 10
left_child=1 4 7 11 8 6 16 12 9 -1 19 -4 26 17 22 28 30 32 35 -6 -11 -10 36 -14 41 -16 -2 -19 -9 40 -3 -17 -8 -21 -31 -12 -7 -26 -22 -20 -15 -18 -24 -27
right_child=2 5 3 -5 10 14 13 15 21 20 18 -13 23 29 25 31 24 27 39 33 38 -23 42 -25 37 43 -28 -29 -30 34 -32 -33 -34 -35 -36 -37 -38 -39 -40 -41 -42 -43 -44 -45
leaf_value=-0.28736901456494784 0.042535309769206095 -0.028650449429567279 0.1284388168085136 0.54929376448795331 -0.078573439888381627 0.013235768530864988 -0.0079868797867005924 0.093707621152930201 -0.12002810551782404 -0.19007745977930243 -0.051919557165411724 0.25550526669258905 0.061133674126886785 0.0046204787921962902 0.026307156377221606 0.13044868932765721 -0.018998562674666382 -1.2935557572360323e-05 -0.03932662346120612 -0.066655097489128137 -0.12352361216680856 -0.098549600642714508 0.019132128072412519 0.074003307976389363 -0.013241312915833072 0.031790213282646383 0.051292561791975513 0.0025330250743205961 0.11171363793510145 0.0074796102119864174 -0.023087732571341651 0.1557805093566382 -0.004936620827985295 -0.058641110135825097 0.010255631845019051 -0.045300085508174701 0.016397678170027966 -0.010518447587001985 -0.15443571948680718 -0.034528978150480789 0 -0.016133547869501174 0.022166019741571889 0.036430727999988838
leaf_weight=12.999999999999998 228 299 13.000000000000002 11.999999999999998 130 350 440 90 52 11.999999999999998 139 15.999999999999998 124 540 291 39 217 408732 151 108 15.999999999999998 99 230 155 314 197 208 932 47 424 382 19 630 125 309 140 219 340 12.000000000000002 197 17 259 218 111
leaf_count=13 228 299 13 12 130 350 440 90 52 12 139 16 124 540 291 39 217 408732 151 108 16 99 230 155 314 197 208 932 47 424 382 19 630 125 309 140 219 340 12 197 17 259 218 111
internal_value=0 -0.00018196 0.0775131 0.302257 -0.0646117 3.15794e-06 -8.26758e-05 0.0673635 -0.127217 -0.187003 -0.0516894 0.19929 0.0552207 -1.60952e-06 0.0219974 0.111776 -0.0185143 -2.33054e-05 -0.0420482 -0.0682828 -0.153844 -0.106089 0.0172281 0.0683609 -0.0142479 0.0300586 0.0467626 -7.09066e-06 0.100043 0.00688956 -0.0255618 0.13912 -0.00621113 -0.0624485 0.00867934 -0.0486754 0.0144907 -0.0118588 -0.137543 -0.0366728 0.00449546 -0.0174851 0.0206567 0.0335328
internal_weight=0 416645 951 41 1194 415451 413835 910 204 53 990 29 715 412024 1616 195 1811 410734 627 363 40 151 1017 279 1130 599 436 409664 137 1290 681 58 1070 233 733 279 569 654 28 348 557 476 448 308
internal_count=417596 416645 951 41 1194 415451 413835 910 204 53 990 29 715 412024 1616 195 1811 410734 627 363 40 151 1017 279 1130 599 436 409664 137 1290 681 58 1070 233 733 279 569 654 28 348 557 476 448 308
is_linear=0
shrinkage=0.0604378


Tree=14
num_leaves=43
num_cat=0
split_feature=134 134 134 81 134 134 134 134 134 134 116 0 134 134 134 134 134 132 29 134 134 134 134 134 134 134 134 134 134 134 134 134 132 134 134 134 134 134 132 134 134 134
split_gain=1384.76 1201.88 522.536 271.668 229.663 189.807 154.18 117.981 47.7571 46.164 44.0169 37.942 23.0253 16.4416 13.8098 13.4924 9.93129 9.56305 7.80044 7.007 5.76601 3.54752 2.31917 1.70004 1.56203 1.51179 1.48171 1.44341 0.826262 0.624017 0.513582 0.478007 0.430718 0.261539 0.160826 0.110909 0.109608 0.0983998 0.0676379 0.0640499 0.0515278 0.0195672
threshold=4.8259936334171811e-05 -4.2089684157586842e-05 0.00021727949559180451 1.5005000000000002 -0.00012429185378048932 1.7501793935226221e-05 -1.3183133187155692e-05 0.0001149342058585079 -7.3779104196591825e-05 -0.00017323900425120217 -0.10999999999999992 28464.150000000005 7.0580222366500869e-05 5.2909633116993157e-06 -2.8029950160601832e-05 3.15229251868221e-05 -5.2891773597574235e-06 4.0375000000003647 0.35550000000000004 -9.8491515630905177e-05 -5.2917620830428273e-05 9.5340837995339114e-05 -1.9299103410086446e-05 2.1988500695124816e-05 3.8812822532707798e-05 5.9969646932889205e-05 -1.7675658477989129e-06 1.0496245025026775e-05 -3.5027006303756096e-05 -6.332375859668947e-05 -9.6515108484185302e-06 -8.0791493883680663e-05 -3.6899999999986899 1.2289919290475739e-05 -1.5782665602093179e-05 8.4250445754108241e-05 -2.119530953759163e-05 0.00017090917804085673 0.87999999999919976 3.5023325792749034e-05 2.0999837267776659e-05 2.4750462738420968e-05
decision_type=8 10 10 2 10 10 10 10 10 10 2 2 10 10 10 10 10 2 2 10 10 10 10 10 10 8 10 10 10 10 10 10 2 10 10 10 10 10 2 10 10 10
left_child=1 4 7 11 9 6 14 12 19 10 18 -4 25 16 28 23 30 -9 -1 -6 29 35 36 40 39 -2 -18 38 -3 -10 -8 -21 -11 -29 -24 -14 -16 -19 -15 -17 -7 -25
right_child=2 5 3 -5 8 15 13 17 20 32 -12 -13 21 27 22 24 26 37 -20 31 -22 -23 34 41 -26 -27 -28 33 -30 -31 -32 -33 -34 -35 -36 -37 -38 -39 -40 -41 -42 -43
leaf_value=-0.16800674178597033 0.040591870909082985 -0.027502225296062003 0.11342836156178557 0.5268649958047904 -0.08040616683562829 0.012881798768864056 -0.0075041708923703956 0.098201607667081747 -0.050480587615883074 -0.11389244776485376 -0.27423449192190563 0.25565313980732757 0.057438892778907145 0.0046569382537407404 -0.018054973349678826 0.023440212825469528 -0.0023733532199187173 0.11867412973421392 -0.10845000629653019 -0.064819595925963702 -0.034744331451678157 0.075827434267310839 -0.012441037932454482 0.017975824924909827 0.032442095475136525 0.049050211490609216 -1.0237296225246265e-06 0.0071130967570648511 -0.022437601353620905 -0.043118971493630656 -0.0046382625861475842 -0.055935017026993016 -0.098496969319086317 0.0097575351495109951 -0.0098827363188750718 0.065239130664960981 -0.015158472547963663 0.13921554621201399 0.002152269652394579 0.027270856203589697 0.015406639924160337 0.020826355317542462
leaf_weight=23 266 287 15.000000000000002 11.999999999999998 124 288 440 106 150 46 12.999999999999998 13.999999999999998 124 517 276 176 964 25 17 160 325 103 314 230 235 170 408700 384 358 168 630 86 59 371 340 83 259 33 80 188 219 218
leaf_count=23 266 287 15 12 124 288 440 106 150 46 13 14 124 517 276 176 964 25 17 160 325 103 314 230 235 170 408700 384 358 168 630 86 59 371 340 83 259 33 80 188 219 218
internal_value=0 -0.000170993 0.0728421 0.284053 -0.0613145 1.28599e-06 -7.78137e-05 0.0633023 -0.0507087 -0.129175 -0.175775 0.182834 0.0530428 0 -0.0175625 0.021084 -2.19e-05 0.109839 -0.143235 -0.068095 -0.0406706 0.0657765 -0.0136591 0.016569 0.0282463 0.0439394 -6.65892e-06 0.00665394 -0.0247247 -0.0466594 -0.00583696 -0.0618015 -0.105447 0.00844117 -0.0111441 0.0606709 -0.0166931 0.130734 0.0043575 0.025478 0.014015 0.0194112
internal_weight=0 416645 951 41 1171 415474 413920 910 1013 158 53 29 746 412086 1834 1554 410734 164 40 370 643 310 1189 955 599 436 409664 1352 645 318 1070 246 105 755 654 207 535 58 597 364 507 448
internal_count=417596 416645 951 41 1171 415474 413920 910 1013 158 53 29 746 412086 1834 1554 410734 164 40 370 643 310 1189 955 599 436 409664 1352 645 318 1070 246 105 755 654 207 535 58 597 364 507 448
is_linear=0
shrinkage=0.0604378


Tree=15
num_leaves=44
num_cat=0
split_feature=134 134 134 112 134 134 134 134 134 97 134 81 131 134 134 134 134 134 134 134 99 134 131 134 134 134 134 134 134 134 134 132 134 132 134 134 134 134 134 132 21 134 134
split_gain=1222.93 1061.54 461.473 246.027 196.701 167.699 144.762 104.289 40.7124 39.6348 38.8763 21.192 16.8558 13.7047 13.1262 13.0437 12.317 8.771 5.24848 4.97825 3.80324 2.03848 1.77545 1.73328 1.4887 1.45634 1.40013 1.11888 1.0831 0.996001 0.900476 0.709434 0.449456 0.309373 0.198572 0.134758 0.134485 0.085542 0.0632597 0.0618429 0.0564933 0.00568226 0.00172635
threshold=4.8259936334171811e-05 -4.232603106807397e-05 0.00021727949559180451 0.24181115634502195 -0.00012429185378048932 1.4126164306516033e-05 -1.3183133187155692e-05 0.00010153300469428751 -0.00017323900425120217 0.44750000000000006 -7.7138040075419565e-05 0.19650000000000004 3.8537500000002187 -2.8029950160601832e-05 5.2909633116993157e-06 2.8230843672316656e-05 6.7142435622891141e-05 -5.2891773597574235e-06 -5.9917808028664414e-05 -9.8491515630905177e-05 1.2195000000000003 -1.9299103410086446e-05 5.0587500000001464 3.8497343692878168e-05 2.1988500695124816e-05 1.7630574253857392e-06 0.0001149342058585079 8.7720934949242508e-06 8.4250445754108241e-05 -3.5027006303756096e-05 5.6118494250356761e-05 -1.2975000000005819 -9.6515108484185302e-06 -3.6899999999986899 1.2289919290475739e-05 2.0999837267776659e-05 -1.5782665602093179e-05 -2.119530953759163e-05 -8.6178544408677102e-05 0.53000000000065495 0.33050000000000007 -3.7002112707185113e-05 4.1256080781537647e-05
decision_type=8 10 10 2 10 10 10 10 10 2 10 2 2 10 10 10 10 10 10 10 2 10 2 10 10 10 10 10 10 10 8 2 10 2 10 10 10 10 10 2 2 10 10
left_child=1 4 7 11 8 6 13 16 9 -1 19 -4 26 29 17 24 30 32 -12 -6 -11 37 -14 -17 35 -19 -9 39 -18 41 -2 -20 -8 -10 -29 -7 -23 -15 -21 -16 -22 -3 -25
right_child=2 5 3 -5 10 15 14 12 33 20 18 -13 22 21 27 23 28 25 31 38 40 36 -24 42 -26 -27 -28 34 -30 -31 -32 -33 -34 -35 -36 -37 -38 -39 -40 -41 -42 -43 -44
leaf_value=-0.25870234001217401 0.035982277477669897 -0.027950787120522194 0.10985364359633805 0.49804602742416382 -0.075546599102660733 0.011690730343069326 -0.007050635521830201 0.073320751963838374 -0.10700904476223018 -0.16396304006892165 -0.047351043453848052 0.21856522253351113 0.11001312631412197 -0.016963771822289482 0.0045135374591303307 0.022844550224147324 0.053204293085475862 -1.1753729881963451e-05 -0.038666934470693151 -0.063059658618970976 -0.10344851247385958 -0.011689129562572559 0.13795161253739496 0.026851316210975425 0.017904229696798359 0.0023799965801345139 0.088636745109682988 0.0066152342094267687 0.06296280237567306 -0.021081523233309838 0.043248944027946067 -0.032300522574794543 -0.0043579364481192585 -0.092544031005093924 0.0090460810100395552 0.014475496733156162 -0.0092854460977417324 -0.014242328238678095 -0.055756935827107952 0.0027176261253991862 -0.13199336296184283 -0.024216929478877269 0.031097684275856345
leaf_weight=12.999999999999998 157 178 13.000000000000002 11.999999999999998 124 350 440 69 46 13.999999999999998 224 15.999999999999998 66 276 374 343 160 408732 191 95 14.000000000000002 314 19 112 396 932 79 424 117 358 243 217 630 59 309 219 340 259 116 183 11.999999999999998 155 196
leaf_count=13 157 178 13 12 124 350 440 69 46 14 224 16 66 276 374 343 160 408732 191 95 14 314 19 112 396 932 79 424 117 358 243 217 630 59 309 219 340 259 116 183 12 155 196
internal_value=0 -0.000160687 0.0684534 0.266949 -0.0587898 -1.89919e-06 -7.78175e-05 0.0594865 -0.121401 -0.165201 -0.0485373 0.170578 0.0944559 -0.0168106 -1.41601e-06 0.0194296 0.0474193 -2.0586e-05 -0.0396273 -0.065282 -0.134273 -0.0128369 0.116512 0.0260851 0.0149173 -6.25966e-06 0.0816422 0.00608552 0.0574041 -0.0236169 0.0404508 -0.0353338 -0.00548541 -0.0990869 0.00766945 0.0128005 -0.0104726 -0.0156867 -0.0591473 0.0039623 -0.117454 -0.0262777 0.0296237
internal_weight=0 416645 951 41 1125 415520 413904 910 158 53 967 29 233 1880 412024 1616 677 410734 632 335 40 1189 85 651 965 409664 148 1290 277 691 400 408 1070 105 733 569 654 535 211 557 26 333 308
internal_count=417596 416645 951 41 1125 415520 413904 910 158 53 967 29 233 1880 412024 1616 677 410734 632 335 40 1189 85 651 965 409664 148 1290 277 691 400 408 1070 105 733 569 654 535 211 557 26 333 308
is_linear=0
shrinkage=0.0604378


Tree=16
num_leaves=43
num_cat=0
split_feature=134 134 134 134 140 134 134 134 134 116 134 49 134 134 63 19 134 134 134 134 132 11 117 132 134 134 134 134 134 134 134 134 134 131 134 134 134 134 123 134 131 134
split_gain=1014.46 947.492 263.638 156.354 146.375 127.3 121.86 51.8879 33.7664 32.16 24.6192 12.8416 11.7686 11.1114 10.9572 10.4693 8.38311 7.59281 7.17955 6.5895 3.81513 2.3109 2.91356 2.253 1.80459 1.66453 1.38108 1.31095 1.17245 0.89227 0.640694 0.508813 0.265244 0.257471 0.203953 0.195048 0.157416 0.148434 0.0629574 0.0146442 0.00540414 0.00437777
threshold=4.2415492772396319e-05 -4.232603106807397e-05 0.00014974388968691524 -0.00011385079891151893 4.7054999999999971 1.4011489452681049e-05 -1.3183133187155692e-05 8.4250445754108241e-05 -0.00017323900425120217 -0.10449999999999997 -7.0354781596559932e-05 0.048500000000000008 2.8004539483816874e-05 -2.8029950160601832e-05 0.092500000000000013 0.38550000000000006 -1.7675658477989129e-06 1.767529330565232e-06 0.0001149342058585079 6.3296937624857122e-05 -2.3425000000024734 0.48650000000000004 0.81750000000000012 -1.4074999999993449 -2.1008660829657796e-05 1.7688721463460236e-05 -7.0733863998251314e-06 3.1785497353831189e-05 8.7720934949242508e-06 -3.5027006303756096e-05 5.278149767395935e-05 -0.00014058879630646223 -5.2891773597574235e-06 2.7199999999975266 -8.0791493883680663e-05 -1.5782665602093179e-05 6.7142435622891141e-05 1.7501793935226221e-05 2.3150000000000004 -2.119530953759163e-05 -0.87874999999985437 2.1988500695124816e-05
decision_type=8 10 10 10 2 10 10 10 10 2 10 2 10 10 2 2 10 10 10 8 2 2 2 2 10 10 10 10 10 10 10 10 10 2 10 10 10 10 2 10 2 10
left_child=1 3 7 8 11 6 13 19 9 14 20 -4 25 29 -1 -16 26 38 33 30 -5 22 -13 -12 39 37 40 -14 -19 -3 -2 -10 -28 -9 -22 -26 -21 -7 -18 -15 -8 -27
right_child=2 5 4 10 -6 12 16 18 31 -11 23 21 27 24 15 -17 17 28 -20 36 34 -23 -24 -25 35 41 32 -29 -30 -31 -32 -33 -34 -35 -36 -37 -38 -39 -40 -41 -42 -43
leaf_value=-0.069588381942580352 0.031917107007436357 -0.024853855659035643 0.18414113784186298 -0.065805993895764983 0.34703280976978818 0.0085915245895398975 -0.0054827591967867989 0.05934691339627883 -0.09514736887683807 -0.23113611104853579 -0.04038382292733151 0.11003728178671043 0.01925321938625945 -0.015909249905820471 -0.1087225140460621 -0.1799222995128161 -4.1392132160669586e-06 0.0028688973024473441 0.084763435923590078 0.042983054562842606 -0.055459355772221906 0.10097034496610065 0.14831816742101006 -0.031821080252384761 -0.011258577263737664 0.013535924335020034 -0.0039455393523850782 0.025005864234163136 0.0063191029257534453 -0.019691626290299795 0.037918729069637704 -0.082018044604262527 -0.0022343497648172326 0.068617380685342733 -0.048509349134038454 -0.0086610369624976688 0.050015145809263285 0.011248139004255225 -0.0005030264067277918 -0.013525286878576369 -0.0070458891717796188 0.015779353779448852
leaf_weight=13.999999999999998 225 299 11.999999999999998 128 11.999999999999998 325 195 107 48 11.999999999999998 276 28 331 302 23 13.999999999999998 406792 1466 97 80 117 43 18 259 352 258 594 366 501 336 203 100 1005 71 131 328 160 235 927 208 332 259
leaf_count=14 225 299 12 128 12 325 195 107 48 12 276 28 331 302 23 14 406792 1466 97 80 117 43 18 259 352 258 594 366 501 336 203 100 1005 71 131 328 160 235 927 208 332 259
internal_value=0 -0.000156527 0.0591555 -0.0556209 0.146487 -6.66941e-06 -7.60083e-05 0.0486676 -0.10258 -0.140194 -0.0447208 0.122446 0.0161486 -0.0156589 -0.118372 -0.136247 -6.89831e-06 1.26925e-05 0.0708626 0.0394981 -0.0566752 0.113884 0.125487 -0.0362789 -0.0121735 0.0121444 -0.00379228 0.022305 0.00375866 -0.0221564 0.0348142 -0.0864222 -0.00288354 0.0631661 -0.0518753 -0.0100374 0.0477612 0.00974494 -5.3265e-06 -0.0149793 -0.00650851 0.0147016
internal_weight=0 416533 1056 1122 113 415411 413637 943 211 63 911 101 1774 1825 51 37 411812 409686 275 668 376 89 46 535 1190 1077 2126 697 1967 635 428 148 1599 178 248 680 240 560 407719 510 527 517
internal_count=417589 416533 1056 1122 113 415411 413637 943 211 63 911 101 1774 1825 51 37 411812 409686 275 668 376 89 46 535 1190 1077 2126 697 1967 635 428 148 1599 178 248 680 240 560 407719 510 527 517
is_linear=0
shrinkage=0.0604378


Tree=17
num_leaves=45
num_cat=0
split_feature=134 134 134 134 134 139 134 134 134 116 134 49 134 27 134 134 134 134 131 97 132 134 134 134 134 134 134 132 134 134 131 134 134 134 134 134 134 134 131 123 132 132 132 132
split_gain=895.978 836.871 234.029 145.748 112.371 110.989 97.8232 62.1876 29.8043 28.2666 25.0912 11.2084 10.9294 10.4153 10.3742 7.99067 7.40804 6.7053 6.03449 4.05751 3.3266 2.8737 1.46135 1.3204 1.21785 1.15588 1.03453 0.978739 0.974671 0.608581 0.527758 0.420302 0.329917 0.232214 0.145187 0.124486 0.0813591 0.0704662 0.0608934 0.0555738 0.0230471 0.0189311 0.00285651 0.000662375
threshold=4.2415492772396319e-05 -4.0531463151083351e-05 0.00017090917804085673 -0.00011385079891151893 1.4011489452681049e-05 15.750500000000004 -1.3183133187155692e-05 9.5340837995339114e-05 -0.00017323900425120217 -0.10449999999999997 -7.0354781596559932e-05 0.27250000000000008 6.6716178043768628e-05 0.29750000000000004 2.8004539483816874e-05 -2.4516714277500459e-05 -1.7675658477989129e-06 1.767529330565232e-06 3.325000000002547 0.65150000000000008 -2.3425000000024734 -5.2917620830428273e-05 1.7688721463460236e-05 -3.1489506125581539e-05 -7.0733863998251314e-06 3.5023325792749034e-05 7.0629200232819053e-06 1.9850000000024013 5.278149767395935e-05 -1.7500078752952227e-05 3.8537500000002187 -0.00012429185378048932 0.00021727949559180451 -5.2891773597574235e-06 -8.0791493883680663e-05 1.7501793935226221e-05 -3.7002112707185113e-05 -2.1008660829657796e-05 -2.480000000001382 2.3150000000000004 -1.2975000000005819 -1.6174999999948338 -0.77999999999701675 1.474999999998545
decision_type=8 10 10 10 10 2 10 10 10 2 10 2 8 2 10 10 10 10 2 2 2 10 10 10 10 10 10 2 10 10 2 10 10 10 10 10 10 10 2 2 2 2 2 2
left_child=1 3 7 8 6 11 15 12 9 13 20 -4 28 -1 22 23 24 39 -9 -15 -5 41 35 36 42 -16 -19 -14 -2 37 -20 -10 -13 -26 -22 43 -3 -17 -31 -18 -23 -12 -8 -6
right_child=2 4 5 10 14 -7 16 18 31 -11 21 32 27 19 25 29 17 26 30 -21 34 40 -24 -25 33 -27 -28 -29 -30 38 -32 -33 -34 -35 -36 -37 -38 -39 -40 -41 -42 -43 -44 -45
leaf_value=-0.1428255058413683 0.029988108995581953 -0.024150795093487196 0.16813420076542171 -0.061828826872473715 0.0082495392831069513 0.3266644770053479 -0.0044662387881691992 0.065738591960664047 -0.084919828590783619 -0.21716676431361351 -0.040179161187023568 0.11676502172948669 0.044815391318006631 -0.056223788861168862 0.018355897851279682 -0.012998600683830333 -3.8890485114861205e-06 0.0026326222326086418 0.079611492201441522 -0.10770810991136544 -0.052107517277595494 -0.032780804220151963 0.013815603032884755 -0.016013051213589105 -0.0037070798567903564 0.023788040751983 0.0057704656566058806 0.054012324404919231 0.036465415343257646 -0.001695275522363494 0.094552174357948326 -0.07223141327982642 0.09388236988612722 -0.0020993107540895786 -0.045577552871838928 0.010568326655196603 -0.020213167690319618 -0.010677862036190689 -0.008499967521277298 -0.00047262460369753748 -0.027787653078752309 -0.035281090982936796 -0.0063994301833044595 0.0035893972865681223
leaf_weight=23 225 105 18 128 308 11.999999999999998 88 124 103 11.999999999999998 144 30 153 13.000000000000002 367 261 406792 1410 53 14.999999999999998 117 68 517 403 594 330 557 120 254 12.999999999999998 49 45 18 1005 131 235 309 312 355 927 250 140 439 17
leaf_count=23 225 105 18 128 308 12 88 124 103 12 144 30 153 13 367 261 406792 1410 53 15 117 68 517 403 594 330 557 120 254 13 49 45 18 1005 131 235 309 312 355 927 250 140 439 17
internal_value=0 -0.000147111 0.0555939 -0.0507792 -2.11509e-06 0.156462 -6.7275e-05 0.0475271 -0.096411 -0.131783 -0.0409122 0.125189 0.0391125 -0.111269 0.0151763 -0.0142937 -6.49091e-06 1.19223e-05 0.0754304 -0.0845765 -0.0532568 -0.0331661 0.0114141 -0.0187003 -0.00356492 0.0209588 0.00353216 0.0489372 0.033468 -0.0104447 0.0870007 -0.0812079 0.108634 -0.00271008 -0.0487454 0.00915831 -0.021264 -0.0117727 -0.00831831 -5.00778e-06 -0.0289233 -0.0378407 -0.00611763 0.00807227
internal_weight=0 416533 1056 1189 415344 78 413570 978 211 63 978 66 752 51 1774 1758 411812 409686 226 28 376 602 1077 817 2126 697 1967 273 479 941 102 148 48 1599 248 560 414 573 368 407719 318 284 527 325
internal_count=417589 416533 1056 1189 415344 78 413570 978 211 63 978 66 752 51 1774 1758 411812 409686 226 28 376 602 1077 817 2126 697 1967 273 479 941 102 148 48 1599 248 560 414 573 368 407719 318 284 527 325
is_linear=0
shrinkage=0.0604378


Tree=18
num_leaves=39
num_cat=0
split_feature=134 134 134 134 139 134 134 134 134 63 89 134 131 134 134 134 134 1 134 41 132 134 131 134 134 134 134 134 132 134 134 134 134 134 134 134 134 123
split_gain=791.324 739.349 207.486 121.954 118.417 99.304 95.0068 84.9867 26.3069 28.2014 50.0563 19.1051 12.213 11.7313 9.15359 8.6715 6.54682 6.49557 5.92167 3.66272 2.89783 1.70632 1.445 1.37271 1.1673 1.1369 1.13302 1.07384 0.96699 0.91752 0.73203 0.664025 0.37453 0.203172 0.142792 0.103008 0.095413 0.0490559
threshold=4.2415492772396319e-05 -4.232603106807397e-05 0.00021727949559180451 -0.00011385079891151893 10.715500000000002 1.4011489452681049e-05 -1.3183133187155692e-05 0.00010153300469428751 -0.00017323900425120217 0.092500000000000013 0.29550000000000004 -7.0354781596559932e-05 3.8537500000002187 6.7142435622891141e-05 2.4750462738420968e-05 -2.8029950160601832e-05 -1.7675658477989129e-06 0.48750000000000004 1.767529330565232e-06 0.44350000000000006 -2.3425000000024734 -5.2917620830428273e-05 5.0587500000001464 -2.1008660829657796e-05 3.1785497353831189e-05 5.6118494250356761e-05 1.7688721463460236e-05 -7.0733863998251314e-06 1.9850000000024013 8.7720934949242508e-06 0.0001149342058585079 -3.5027006303756096e-05 -0.00014058879630646223 -5.2891773597574235e-06 -1.5782665602093179e-05 1.7501793935226221e-05 -8.0791493883680663e-05 2.3150000000000004
decision_type=8 10 10 10 2 10 10 10 10 2 2 10 2 8 10 10 10 2 10 2 2 10 2 10 10 10 10 10 2 10 10 10 10 10 10 10 10 2
left_child=1 3 7 8 17 6 15 13 9 -1 -11 20 30 25 26 31 27 -4 37 -12 -5 -13 -14 -17 -16 -2 35 -8 -15 -20 -9 -3 -10 -29 -25 -7 -22 -18
right_child=2 5 4 11 -6 14 16 12 32 10 19 21 22 28 24 23 18 -19 29 -21 36 -23 -24 34 -26 -27 -28 33 -30 -31 -32 -33 -34 -35 -36 -37 -38 -39
leaf_value=-0.055317092394324252 0.028917921514229901 -0.021942943922355067 0.14987655261892249 -0.058092031213794082 0.35095575415638008 0.0075884209117236872 -0.0057503698649563166 0.060559622935252445 -0.084264512715022472 -0.25624927040864787 -0.13130707715483989 -0.035558304977322527 0.090388160708896007 0.042713313283901232 0.016807461783804763 -0.013202027907605945 -3.6540030593365324e-06 0.080680637105637193 0.0025291536042566236 -0.085047026567418874 -0.048958255112191464 -0.027997352540290271 0.11351826163268437 -0.0099477459311524356 0.022089162570717077 0.035571541230477025 0.012821365481774604 -0.0034830322762421026 0.051798040925110408 0.0055884366318832692 0.07289189272000049 -0.017396216597601814 -0.072273782539940282 -0.0019724330716198546 -0.0076401646119100362 0.0099296008078527745 -0.042822948451779377 -0.00044406023181619637
leaf_weight=17 284 299 12.000000000000002 128 11.999999999999998 325 527 66 48 11.999999999999998 18 284 67 125 366 510 406792 11.999999999999998 1466 15.999999999999998 117 251 24 352 366 223 482 594 148 501 83 336 100 1005 328 235 131 927
leaf_count=17 284 299 12 128 12 325 527 66 48 12 18 284 67 125 366 510 406792 12 1466 16 117 251 24 352 366 223 482 594 148 501 83 336 100 1005 328 235 131 927
internal_value=0 -0.000138273 0.0522463 -0.0491332 0.195038 -5.88893e-06 -6.71365e-05 0.0471854 -0.0906151 -0.123881 -0.14875 -0.0395017 0.0787177 0.0374554 0.0142628 -0.0138264 -6.10813e-06 0.116179 1.11985e-05 -0.110173 -0.050045 -0.0320514 0.0967259 -0.0107427 0.0194778 0.0318871 0.0105785 -0.00335131 0.0477175 0.00331935 0.0675743 -0.0195711 -0.0763087 -0.00254711 -0.00886646 0.00860947 -0.0458046 -4.70833e-06
internal_weight=0 416533 1056 1122 36 415411 413637 1020 211 63 46 911 240 780 1774 1825 411812 24 409686 34 376 535 91 1190 732 507 1042 2126 273 1967 149 635 148 1599 680 560 248 407719
internal_count=417589 416533 1056 1122 36 415411 413637 1020 211 63 46 911 240 780 1774 1825 411812 24 409686 34 376 535 91 1190 732 507 1042 2126 273 1967 149 635 148 1599 680 560 248 407719
is_linear=0
shrinkage=0.0604378


Tree=19
num_leaves=45
num_cat=0
split_feature=134 134 134 134 139 134 134 134 134 49 134 132 134 134 63 134 49 27 134 134 132 132 132 134 134 134 134 132 134 132 134 134 132 134 134 134 132 132 123 134 134 134 132 132
split_gain=698.92 653.153 180.307 113.696 104.352 94.337 76.259 71.1154 23.2197 25.1607 19.482 10.2403 9.29871 9.1551 8.99812 6.24947 6.23248 6.19203 5.78387 5.22975 2.52166 2.18314 1.61042 1.25002 1.11675 1.00155 0.945167 0.821573 0.809083 0.698401 0.454533 0.302871 0.242907 0.177644 0.0851473 0.080517 0.0599746 0.0436014 0.0433023 0.037426 0.030603 0.00840873 0.00252254 0.000586164
