tree
version=v3
num_class=1
num_tree_per_iteration=1
label_index=0
max_feature_idx=135
objective=regression
feature_names=px_buy_1 amt_buy_1 px_buy_2 amt_buy_2 px_buy_3 amt_buy_3 px_buy_4 amt_buy_4 px_buy_5 amt_buy_5 px_buy_6 amt_buy_6 px_buy_7 amt_buy_7 px_buy_8 amt_buy_8 px_buy_9 amt_buy_9 px_buy_10 amt_buy_10 px_buy_11 amt_buy_11 px_buy_12 amt_buy_12 px_buy_13 amt_buy_13 px_buy_14 amt_buy_14 px_buy_15 amt_buy_15 px_buy_16 amt_buy_16 px_buy_17 amt_buy_17 px_buy_18 amt_buy_18 px_buy_19 amt_buy_19 px_buy_20 amt_buy_20 px_buy_21 amt_buy_21 px_buy_22 amt_buy_22 px_buy_23 amt_buy_23 px_buy_24 amt_buy_24 px_buy_25 amt_buy_25 px_sell_1 amt_sell_1 px_sell_2 amt_sell_2 px_sell_3 amt_sell_3 px_sell_4 amt_sell_4 px_sell_5 amt_sell_5 px_sell_6 amt_sell_6 px_sell_7 amt_sell_7 px_sell_8 amt_sell_8 px_sell_9 amt_sell_9 px_sell_10 amt_sell_10 px_sell_11 amt_sell_11 px_sell_12 amt_sell_12 px_sell_13 amt_sell_13 px_sell_14 amt_sell_14 px_sell_15 amt_sell_15 px_sell_16 amt_sell_16 px_sell_17 amt_sell_17 px_sell_18 amt_sell_18 px_sell_19 amt_sell_19 px_sell_20 amt_sell_20 px_sell_21 amt_sell_21 px_sell_22 amt_sell_22 px_sell_23 amt_sell_23 px_sell_24 amt_sell_24 px_sell_25 amt_sell_25 aggr_trade_last_buy_px aggr_trade_last_buy_amt aggr_trade_last_buy_cnt aggr_trade_last_sell_px aggr_trade_last_sell_amt aggr_trade_last_sell_cnt ImBalance1 ImBalance2 ImBalance3 ImBalance4 ImBalance5 ImBalance10 ImBalance1v ImBalance2v ImBalance3v OFI1 OFI2 OFI3 OFI4 OFI5 OFI10 OFI1v OFIV1 OFIV2 OFIV3 slope5 slope10 TruePrice MeanRev2 MeanRev1 MidReturn Momentum1 Momentum2 Momentum3 Volume TrueVolume
feature_infos=[1794.22:1818.6900000000001] [0.001:8336.9480000000003] [1794.21:1818.6800000000001] [0.0030000000000000001:2322.5650000000001] [1794.2:1818.6700000000001] [0.001:8093.9279999999999] [1794.1900000000001:1818.6600000000001] [0.001:2322.5650000000001] [1794.1800000000001:1818.6400000000001] [0.001:8357.1329999999998] [1794.1700000000001:1818.6300000000001] [0.001:8332.0519999999997] [1794.1600000000001:1818.5799999999999] [0.0030000000000000001:8355.893] [1794.1500000000001:1818.5699999999999] [0.001:8375.893] [1794.1300000000001:1818.5599999999999] [0.0030000000000000001:8338.0390000000007] [1794.1199999999999:1818.55] [0.0030000000000000001:8015.4480000000003] [1794.1099999999999:1818.54] [0.0030000000000000001:8337.2119999999995] [1794.0999999999999:1818.53] [0.001:8339.6939999999995] [1794.0899999999999:1818.52] [0.0030000000000000001:8375.9359999999997] [1794.0799999999999:1818.51] [0.001:8375.9359999999997] [1794.0699999999999:1818.5] [0.001:8338.0339999999997] [1794.0599999999999:1818.49] [0.001:8344.6939999999995] [1794.05:1818.48] [0.001:8344.5820000000003] [1794.04:1818.47] [0.001:8377.0339999999997] [1794.03:1818.45] [0.001:8342.0339999999997] [1794.02:1818.4300000000001] [0.001:8377.0339999999997] [1794.01:1818.3900000000001] [0.001:8344.5820000000003] [1794:1818.3699999999999] [0.001:8338.8719999999994] [1793.99:1818.3599999999999] [0.001:8376.9549999999999] [1793.98:1818.3499999999999] [0.001:8345.9400000000005] [1793.97:1818.3399999999999] [0.001:8377.0339999999997] [1794.24:1818.7] [0.001:1460.0060000000001] [1794.25:1818.71] [0.001:937.86199999999997] [1794.26:1818.72] [0.001:887.96500000000003] [1794.28:1818.73] [0.001:1010.428] [1794.29:1818.74] [0.001:1023.867] [1794.3399999999999:1818.75] [0.001:1005.79] [1794.3599999999999:1818.76] [0.001:936.16099999999994] [1794.3699999999999:1818.77] [0.001:1408.5229999999999] [1794.3800000000001:1818.78] [0.001:1005.795] [1794.4000000000001:1818.79] [0.001:1009.353] [1794.4100000000001:1818.8] [0.0030000000000000001:1361.798] [1794.4200000000001:1818.8099999999999] [0.001:1009.353] [1794.4300000000001:1818.8199999999999] [0.001:1361.798] [1794.4400000000001:1818.8299999999999] [0.001:1361.798] [1794.45:1818.8399999999999] [0.002:1384.0989999999999] [1794.46:1818.8499999999999] [0.001:1372.6990000000001] [1794.47:1818.8599999999999] [0.001:1367.6990000000001] [1794.48:1818.8699999999999] [0.0030000000000000001:1364.1020000000001] [1794.49:1818.8800000000001] [0.001:1364.0989999999999] [1794.5:1818.8900000000001] [0.0030000000000000001:1365.0139999999999] [1794.51:1818.9000000000001] [0.0030000000000000001:1365.0139999999999] [1794.52:1818.9100000000001] [0.0030000000000000001:1030.9680000000001] [1794.53:1818.9200000000001] [0.0030000000000000001:1025.7550000000001] [1794.54:1818.9300000000001] [0.001:1370.7429999999999] [1794.55:1818.9400000000001] [0.001:1365.0139999999999] [1794.22:1818.71] [0.001:2403.8270000000002] [1:337] [1794.21:1818.6900000000001] [0.001:1336.4849999999999] [1:136] [-0.99999141310274653:0.99998902895259401] [-0.99999358822284767:0.99998500277448665] [-0.99999324299974768:0.99999925421721525] [-0.99999406193990481:0.99999714707675202] [-0.99999413982380392:0.99999928205069277] [-0.9999920387394936:0.99999925049120941] [-1.9967848221645177:1.9976963855194185] [-1.9998575903848543:1.9990313509899902] [-1.9991851737329223:1.9998662738461346] [-1056.643:2139.2339999999999] [-935.77800000000002:888.80000000000007] [-797.00199999999995:887.95800000000008] [-1010.415:2322.6280000000002] [-934.57600000000002:2031.1130000000001] [-8015.4300000000003:8015.4300000000003] [-1056.643:2139.2339999999999] [-1:1] [-1:1] [-1:1] [-1:1] [-1:1] [1794.23:1818.6950000000002] [-0.99450000000024374:3.2117500000001655] [-0.88400000000001455:3.0184999999999036] [-0.00046939412263335978:0.0016231574131995163] [-0.0003459317047792565:0.0016231574131995163] [-0.0006082273063786614:0.00045996503157397228] [-0.0006082273063786614:0.0011215624525202639] [8.8669999999999991:8501.1499999999996] [-8325.5120000000024:8167.1349999999993]
tree_sizes=4464 4639 4681 4764 3774 4833 3430 4840 5402 5618 5512 5507 5480 5490 5504 5524 5002 5023 3513 5126 5190 5127 5015 3656 5063 5071 3540 5078 4962 4943 4978 4864 4989 3540 4992 3134 4230 4296 3312 4392 5269 4988 3506 3486 5907 5778 5593 5733 4170 3360 4475 3542 3188 3103 3822 4401 3336 3473 3332 3642 3758 3643 3470 3565 3144 3265 3635 3368 3994 2854 3882 3146 3197 3391 3443 3355 4390 4477 3315 4366 4014 3413 4179 3969 3817 3632 3391 3188 3274 3285 3375 2926 3920 4202 3909 3028 3156 3344 3255 3785 3098 3125 2221 2217 2489 3178 2596 2690 2826 3609 2307 3213 2618 3060 2527 3017 2343 3701 2450 3696 2123 2039 2032 2097 1844 2277 1847 2221 2745 2334 2471 2549 2328 2412 2438 3300 3266 2701 2302 2332 2484 2785 2401 2026 2028 2124 1910 2102 2426 2266 2320 2711 2573 2328 2465 2533 2029 3200 3088 2024 2158 2166 2053 2111 2228 2235 2215 3359 2148 2227 3129 2173 1921 2310 1876 2332 3207 2575 2469 2441 2631 2334 2344 2300 3524 2453 2054 3151 1997 3410 1922 1971 3310 2154 1765 1755 2136 2034 2261 2259 2050 2256 2145 2120 2549 2250 3260 2229 2030 2003 3146 1929 2074 2247 3668 2050 3203 2355 2576 2446 3118 2149 1944 2682 2244 2002 3398 2060 4075 2030 2156 2163 3292 2257 2241 2137 2308 2333 2130 2949 2920 3369 2129 2113 2152 2142 2125 2163 3039 2270 2558 2544 3882 2248 2171 2162 2031 2005 2030 2031 2413 2567 3385 2574 1957 2170 2079 2940 3241 2175 2155 2148 2354 2817 3317 2359 2697 2653 2248 2123 2203 2347 3182 2553 3132 3061 1941 2886 1964 1971 1843 3298 3333 2422 3662 2242 3308 2054 1925 3538 2025 2149 3017 3499 1943 2459 2140 1944 2516 2339 2265 3214 2250 3448 3630 2043 2585 2481 3264 2566 2439 2416 3237 2341 2233 2139 2153 2139 2317 2235 2346 2804 2975 2468 2694 2432 1867 1864 3410 1949 2139 2144 2013 2152 2294 2193 2292 2402 2272 2252 2134 2236 2398 2380 2471 2382 2158 2156 2123 2144 2219 2244 2257 3589 2264 2255 2036 2479 2362 2560 2883 3023 2447 3283 2530 3535 2164 1934 2029 1946 3233 2138 2842 2242 1955 2032 2055 2058 2441 2706 2419 2455 2251 2147 2253 2446 3266 2149 3535 3382 2038 2044 2061 3136 2755 2328 3216 2438 3324 2957 2545 3703 2209 2138 2045 2263 1733 1740 1835 2046 3432 2668 2370 2354 2068 1955 1941 3657 2061 2057 2174 2402 2170 2168 2153 2476 2132 2218 2546 2623 1950 1929 1933 1925 2145 2233 3193 2151 1942 3246 2035 2042 2262 2263 3509 2466 2101 2226 2144 2154 2695 2679 2547 2258 3440 3242 2279 3333 2606 2258 2259 2895 2455 2246 1953 2231 2153 2259 2049 2031 2264 3250 2493 2261 2051 2122 2071 2278 3574 2168 2163 2167 2033 4205 1975 1949 2163 2183 2091 2091 2271 2299 2974 2274 3357 2041 1951 2133 2128 2006 2168 2133 1971 2088 2096 2376 2519 3781 2734 2536 2364 3219 2423 2462 2483 2917 3589 2706 2652 2774 2830 2656 1947 2078 1985 4083 3547 1902 3253 2050 2082 2266 2186 2149 2174 2194 2068 2068 2073 2140 2141 2142 2487 2358 2556 2466 2215 2249 2642 3098 2461 2470 2882 2627 2567 2604 2508 2568 2553 2490 2371 2263 2825 2820 2604 2470 2536 2423 2702 2259 2796 2184 2177 2166 2779 2798 2971 2891 3133 2373 3702 2274 2339 2263 2154 2539 3183 1927 2443 1936 2006 2172 2147 2147 2768 2270 2337 2334 2492 2571 2480 2569 1934 1952 1935 1930 2058 2146 3046 3083 2387 2463 2277 3738 2281 2565 2359 2450 2455 2491 3070 2456 2442 2457 2365 2806 2438 2381 2142 2281 2050 2256 2249 2154 2023 2128 2202 2203 2079 2541 2083 2424 2763 2244 1954 1966 2753 2965 2863 2640 2879 2916 3425 2431 2745 2007 1898 3323 3247 2685 2585 2756 2173 2156 2267 2146 2168 2125 2128 2153 2545 2974 2252 2080 2292 2623 2655 2533 2267 2388 2907 2279 2899 2958 2978 3266 2564 2669 2571 2467 2354 2128 2904 2336 2247 2748 2435 2389 1987 2933 1977 2945 2581 2439 2305 2341 2488 2703 3253 2582 1941 2008 1972 1858 2387 2347 3091 2357 1948 1948 1954 2312 2444 2773 3677 2128 1977 2221 2154 3693 2072 2946 2071 2498 2149 2360 2368 2806 2935 3003 3007 2687 2553 2123 2993 2877 2044 2041 2055 2346 2390 2283 2276 3037 2621 2593 2643 2763 2263 2424 2285 2240 2958 3101 2911 2681 2160 2171 2282 2494 2177 2130 2014 3612 2938 2808 3786 3230 2567 2740 3858 2467 1986 2134 3263 2342 2638 2608 2832 2748 2098 3077 3417 3156 2443 2255 2453 2250 2920 2537 2846 3045 2292 2285 2550 2239 4884 2601 4234 2605 2973

Tree=0
num_leaves=45
num_cat=0
split_feature=130 130 130 130 130 130 130 49 130 130 130 130 130 130 130 130 130 11 130 101 130 130 130 130 130 130 130 41 130 130 130 130 130 130 130 130 130 130 130 130 130 5 130 130
split_gain=32.002 30.8716 9.56243 7.11562 5.27529 3.91069 2.45585 2.0016 1.6663 0.974221 0.479273 0.445664 0.436344 0.427913 0.26538 0.260145 0.226984 0.222135 0.188757 0.0879611 0.0843679 0.0837011 0.0824914 0.0607913 0.0500825 0.047505 0.0433364 0.0384525 0.0372064 0.0311144 0.0288839 0.0262389 0.0231174 0.0187653 0.0168559 0.0148088 0.00961143 0.00884187 0.00714536 0.00673503 0.00651281 0.00374907 0.00285903 0.00112352
threshold=6.4965316468046388e-05 -5.5096573325585922e-05 0.00025314974780599192 -0.00017692828508797384 1.9433713734029471e-05 -1.3846503573666789e-05 0.00014071972019102932 0.50050000000000006 -9.9393977469441883e-05 -0.00024911447299391648 2.7849257643319807e-06 9.4141884420251301e-05 -3.0633334571372732e-05 3.5844814017083067e-05 0.00017853959545810485 -0.00012805381939717805 -2.7841504563475002e-06 2.4755000000000007 -7.6125978141106096e-05 4.1325000000000012 0.00011464050958631679 4.581873552134131e-05 1.1023368510887367e-05 -4.0186578780909692e-05 8.0360453803440826e-05 -0.00020505377421681234 -2.075852623073526e-05 1.8525000000000003 0.00022758811607170862 -0.00015836927425150191 2.7561197448844336e-05 -6.1226934654490237e-05 -0.00011598720191358101 -8.8359271024851513e-05 0.0001594965236521029 5.521187534918149e-05 0.00012776264948588525 6.7908560653306984e-05 3.0536048644558285e-05 0.00010509140395464912 4.1425107675241442e-05 6.5145000000000008 8.7259447558940564e-05 2.4822007330227439e-05
decision_type=2 2 2 2 2 2 2 2 2 2 2 2 2 2 2 2 2 2 2 2 2 2 2 2 2 2 2 2 2 2 2 2 2 2 2 2 2 2 2 2 2 2 2 2
left_child=1 3 6 9 5 12 11 -4 15 17 16 24 23 30 34 29 -7 27 33 -9 39 40 -12 -3 37 -11 -14 -1 41 -5 43 -20 -17 -10 -8 -23 -22 -2 -32 -13 -15 -16 -26 -6
right_child=2 4 7 8 13 10 14 19 18 25 22 20 26 21 28 32 -18 -19 31 -21 36 35 -24 -25 42 -27 -28 -29 -30 -31 38 -33 -34 -35 -36 -37 -38 -39 -40 -41 -42 -43 -44 -45
leaf_value=-0.023252725348897149 0.0056724120242899675 -0.0040063169322826185 0.055312895931935405 -0.014102100057641941 0.001891367064818385 -0.00064781244748941759 0.01264979872310355 0.031216288330975627 -0.0078598973895794289 -0.019278541742054293 0.00050333821344276507 0.0084881012377109911 -0.0021172237508149004 0.0032987311612618225 0.017771777185415373 -0.010356370222630973 8.7305419171781895e-06 -0.033890914307871993 -0.0057730521720299041 0.025759587849659395 0.010350132445523189 0.0042964212709343912 0.0011740755797347495 -0.0030338192521692079 0.0070941099251620992 -0.016434887604389388 -0.0014141247524125224 -0.027526683805964187 0.02033872393789057 -0.012181946116900634 0.0023867369561240159 -0.004906593336608929 -0.0091041092950246705 -0.0068627680492650582 0.014397711234730602 0.0049700402975196211 0.011470165465446746 0.0063854426261592025 0.0028374898946051221 0.0092532248955546261 0.0037545078420256751 0.016609053964827591 0.0076878835667787268 0.0022051843561923671
leaf_weight=10.000000000000002 64 282 7.9999999999999991 27 253 1176 31 14.000000000000002 73 32 880 72 435 165 27 53 568789 10.999999999999998 159 13.999999999999998 46 150 763 292 31 24 355 10.999999999999998 12.999999999999998 70 186 155 93 104 23 144 31 106 137 45 124 14.999999999999998 61 29
leaf_count=10 64 282 8 27 253 1176 31 14 73 32 880 72 435 165 27 53 568789 11 159 14 46 150 763 292 31 24 355 11 13 70 186 155 93 104 23 144 31 106 137 45 124 15 61 29
internal_value=9.15964e-06 -2.9009e-06 0.0108963 -0.00914515 1.01879e-05 3.672e-06 0.00939259 0.0344826 -0.00762397 -0.0218296 9.69682e-06 0.0078704 -0.00252111 0.00315277 0.0157587 -0.0108214 7.37589e-06 -0.0284061 -0.00604122 0.0285037 0.00958601 0.00406551 0.000814833 -0.00351169 0.00659956 -0.0180647 -0.00180131 -0.0255102 0.0180718 -0.0127186 0.00227313 -0.00534561 -0.00955975 -0.00727467 0.0133982 0.0046266 0.0108033 0.00611755 0.00257805 0.00878357 0.00349448 0.0173628 0.00748904 0.00192376
internal_weight=0 574982 601 822 574160 572972 565 36 734 88 571608 456 1364 1188 109 243 569965 32 491 28 194 583 1643 574 262 56 790 21 55 97 605 314 146 177 54 294 77 170 323 117 289 42 92 282
internal_count=575583 574982 601 822 574160 572972 565 36 734 88 571608 456 1364 1188 109 243 569965 32 491 28 194 583 1643 574 262 56 790 21 55 97 605 314 146 177 54 294 77 170 323 117 289 42 92 282
is_linear=0
shrinkage=1


Tree=1
num_leaves=47
num_cat=0
split_feature=130 130 130 130 130 130 130 49 130 130 130 130 130 130 130 130 130 11 130 99 71 130 130 130 130 130 130 130 45 130 130 130 130 130 130 130 130 130 130 130 130 130 33 130 71 130
split_gain=29.0535 28.0267 8.6824 6.46052 4.79003 3.54999 2.22971 1.81758 1.51275 0.884673 0.415935 0.408332 0.4046 0.39612 0.240954 0.237016 0.206059 0.20168 0.171363 0.0923159 0.0776525 0.0765975 0.0759854 0.0705231 0.0551872 0.0454699 0.0431229 0.0393413 0.036748 0.0337894 0.0302724 0.0297709 0.02382 0.0210558 0.0170362 0.0153047 0.0134436 0.00872691 0.00806707 0.00648674 0.00611504 0.0059125 0.0037761 0.00259445 0.00128573 0.00122317
threshold=6.4965316468046388e-05 -5.5096573325585922e-05 0.00025314974780599192 -0.00017692828508797384 1.6706111653719272e-05 -1.3846503573666789e-05 0.00014071972019102932 0.50050000000000006 -9.9393977469441883e-05 -0.00024911447299391648 2.7849257643319807e-06 3.5844814017083067e-05 9.4141884420251301e-05 -3.0633334571372732e-05 0.00017853959545810485 -0.00013315579899991767 -2.7841504563475002e-06 2.4755000000000007 -7.6125978141106096e-05 5.5605000000000002 0.36650000000000005 0.00011464050958631679 4.581873552134131e-05 1.1023368510887367e-05 -4.0186578780909692e-05 8.0360453803440826e-05 -0.00020505377421681234 -2.075852623073526e-05 2.4445000000000001 0.00022758811607170862 -0.00011598720191358101 2.7561197448844336e-05 -6.1226934654490237e-05 -0.00015836927425150191 -8.8359271024851513e-05 0.0001594965236521029 5.521187534918149e-05 0.00012776264948588525 7.1864895541451381e-05 3.0536048644558285e-05 0.00010509140395464912 4.1425107675241442e-05 2.0285000000000006 8.7259447558940564e-05 0.16850000000000004 2.4822007330227439e-05
decision_type=2 2 2 2 2 2 2 2 2 2 2 2 2 2 2 2 2 2 2 2 2 2 2 2 2 2 2 2 2 2 2 2 2 2 2 2 2 2 2 2 2 2 2 2 2 2
left_child=1 3 6 9 5 13 12 -4 15 17 16 31 25 24 35 33 -7 28 34 -9 -21 40 41 -12 -3 38 44 -15 -1 42 -17 45 -20 -5 -10 -8 -24 -23 -2 -33 -14 -13 -16 -27 -11 -6
right_child=2 4 7 8 11 10 14 19 18 26 23 22 21 27 29 30 -18 -19 32 20 -22 37 36 -25 -26 43 -28 -29 -30 -31 -32 39 -34 -35 -36 -37 -38 -39 -40 -41 -42 -43 -44 -45 -46 -47
leaf_value=-0.021895723469193003 0.00547366796965011 -0.003825920813305907 0.052697958205250993 -0.013445465436331558 0.0017671983300863289 -0.00062595755070821222 0.012044186008628832 0.023922045585321901 -0.0074976460286271781 -0.0174968559167776 0.00047084936983114039 0.0031342890013885535 0.0080787463826880075 -0.0020260026932061533 0.017194781215436442 -0.010023990276932009 -4.0883804938312705e-07 -0.032301941096698629 -0.0055092665803771149 0.026106308260677013 0.032930288063829603 0.0098529513221638429 0.0040848854809549867 0.0010966254169556611 -0.0028993308897036925 0.0067506447717185962 -0.015668244025384012 -0.0013560956338288719 -0.026101171020653322 0.019370971267153324 -0.0086831133440310251 0.002265343876327779 -0.0046837089685430339 -0.01181000053826874 -0.0065475593852780348 0.013709741081300814 0.0047267078549299273 0.010920214908078311 0.0061343272637154108 0.0026948230299907979 0.0088078139364305193 0.0035685562387910924 0.016075953236933754 0.0073163122561233111 -0.01865965364984443 0.0020924081922554165
leaf_weight=9.0000000000000018 81 282 7.9999999999999991 27 278 1176 31 12.000000000000002 73 7.9999999999999991 880 165 72 435 17 65 568789 10.999999999999998 159 7.9999999999999991 7.9999999999999991 46 150 738 292 31 24 355 11.999999999999998 12.999999999999998 93 186 155 58 104 23 144 31 89 137 45 124 25 61 24 29
leaf_count=9 81 282 8 27 278 1176 31 12 73 8 880 165 72 435 17 65 568789 11 159 8 8 46 150 738 292 31 24 355 12 13 93 186 155 58 104 23 144 31 89 137 45 124 25 61 24 29
internal_value=0 -1.14914e-05 0.0103735 -0.00872231 9.79743e-07 -5.29437e-06 0.00894065 0.0328483 -0.00727285 -0.0208088 4.46133e-07 0.00296445 0.00749022 -0.00241082 0.0150065 -0.0103194 -1.69954e-06 -0.0270757 -0.00576479 0.0271509 0.0295469 0.00912489 0.00386487 0.000756286 -0.00335465 0.00627935 -0.0172211 -0.001725 -0.0243164 0.0172106 -0.00923567 0.00213113 -0.005102 -0.0123319 -0.00694003 0.0127573 0.00439948 0.0102848 0.00582007 0.00244763 0.00836029 0.0033208 0.016535 0.00712688 -0.0183776 0.00179802
internal_weight=0 574982 601 822 574160 572947 565 36 734 88 571583 1213 456 1364 109 243 569965 32 491 28 16 194 583 1618 574 262 56 790 21 55 158 630 314 85 177 54 294 77 170 323 117 289 42 92 32 307
internal_count=575583 574982 601 822 574160 572947 565 36 734 88 571583 1213 456 1364 109 243 569965 32 491 28 16 194 583 1618 574 262 56 790 21 55 158 630 314 85 177 54 294 77 170 323 117 289 42 92 32 307
is_linear=0
shrinkage=0.0472089


Tree=2
num_leaves=47
num_cat=0
split_feature=130 130 130 130 130 130 130 49 130 130 130 130 130 130 130 130 130 105 130 65 130 130 130 130 130 57 130 130 104 130 130 130 130 130 130 130 130 130 130 130 130 130 130 5 71 130
split_gain=26.3769 25.444 7.88376 5.86587 4.34849 3.22274 2.02439 1.65038 1.37335 0.803314 0.377591 0.370693 0.367788 0.359605 0.218776 0.215372 0.187062 0.157245 0.155571 0.0781903 0.0689809 0.0640218 0.0616072 0.051142 0.0501441 0.0418412 0.0391579 0.0370545 0.0340904 0.030686 0.0270265 0.0254947 0.0216241 0.0194622 0.0154665 0.0138962 0.0124702 0.00744793 0.00645715 0.00588882 0.00536752 0.00529219 0.00381527 0.00346375 0.00116033 0.00111071
threshold=6.4965316468046388e-05 -5.5096573325585922e-05 0.00025314974780599192 -0.00017692828508797384 1.6706111653719272e-05 -1.3846503573666789e-05 0.00014071972019102932 0.50050000000000006 -9.9393977469441883e-05 -0.00024911447299391648 2.7849257643319807e-06 3.5844814017083067e-05 9.9490448980166249e-05 -3.0633334571372732e-05 0.00017853959545810485 -0.00012805381939717805 -2.7841504563475002e-06 2.5000000000000004 -7.6125978141106096e-05 0.029500000000000002 4.581873552134131e-05 1.1023368510887367e-05 8.0360453803440826e-05 0.00012113061129792603 -4.4096451010611208e-05 0.12050000000000001 -0.00020505377421681234 -2.3525852421768519e-05 0.074500000000000011 0.00022758811607170862 2.7561197448844336e-05 -0.00015836927425150191 -6.1226934654490237e-05 -0.00011074105143443756 -8.8359271024851513e-05 0.0001594965236521029 5.8080052514841725e-05 7.2051903441727752e-05 0.00010813262260078728 3.0536048644558285e-05 4.1425107675241442e-05 8.8807977337235236e-05 0.00012776264948588525 6.5145000000000008 0.16850000000000004 2.4822007330227439e-05
decision_type=2 2 2 2 2 2 2 2 2 2 2 2 2 2 2 2 2 2 2 2 2 2 2 2 2 2 2 2 2 2 2 2 2 2 2 2 2 2 2 2 2 2 2 2 2 2
left_child=1 3 6 9 5 13 12 -4 15 17 16 30 22 24 35 31 -7 -1 34 -9 40 -12 37 38 -3 -19 44 -15 -21 43 45 -5 -20 -17 -10 -8 -22 -2 -14 -32 -13 -24 -25 -16 -11 -6
right_child=2 4 7 8 11 10 14 19 18 26 21 20 23 27 29 33 -18 25 32 28 36 -23 41 42 -26 -27 -28 -29 -30 -31 39 -33 -34 -35 -36 -37 -38 -39 -40 -41 -42 -43 -44 -45 -46 -47
leaf_value=-0.029843537823302187 0.0052698677547659964 -0.0036848664551240571 0.050214958199607668 -0.012811084062427602 0.0016837754532767943 -0.00059640718064157253 0.011475877769496864 0.029912919460972888 -0.0071437659358018126 -0.016672446554802097 0.00044862146678472097 0.0029863366077059329 0.0079646464273943132 -0.0021690406170044359 0.01614063592864624 -0.0092136201717371632 -3.8953726333962374e-07 -0.024961250921033535 -0.0052492056162659131 0.026492326044270365 0.0040188492959514653 0.0010448560511949927 0.0066567711286811279 0.0095924421696099316 -0.0027972187750233387 -0.020284256522504818 -0.014929041083917799 -0.0014445147357653625 0.022349070376082976 0.018457578380849708 0.0021584085085130651 -0.01107274228396043 -0.0044626182623048963 -0.0081079374710065471 -0.0062385025836064461 0.013062954730492231 0.0047442611079947603 0.0059102309880423292 0.0087536059723444682 0.0025676178067884194 0.0034001098699472502 0.0073058410462258899 0.010404941464002752 0.015044825579759061 -0.017779320803140691 0.001993680787853665
leaf_weight=12.999999999999998 97 258 7.9999999999999991 27 278 1176 31 8.0000000000000018 73 7.9999999999999991 880 165 63 217 27 76 568789 11.000000000000002 159 9.0000000000000018 224 738 68 30 316 7.9999999999999991 24 573 10.999999999999998 12.999999999999998 186 70 155 70 104 23 70 73 41 137 124 53 31 14.999999999999998 24 29
leaf_count=13 97 258 8 27 278 1176 31 8 73 8 880 165 63 217 27 76 568789 11 159 9 224 738 68 30 316 8 24 573 11 13 186 70 155 70 104 23 70 73 41 137 124 53 31 15 24 29
internal_value=0 -1.09491e-05 0.00988414 -0.00831072 9.3351e-07 -5.04444e-06 0.00851875 0.0313003 -0.00692957 -0.0198275 4.25073e-07 0.00282452 0.00713672 -0.00229702 0.0142986 -0.00983239 -1.61931e-06 -0.0257994 -0.00549268 0.0258713 0.00368244 0.000720583 0.00612643 0.00891776 -0.00319629 -0.0230102 -0.0164088 -0.00164357 0.0242326 0.0163988 0.00203053 -0.0115586 -0.00486116 -0.00868442 -0.00661246 0.0121554 0.00419181 0.00554537 0.00827694 0.00233209 0.00316405 0.00694198 0.0100079 0.015755 -0.0175108 0.00171315
internal_weight=0 574982 601 822 574160 572947 565 36 734 88 571583 1213 456 1364 109 243 569965 32 491 28 583 1618 291 165 574 19 56 790 20 55 630 97 314 146 177 54 294 170 104 323 289 121 61 42 32 307
internal_count=575583 574982 601 822 574160 572947 565 36 734 88 571583 1213 456 1364 109 243 569965 32 491 28 583 1618 291 165 574 19 56 790 20 55 630 97 314 146 177 54 294 170 104 323 289 121 61 42 32 307
is_linear=0
shrinkage=0.0472089


Tree=3
num_leaves=48
num_cat=0
split_feature=130 130 130 130 130 130 130 49 130 130 130 130 130 130 130 130 130 105 130 99 71 130 130 130 130 57 130 130 130 130 130 130 130 130 130 130 130 130 130 130 130 130 33 130 71 130 47
split_gain=23.9469 23.0993 7.15858 5.32594 3.9483 2.92635 1.83798 1.49856 1.2468 0.729432 0.358477 0.333907 0.319735 0.307194 0.19864 0.196609 0.188126 0.142744 0.141234 0.0827252 0.0688139 0.0626222 0.0559306 0.046434 0.0458437 0.0379792 0.0355575 0.030775 0.0278678 0.0251536 0.0214443 0.0199815 0.0196306 0.017153 0.0140414 0.0126173 0.0115537 0.00696265 0.0058627 0.00534601 0.00487278 0.00480458 0.00348954 0.00346335 0.0010471 0.000825995 7.61706e-05
threshold=6.4965316468046388e-05 -5.5096573325585922e-05 0.00025314974780599192 -0.00017692828508797384 1.9433713734029471e-05 -1.6541776583001152e-05 0.00014071972019102932 0.50050000000000006 -9.9393977469441883e-05 -0.00024911447299391648 8.2711048161598927e-06 9.9490448980166249e-05 3.5844814017083067e-05 -3.0633334571372732e-05 0.00017853959545810485 -0.00013315579899991767 -2.7841504563475002e-06 2.5000000000000004 -7.6125978141106096e-05 5.5605000000000002 0.36650000000000005 4.581873552134131e-05 8.0360453803440826e-05 0.00012113061129792603 -4.0186578780909692e-05 0.12050000000000001 -0.00020505377421681234 -2.3525852421768519e-05 0.00022758811607170862 -0.00011598720191358101 2.7561197448844336e-05 1.3885379817168976e-05 -6.1226934654490237e-05 -0.00015836927425150191 -8.8359271024851513e-05 0.0001594965236521029 5.521187534918149e-05 6.7908560653306984e-05 0.00010813262260078728 3.0536048644558285e-05 4.1425107675241442e-05 8.8807977337235236e-05 2.0285000000000006 0.00012776264948588525 0.16850000000000004 2.4822007330227439e-05 4.4345000000000008
decision_type=2 2 2 2 2 2 2 2 2 2 2 2 2 2 2 2 2 2 2 2 2 2 2 2 2 2 2 2 2 2 2 2 2 2 2 2 2 2 2 2 2 2 2 2 2 2 2
left_child=1 3 6 9 5 13 11 -4 15 17 16 22 30 24 35 33 -7 -1 34 -9 -21 40 37 38 -3 -19 44 -15 42 -17 45 -12 -20 -5 -10 -8 -23 -2 -13 -32 -14 -24 -16 -25 -11 -6 -28
right_child=2 4 7 8 12 10 14 19 18 26 31 23 21 27 28 29 -18 25 32 20 -22 36 41 43 -26 -27 46 -29 -30 -31 39 -33 -34 -35 -36 -37 -38 -39 -40 -41 -42 -43 -44 -45 -46 -47 -48
leaf_value=-0.028436335610524954 0.004888893525913417 -0.0034749304141109536 0.047848950217417002 -0.012206633827264342 0.0016304492335748294 -0.00058688639593423126 0.01093438532113828 0.021602464078902629 -0.0068065882395286553 -0.015886881942808847 0.0007881631289800657 0.0075887365385667194 0.0028453681364831 -0.0020666499850064226 0.015634647966438812 -0.0090998213663805606 2.0756312957385488e-07 -0.023784516909876017 -0.0050014203683935157 0.02368530479476175 0.030094402257864944 0.0037023565791806244 0.0063425841781376306 0.0091398273955122355 -0.0026304172400452596 -0.01932851215231339 -0.014557718918840024 -0.0013990223572305663 0.017587253864407772 -0.0078776509705683721 0.0020565208020913396 0.0012593009767701713 -0.0042519642098234056 -0.010730020494135323 -0.0059440336835629203 0.01244668260691428 0.004297238970540929 0.0055211940578660662 0.008340514208882828 0.0024464170536082266 0.0032396145025519992 0.0069610413088843325 0.01457873452210539 0.0099139810589037383 -0.016940520571837311 0.0018996115403680908 -0.013811156206206784
leaf_weight=12.999999999999998 64 282 7.9999999999999991 27 253 1219 31 12.000000000000002 73 7.9999999999999991 494 63 165 217 17 65 569600 11.000000000000002 159 7.9999999999999991 7.9999999999999991 150 68 30 292 7.9999999999999991 13.000000000000002 530 12.999999999999998 93 186 338 155 58 104 23 144 106 41 137 124 53 25 31 24 29 10.999999999999998
leaf_count=13 64 282 8 27 253 1219 31 12 73 8 494 63 165 217 17 65 569600 11 159 8 8 150 68 30 292 8 13 530 13 93 186 338 155 58 104 23 144 106 41 137 124 53 25 31 24 29 11
internal_value=0 -1.04325e-05 0.00941785 -0.00791855 8.89459e-07 -4.74766e-06 0.00811677 0.0298253 -0.0066025 -0.0188925 3.8106e-07 0.0067999 0.00271963 -0.00222413 0.0136241 -0.00936834 -1.04621e-06 -0.0245831 -0.00523341 0.024652 0.0269159 0.00350861 0.00583727 0.00849692 -0.0030454 -0.0219256 -0.0156348 -0.001593 0.0156253 -0.00838129 0.00195927 0.000979584 -0.0046317 -0.0112012 -0.00630035 0.0115819 0.00399394 0.00528362 0.00788632 0.00222201 0.00301469 0.00661434 0.0150118 0.00953568 -0.016685 0.00165823 -0.0142247
internal_weight=0 574982 601 822 574160 572972 565 36 734 88 571651 456 1188 1321 109 243 570819 32 491 28 16 583 291 165 574 19 56 747 55 158 605 832 314 85 177 54 294 170 104 323 289 121 42 61 32 282 24
internal_count=575583 574982 601 822 574160 572972 565 36 734 88 571651 456 1188 1321 109 243 570819 32 491 28 16 583 291 165 574 19 56 747 55 158 605 832 314 85 177 54 294 170 104 323 289 121 42 61 32 282 24
is_linear=0
shrinkage=0.0472089


Tree=4
num_leaves=36
num_cat=0
split_feature=131 101 106 106 122 122 3 106 121 122 121 105 121 121 121 121 106 126 104 129 126 91 15 121 0 107 25 67 3 131 117 131 104 9 131
split_gain=0.20826 0.950861 0.172193 0.153032 0.117411 0.0927011 0.0666475 0.0565236 0.0527885 0.049314 0.0431906 0.030244 0.0301358 0.029138 0.0252519 0.0289439 0.0222676 0.0168978 0.0146968 0.00336334 0.00336267 0.00280282 0.00835707 0.00178942 0.00167768 0.000949518 0.00527941 0.00991353 0.00369995 0.000726152 0.000590081 0.000464223 0.000315484 0.000311071 0.000309802
threshold=0.00024986056765785586 1.1065000000000003 0.92294386606525969 -0.98881979341813786 inf inf 38.472500000000004 -0.80899861663614836 1.0000000180025095e-35 inf -1.0000000180025095e-35 1.5000000000000002 -1.0000000180025095e-35 1.0000000180025095e-35 -1.0000000180025095e-35 1.0000000180025095e-35 -0.096338133193807227 -0.99999712152954578 3.0785000000000005 0.0070000000001755333 inf 115.18950000000002 2.8795000000000006 -40.329999999999998 1805.9650000000004 0.99989973596665971 73.477000000000018 1.9465000000000001 61.89350000000001 0.00010548593359094306 21.497000000000003 -3.3165479158492321e-05 5.5295000000000014 27.997000000000003 -4.1446940450884366e-05
decision_type=10 2 2 2 8 8 2 2 2 8 2 2 2 2 2 2 2 10 2 2 8 2 2 2 2 2 2 2 2 10 2 10 2 2 10
left_child=2 -2 3 5 25 21 14 9 12 29 19 -11 -7 -12 23 -16 18 -18 -9 -8 -10 31 -23 -6 -3 30 28 -28 -27 -5 34 -1 -32 -26 -4
right_child=1 24 4 7 6 8 10 16 20 11 13 -13 -14 -15 15 -17 17 -19 -20 -21 -22 22 -24 -25 33 26 27 -29 -30 -31 32 -33 -34 -35 -36
leaf_value=-7.423528386025027e-05 0.017951483634939591 -0.00067407071225013509 -0.00027057177421901479 -4.3049316362503838e-06 0.00012658974680785704 -2.584043376479993e-05 1.6619474165219575e-05 -5.368987112955435e-06 -7.0677350009218075e-05 -3.9649086390616889e-05 0.0004502207854217548 -0.00013350347849467239 -0.00041672055253712855 -3.8225832956142705e-07 0.00019117676903644316 7.1332710500799504e-06 0.00019397042793861726 9.646982485421138e-06 -4.319678664398198e-05 0.00016168887113701878 -0.00060130016544681004 1.0814276326770886e-05 -0.0017809499357116848 1.7426769779105149e-05 -3.4675389362410356e-07 0.00070703838162799689 -3.2946047428504275e-07 0.0021105307026716559 1.8822474887564982e-05 -0.00042805179480855907 3.1505330495265355e-05 -1.4862431601370951e-05 0.00011238800040396631 0.00035030132429179033 6.232517342349039e-06
leaf_weight=314 7.9999999999999991 7.9999999999999991 8.9999999999999982 31053 364 490 609 160998 1808 14608 3228 16070 4273 355 10118 2346 1113 270199 26684 858 27 21.000000000000004 7.9999999999999991 4151 19.000000000000004 18 13.000000000000002 7.9999999999999991 518 8.9999999999999982 1205 4493 118 7.9999999999999991 18738
leaf_count=314 8 8 9 31053 364 490 609 160998 1808 14608 3228 16070 4273 355 10118 2346 1113 270199 26684 858 27 21 8 4151 19 18 13 8 518 9 1205 4493 118 8 18738
internal_value=0 0.00328458 -3.8566e-07 -7.70093e-06 9.08782e-05 -0.000178545 0.000166668 -3.94962e-06 -0.000293626 -4.63579e-05 0.000317234 -8.88127e-05 -0.000376509 0.000405575 0.000121885 0.000156536 1.75479e-06 1.04031e-05 -1.07472e-05 0.000101467 -7.84903e-05 -2.15336e-05 -0.000484129 2.62281e-05 -7.43033e-05 9.93728e-06 7.07366e-05 0.000804738 4.19553e-05 -4.42795e-06 8.24983e-06 -1.87411e-05 3.87211e-05 0.000103664 6.09937e-06
internal_weight=0 43 574824 532168 42656 11434 22029 520734 6598 61740 5050 30678 4763 3583 16979 12464 458994 271312 187682 1467 1835 4836 29 4515 35 20627 557 21 536 31062 20070 4807 1323 27 18747
internal_count=574867 43 574824 532168 42656 11434 22029 520734 6598 61740 5050 30678 4763 3583 16979 12464 458994 271312 187682 1467 1835 4836 29 4515 35 20627 557 21 536 31062 20070 4807 1323 27 18747
is_linear=0
shrinkage=0.0472089


Tree=5
num_leaves=49
num_cat=0
split_feature=130 130 130 130 130 103 130 130 130 130 130 130 130 130 130 130 130 43 130 130 95 130 130 130 1 130 130 130 130 130 130 130 130 130 130 31 130 130 130 3 130 130 130 130 130 130 130 130
split_gain=22.1793 20.0985 7.12401 4.40482 3.45572 2.63869 1.98654 1.82784 0.810381 0.752241 0.311007 0.307149 0.300539 0.207353 0.206893 0.191141 0.137812 0.122452 0.105001 0.0897528 0.0655309 0.0547422 0.0494683 0.0420369 0.0416304 0.033101 0.0323098 0.0285919 0.0280737 0.0236102 0.0233356 0.0228514 0.022273 0.0126388 0.0121593 0.0109996 0.0104555 0.00657179 0.00652942 0.00564295 0.00466145 0.0046543 0.00437847 0.00433023 0.00403471 0.00321036 0.00266063 0.00116604
threshold=6.4965316468046388e-05 -4.9657227491894933e-05 0.00025314974780599192 -0.00013895266855973307 1.6706111653719272e-05 1811.9750000000001 -1.1140944258580808e-05 0.00012776264948588525 -0.00024911447299391648 -8.8359271024851513e-05 2.7849257643319807e-06 0.00017853959545810485 3.5844814017083067e-05 8.8807977337235236e-05 -0.00017692828508797384 -2.7824848250090902e-05 -2.7841504563475002e-06 2.7215000000000003 -6.6842313412918117e-05 -0.00011074105143443756 7.206500000000001 4.581873552134131e-05 1.1141347723953034e-05 -0.00020505377421681234 93.425500000000014 0.00010813262260078728 0.00022758811607170862 -2.075852623073526e-05 0.0001594965236521029 7.7260995127503853e-05 2.7561197448844336e-05 -6.0704391742660839e-05 -3.5982409134049924e-05 -9.9393977469441883e-05 -0.00012181751736745071 0.82250000000000012 5.0134947460644959e-05 -7.7817450231609784e-05 -0.00015836927425150191 38.472500000000004 3.0536048644558285e-05 9.9490448980166249e-05 4.1425107675241442e-05 0.00014071972019102932 0.00012113061129792603 8.7259447558940564e-05 6.7908560653306984e-05 1.9433713734029471e-05
decision_type=2 2 2 2 2 2 2 2 2 2 2 2 2 2 2 2 2 2 2 2 2 2 2 2 2 2 2 2 2 2 2 2 2 2 2 2 2 2 2 2 2 2 2 2 2 2 2 2
left_child=1 3 7 8 6 20 15 13 17 19 16 28 30 29 23 32 -8 -1 37 34 24 42 -12 -10 -4 41 39 -17 43 46 47 -20 -3 -21 -5 -19 -23 -11 -16 -13 -32 -15 -14 -9 -27 -31 -2 -6
right_child=2 4 5 9 12 -7 10 11 14 18 22 26 21 25 38 27 -18 35 31 33 -22 36 -24 -25 -26 44 -28 -29 -30 45 40 -33 -34 -35 -36 -37 -38 -39 -40 -41 -42 -43 -44 -45 -46 -47 -48 -49
leaf_value=-0.02610254154190737 0.0046550394782712912 -0.0029232955611792222 0.024542906421975964 -0.0091788959192263195 0.0012914656610238202 0.047254843265826935 -0.00052430790513884713 0.0094615606759473145 -0.015912235878998333 -0.0058257995619535223 0.00052163793354475054 0.014571963599665954 0.0027025111395619682 0.0065777537974417103 -0.011577518493622464 -0.001717809258206286 -3.5817805639007528e-07 -0.017962057183987877 -0.0044937301696552643 -0.0073642197348505857 0.016699430091340169 0.0034547303646932912 0.0011646117490684592 -0.013329032599960411 0.019680900082286013 0.0078937001612749205 0.016730417013172568 -0.0011452796766919591 0.011885448149939871 0.0056384334373017894 0.0019547118304232263 -0.0037398781268935311 -0.00226464360771793 -0.0064975157632373324 -0.0081298435720429246 -0.020713749700986973 0.0040359031549300787 -0.0052196449320060182 -0.01049125983982855 0.012999668458019769 0.0023145554861262363 0.0071968556287937387 0.0030910026118223621 0.010343277671604735 0.0086791371208200831 0.0062225736065982928 0.0050788134145856815 0.0015731289095378006
leaf_weight=10.000000000000002 66 267 8.0000000000000053 54 38 11.999999999999998 1121 25 33 72 1264 31 162 58 21 391 568153 7.9999999999999991 155 69 7.9999999999999991 119 338 26 8.9999999999999982 41 18 387 25 76 184 215 201 87 49 7.9999999999999991 168 96 41 7.9999999999999991 144 58 110 34 27 32 75 265
leaf_count=10 66 267 8 54 38 12 1121 25 33 72 1264 31 162 58 21 391 568153 8 155 69 8 119 338 26 9 41 18 387 25 76 184 215 201 87 49 8 168 96 41 8 144 58 110 34 27 32 75 265
internal_value=0 -9.69829e-06 0.00898948 -0.0068924 1.63477e-06 0.0290636 -3.65126e-06 0.00769475 -0.014401 -0.00550726 4.58519e-07 0.0123632 0.00254299 0.00617415 -0.012773 -0.0018866 -1.38994e-06 -0.0219653 -0.0045007 -0.0075977 0.0203079 0.0033401 0.000657307 -0.0147777 0.0219892 0.00737644 0.0150409 -0.00143305 0.0105438 0.00528531 0.00183677 -0.00405586 -0.0026405 -0.00688156 -0.00868114 -0.0193567 0.00379513 -0.00547994 -0.010862 0.0142548 0.0021128 0.00688823 0.00285979 0.00997226 0.00820748 0.00581239 0.00488099 0.00153788
internal_weight=0 574256 611 944 573312 37 572122 574 147 797 570876 141 1190 433 121 1246 569274 26 538 259 25 559 1602 59 17 184 57 778 84 249 631 370 468 156 103 16 287 168 62 39 328 116 272 59 68 108 141 303
internal_count=574867 574256 611 944 573312 37 572122 574 147 797 570876 141 1190 433 121 1246 569274 26 538 259 25 559 1602 59 17 184 57 778 84 249 631 370 468 156 103 16 287 168 62 39 328 116 272 59 68 108 141 303
is_linear=0
shrinkage=0.0472089


Tree=6
num_leaves=33
num_cat=0
split_feature=131 33 1 51 122 122 51 1 122 3 57 129 107 129 51 51 122 67 108 128 51 132 91 128 43 51 131 132 131 17 63 15
split_gain=0.181914 0.880055 0.163257 0.15708 0.097463 0.0726746 0.0673047 0.0576788 0.047915 0.0386202 0.024937 0.0201432 0.0195311 0.0308666 0.0357245 0.0148151 0.0135528 0.0100575 0.00824331 0.0107636 0.00704213 0.00467322 0.00320864 0.006637 0.0019399 0.000795033 0.000690389 0.000508016 0.000461622 0.00042468 0.000347555 9.86509e-05
threshold=0.00024986056765785586 4.972500000000001 0.42950000000000005 4.0545000000000009 inf inf 0.037500000000000006 13.015000000000002 inf 22.948500000000006 29.229500000000005 0.0069999999999481597 -0.99283443809050353 -1.0000000180025095e-35 24.138000000000002 33.688500000000005 inf 124.41650000000001 -0.94996166842818208 0.11350000000004458 1.3645000000000003 -1.6610697847529995e-05 115.18950000000002 -1.0000000180025095e-35 11.940500000000002 0.14650000000000002 0.00022423525273995717 0.00023319351255879364 0.00010548593359094306 28.604500000000005 34.388500000000008 24.014500000000002
decision_type=10 2 2 2 8 8 2 2 8 2 2 2 2 2 2 2 8 2 2 2 2 10 2 2 2 2 10 10 10 2 2 2
left_child=2 -2 5 4 26 22 11 8 28 -8 -10 -6 13 21 -15 16 -9 -17 19 -14 -20 -7 25 -24 -3 -1 27 -4 -5 31 -27 -26
right_child=1 24 3 7 6 12 9 15 10 -11 -12 -13 18 14 -16 17 -18 -19 20 -21 -22 -23 23 -25 29 30 -28 -29 -30 -31 -32 -33
leaf_value=-0.00049327577581821148 0.01718005378716821 -0.00075829644294012348 1.0569941355052549e-05 -4.0801637748311905e-06 0.00052767418010987298 -6.9175722850322528e-05 8.5139637984612987e-05 9.4369752270440093e-07 -7.0504505955385689e-05 0.00023776043142016882 -0.00019444079609973487 0.00027361389644926603 -0.00029203029426725979 -0.0012885686228728164 -0.00048529795838265778 -3.5465432865483627e-06 3.1514290959239981e-05 0.00015981580097452843 0.00026948758573687318 -0.0016072727250727593 -0.00017125206316548797 -0.00030240582195467983 4.9918589270113091e-05 -0.0016771734786989801 1.3682736669485872e-05 -1.5580920042942524e-05 -0.00034721161674614612 0.00036505181811939002 -0.00020696019053583541 0.00030725674829389283 -5.4560928048155522e-05 -0.00021395134451461276
leaf_weight=7.9999999999999991 7.9999999999999991 8.9999999999999982 15902 30956 1183 219 12130 67181 27782 5314 4160 1688 1322 145 828 336094 62284 842 85 13.999999999999998 1628 1524 13 8 9.0000000000000053 2847 11.999999999999998 8.9999999999999982 25 8.9999999999999982 621 7.9999999999999991
leaf_count=8 8 9 15902 30956 1183 219 12130 67181 27782 5314 4160 1688 1322 145 828 336094 62284 842 85 14 1628 1524 13 8 9 2847 12 9 25 9 621 8
internal_value=0 0.0030698 -3.56565e-07 2.86306e-06 9.79503e-05 -0.000196955 0.000166494 -3.6467e-06 -4.60741e-05 0.000131633 -8.66456e-05 0.000378302 -0.000299948 -0.000392016 -0.000605024 2.07725e-06 1.56508e-05 -3.13829e-06 -0.000217935 -0.000305832 -0.00014938 -0.000273103 -2.71635e-05 -0.00060874 -0.000161563 -2.36471e-05 1.05007e-05 1.07709e-05 -4.244e-06 4.53e-05 -2.25613e-05 -9.3495e-05
internal_weight=0 43 574824 565562 36238 9262 20315 529324 62923 17444 31942 2871 5765 2716 973 466401 129465 336936 3049 1336 1713 1743 3497 21 35 3476 15923 15911 30981 26 3468 17
internal_count=574867 43 574824 565562 36238 9262 20315 529324 62923 17444 31942 2871 5765 2716 973 466401 129465 336936 3049 1336 1713 1743 3497 21 35 3476 15923 15911 30981 26 3468 17
is_linear=0
shrinkage=0.0472089


Tree=7
num_leaves=49
num_cat=0
split_feature=130 130 130 130 130 83 130 130 130 130 33 130 130 130 130 130 130 130 97 130 130 130 130 35 130 130 130 130 130 130 130 130 130 57 130 130 130 130 130 91 130 130 130 130 130 130 130 130
split_gain=20.1022 18.2125 6.45737 3.99845 3.12016 2.39538 1.79096 1.6605 0.736627 0.683503 0.30133 0.296823 0.278887 0.254546 0.18741 0.187381 0.173557 0.122755 0.116026 0.0953654 0.0816448 0.049676 0.0462454 0.0429996 0.0385188 0.0372474 0.0295207 0.0293275 0.0255984 0.0224473 0.0214161 0.0207815 0.0120461 0.01171 0.0116093 0.0110723 0.00702707 0.0059104 0.00590133 0.00560562 0.0045976 0.00421796 0.00391422 0.00387692 0.00360363 0.00300923 0.00292003 0.00238764
threshold=6.4965316468046388e-05 -4.9657227491894933e-05 0.00025314974780599192 -0.00013895266855973307 1.9433713734029471e-05 10.017500000000002 -1.1140944258580808e-05 0.00012776264948588525 -0.00024911447299391648 -8.8359271024851513e-05 12.092500000000003 5.5092017502422772e-06 0.00017853959545810485 4.1425107675241442e-05 8.8807977337235236e-05 -0.00017692828508797384 -2.7587275722495971e-05 -2.7841504563475002e-06 15.793000000000001 -6.6842313412918117e-05 -0.00011074105143443756 1.1141347723953034e-05 3.0536048644558285e-05 2.2075000000000005 -0.00020505377421681234 -3.5982409134049924e-05 0.00010813262260078728 0.00022758811607170862 0.0001594965236521029 5.0134947460644959e-05 7.7260995127503853e-05 -6.0704391742660839e-05 -1.7994471738447256e-05 0.49750000000000005 -9.4441835229608348e-05 -0.00012181751736745071 2.4822007330227439e-05 -7.7817450231609784e-05 -0.00015836927425150191 7.0015000000000009 3.5844814017083067e-05 9.9490448980166249e-05 0.00014071972019102932 0.00012113061129792603 5.8080052514841725e-05 4.581873552134131e-05 8.7259447558940564e-05 6.7908560653306984e-05
decision_type=2 2 2 2 2 2 2 2 2 2 2 2 2 2 2 2 2 2 2 2 2 2 2 2 2 2 2 2 2 2 2 2 2 2 2 2 2 2 2 2 2 2 2 2 2 2 2 2
left_child=1 3 7 8 6 10 16 14 18 20 23 17 28 22 30 24 25 -8 33 37 35 -13 36 -4 -10 -3 41 39 42 45 47 -21 -18 -1 -22 -5 -6 -11 -17 -14 -24 -16 -9 -28 -31 -15 -32 -2
right_child=2 4 5 9 13 -7 11 12 15 19 -12 21 27 29 26 38 32 -19 -20 31 34 -23 40 -25 -26 -27 43 -29 -30 44 46 -33 -34 -35 -36 -37 -38 -39 -40 -41 -42 -43 -44 -45 -46 -47 -48 -49
leaf_value=-0.019770064713828733 0.004431992426632927 -0.0027790732156153554 0.021123213708845335 -0.0087422736229739242 0.0014641527040953272 0.050528176381006658 -0.00049482188270483197 0.009010091469499772 -0.015156447768746721 -0.0055431329382994859 0.029158122740114194 0.00049451682192603664 0.013990792235805221 0.0029387431283464569 0.0062625405488944035 -0.011024477864479267 -0.0014738937970538671 -3.2296330788092036e-07 -0.024951997067302483 -0.0042754976923780209 -0.0069035529163630595 0.0011135241010656854 0.0021995870488243359 0.016609344630530491 -0.012684148116150576 -0.0020346239554483517 0.0074975027447171799 0.015936342235329474 0.011322541129651961 0.0036622488254961249 0.0053672879654813235 -0.0035566059305044244 -0.0010609623358073133 -0.016972676115077277 -0.0060686414990877083 -0.007741285934405805 0.0018386805489410357 -0.0049682184105497842 -0.0099915617651853156 0.012631352446923089 0.0025678318892217067 0.006851925284752855 0.009848591535031025 0.0082650557982816009 0.0041176168942535776 0.0032851918288901139 0.0059243332241212454 0.0048335647852454783
leaf_weight=8.0000000000000053 66 267 8.0000000000000053 54 236 7.9999999999999991 1121 25 33 72 7.9999999999999991 1248 27 110 58 21 286 568169 9.9999999999999982 155 90 376 144 12.999999999999998 26 342 41 18 25 103 76 215 351 7.9999999999999991 66 49 213 96 41 11.999999999999998 162 58 34 27 65 119 32 75
leaf_count=8 66 267 8 54 236 8 1121 25 33 72 8 1248 27 110 58 21 286 568169 10 155 90 376 144 13 26 342 41 18 25 103 76 215 351 8 66 49 213 96 41 12 162 58 34 27 65 119 32 75
internal_value=0 -9.22699e-06 0.00855819 -0.00656105 1.56124e-06 0.02767 -3.38058e-06 0.00732553 -0.0137149 -0.00524134 0.0213407 5.21384e-07 0.0117752 0.00245597 0.0058762 -0.0121627 -0.00179123 -1.29671e-06 -0.0209267 -0.00428187 -0.00723399 0.000637843 0.00194703 0.0183433 -0.0140706 -0.00236107 0.00701921 0.0143267 0.0100414 0.00342373 0.00503118 -0.00385793 -0.00124639 -0.0183892 -0.00655096 -0.00826732 0.00164188 -0.0052151 -0.0103441 0.0135777 0.00239466 0.00655812 0.00949577 0.00780409 0.0038388 0.00311899 0.00553317 0.00464611
internal_weight=0 574256 611 944 573312 37 572160 574 147 797 29 570914 141 1152 433 121 1246 569290 26 538 259 1624 755 21 59 609 184 57 84 397 249 370 637 16 156 103 449 168 62 39 306 116 59 68 168 229 108 141
internal_count=574867 574256 611 944 573312 37 572160 574 147 797 29 570914 141 1152 433 121 1246 569290 26 538 259 1624 755 21 59 609 184 57 84 397 249 370 637 16 156 103 449 168 62 39 306 116 59 68 168 229 108 141
is_linear=0
shrinkage=0.0472089


Tree=8
num_leaves=54
num_cat=0
split_feature=130 130 130 130 130 130 130 130 130 71 130 130 130 0 130 130 130 130 130 130 130 130 73 130 61 130 130 130 130 130 130 130 130 130 130 130 130 130 27 130 130 130 130 130 71 59 130 130 130 130 130 5 75
split_gain=17.6629 16.8907 4.81587 3.70518 2.63129 2.10839 0.944098 0.735224 0.644845 0.637249 0.622349 0.300969 0.234202 0.19422 0.143076 0.125255 0.112295 0.101197 0.094547 0.0892114 0.0827274 0.0461237 0.0434895 0.0331361 0.0323427 0.0302263 0.0274425 0.0256541 0.0178306 0.0173927 0.0155121 0.0149772 0.0115017 0.0113203 0.0107404 0.00998156 0.0084611 0.00810639 0.00595295 0.00582333 0.00486492 0.0037063 0.00320987 0.00305502 0.00179905 0.00178717 0.00161866 0.00130093 0.00126161 0.000970929 0.000829182 0.000267949 0.000232318
threshold=5.8080052514841725e-05 -5.5096573325585922e-05 0.00017853959545810485 -0.00015836927425150191 1.6521825332294075e-05 -1.3846503573666789e-05 0.00025314974780599192 -9.4441835229608348e-05 -0.00024911447299391648 1.6785000000000003 0.00010509140395464912 3.5844814017083067e-05 -3.0633334571372732e-05 1811.2250000000001 2.7849257643319807e-06 -5.5128160154072062e-06 8.0360453803440826e-05 -0.00012181751736745071 -6.6842313412918117e-05 0.00014071972019102932 -0.00020505377421681234 2.4822007330227439e-05 1.1185000000000003 -4.0186578780909692e-05 1.3835000000000002 4.581873552134131e-05 -2.075852623073526e-05 0.00022758811607170862 0.00012113061129792603 8.2711048161598927e-06 -8.2967584574933348e-05 -0.00013895266855973307 6.7908560653306984e-05 -0.00017692828508797384 8.8807977337235236e-05 -0.00010511321612560741 -6.0704391742660839e-05 0.0001594965236521029 5.5615000000000014 1.9433713734029471e-05 3.0536048644558285e-05 4.1425107675241442e-05 5.0134947460644959e-05 0.00012776264948588525 1.6535000000000002 0.5635 9.9490448980166249e-05 7.7260995127503853e-05 6.4965316468046388e-05 0.00011464050958631679 8.7259447558940564e-05 25.532000000000004 0.34050000000000008
decision_type=2 2 2 2 2 2 2 2 2 2 2 2 2 2 2 2 2 2 2 2 2 2 2 2 2 2 2 2 2 2 2 2 2 2 2 2 2 2 2 2 2 2 2 2 2 2 2 2 2 2 2 2 2
left_child=1 3 10 8 5 12 27 17 13 22 16 21 23 24 15 -7 32 31 30 28 45 39 -8 -3 -1 41 -14 38 49 -16 -9 -5 48 -22 50 -19 -20 51 44 -6 -23 -13 -27 -30 -4 -10 -36 -34 -2 -12 -18 -21 -39
right_child=2 4 6 7 11 14 9 18 20 -11 19 25 26 -15 29 -17 34 35 36 37 33 40 -24 -25 -26 42 -28 -29 43 -31 -32 -33 47 -35 46 -37 -38 52 -40 -41 -42 -43 -44 -45 -46 -47 -48 -49 -50 -51 -52 -53 -54
leaf_value=-0.020799704575422382 0.0039276495119838764 -0.0029895226706305985 0.013982917396793137 -0.0094972565884267023 0.0010858874924303838 -0.00049352895778794533 0.020040832464414442 -0.0056240240075498809 -0.01531176465802936 0.030739395717798997 0.0069448575762897837 0.0024463601875652193 -0.001586843986364876 -0.026901887019165523 0.00034901668026889672 -3.456407421519106e-07 0.0052825287409986382 -0.0071728178396274368 -0.0040894417104159666 0.0096306149302828343 -0.012025214350887199 0.0017531034486260887 0.015719162567838278 -0.0022533622754573358 -0.016953714579923604 0.0031343800036066605 -0.0010417819480896366 0.01528590632951483 0.0079008779429337716 0.00069797468985012209 -0.0048259330207334758 -0.0082952021430753534 0.0045974430624557616 -0.010548505239203185 0.0060365818675058875 -0.006337717107880796 -0.0035566209589889936 0.010302226217453931 0.012183746144675548 0.0013972561689789872 0.0020949355943304 0.0027888222266181052 0.0034914259549887442 0.0086148386840868719 0.013007409902728886 -0.014192722963621543 0.0064462030517844354 0.0049689308350683806 0.0042189034319050018 0.0074581953909480872 0.0056438728841939389 0.0090259377189232954 0.01094259924779307
leaf_weight=8.0000000000000053 74 261 13.000000000000002 43 316 1150 12.000000000000002 98 8.0000000000000018 14.999999999999998 44 168 471 7.9999999999999991 784 568536 36 80 164 17.000000000000004 26 232 9.9999999999999982 286 14.999999999999998 113 366 15.999999999999998 33 536 125 54 72 24 54 56 114 9.0000000000000018 14.999999999999998 233 156 124 117 29 15.999999999999998 21 47 35 71 14.999999999999998 35 7.9999999999999991 14.999999999999998
leaf_count=8 74 261 13 43 316 1150 12 98 8 15 44 168 471 8 784 568536 36 80 164 17 26 232 10 286 15 113 366 16 33 536 125 54 72 24 54 56 114 9 15 233 156 124 117 29 16 21 47 35 71 15 35 8 15
internal_value=0 -9.37597e-06 0.0075428 -0.00668287 4.39383e-07 -4.66441e-06 0.017295 -0.00547175 -0.0147624 0.0232282 0.00594986 0.00200272 -0.00184503 -0.0205356 -2.03701e-07 -1.34122e-06 0.00498192 -0.00766279 -0.00445256 0.00836333 -0.0124934 0.00149659 0.0180889 -0.0026047 -0.0183046 0.00291116 -0.00134853 0.013631 0.00767247 0.000490722 -0.00517703 -0.00882951 0.00434653 -0.0113199 0.00591237 -0.00682972 -0.00387116 0.0100664 0.0130241 0.00121807 0.00189062 0.00259193 0.00331623 0.00823691 0.013452 -0.0145095 0.00622816 0.00471967 0.0040707 0.0070773 0.00546186 0.00944286 0.0107093
internal_weight=0 574693 691 844 573849 572390 97 734 110 37 594 1459 1384 31 571006 569686 424 233 501 170 79 937 22 547 23 522 837 60 121 1320 223 97 252 50 172 136 278 49 44 549 388 292 230 62 29 29 101 107 145 59 71 25 24
internal_count=575384 574693 691 844 573849 572390 97 734 110 37 594 1459 1384 31 571006 569686 424 233 501 170 79 937 22 547 23 522 837 60 121 1320 223 97 252 50 172 136 278 49 44 549 388 292 230 62 29 29 101 107 145 59 71 25 24
is_linear=0
shrinkage=0.0472089


Tree=9
num_leaves=56
num_cat=0
split_feature=130 130 130 130 130 130 130 130 71 130 130 130 13 130 130 71 130 130 130 130 130 130 130 73 130 130 130 130 130 105 130 130 130 130 130 130 130 130 130 130 130 109 130 55 130 130 83 59 130 130 130 130 130 5 39
split_gain=16.0357 15.3351 4.37252 3.46394 2.38821 1.7804 0.857184 0.717513 0.590597 0.585557 0.565057 0.273228 0.25785 0.193623 0.130379 0.124007 0.106842 0.101949 0.100351 0.0918734 0.0810161 0.0751212 0.0418721 0.0342139 0.0274403 0.0271754 0.0236838 0.0232896 0.0195595 0.0163814 0.016187 0.0140824 0.0135974 0.0112762 0.010442 0.0102766 0.00974943 0.00906076 0.00736005 0.00528652 0.00441649 0.00353916 0.00336467 0.00327793 0.00291389 0.00277352 0.00254384 0.00162688 0.00146941 0.00118128 0.00114523 0.000882421 0.000752634 0.000241754 3.47234e-05
threshold=5.8080052514841725e-05 -4.9904212192031221e-05 0.00017853959545810485 -0.00015836927425150191 1.6521825332294075e-05 -1.1140944258580808e-05 0.00025314974780599192 -9.4441835229608348e-05 2.7725000000000004 -0.00024911447299391648 0.00010509140395464912 3.5844814017083067e-05 0.36750000000000005 -3.0633334571372732e-05 1.0000000180025095e-35 1.3565000000000003 -1.0000000180025095e-35 8.0360453803440826e-05 -6.6842313412918117e-05 -0.00012181751736745071 0.00014071972019102932 -0.00020505377421681234 2.4822007330227439e-05 1.1185000000000003 4.581873552134131e-05 -2.3525852421768519e-05 -4.0186578780909692e-05 0.00022758811607170862 8.2711048161598927e-06 3.5000000000000004 0.00012113061129792603 -8.2967584574933348e-05 -0.00013895266855973307 -6.0704391742660839e-05 6.7908560653306984e-05 -0.00017692828508797384 8.8807977337235236e-05 -0.00010511321612560741 0.0001594965236521029 1.9433713734029471e-05 3.0536048644558285e-05 0.70368244980892769 4.1425107675241442e-05 1.6755000000000002 5.0134947460644959e-05 0.00012776264948588525 4.9880000000000004 0.5635 9.9490448980166249e-05 7.7260995127503853e-05 6.4965316468046388e-05 0.00011464050958631679 8.7259447558940564e-05 25.532000000000004 6.9585000000000008
decision_type=2 2 2 2 2 2 2 2 2 2 2 2 2 2 2 2 2 2 2 2 2 2 2 2 2 2 2 2 2 2 2 2 2 2 2 2 2 2 2 2 2 2 2 2 2 2 2 2 2 2 2 2 2 2 2
left_child=1 3 10 9 5 13 27 19 15 12 17 22 29 26 16 23 -7 34 31 32 30 47 39 -8 42 -15 -3 41 -16 -1 51 -9 -5 -20 50 -23 52 -21 53 -6 -24 46 -13 -43 -26 -32 -4 -11 -38 -36 -2 -12 -19 -22 -40
right_child=2 4 6 7 11 14 8 18 -10 21 20 24 -14 25 28 -17 -18 36 33 37 38 35 40 -25 44 -27 -28 -29 -30 -31 45 -33 -34 -35 49 -37 48 -39 54 -41 -42 43 -44 -45 -46 -47 -48 -49 -50 -51 -52 -53 -54 -55 -56
leaf_value=-0.014911224132249991 0.0037422683473847676 -0.0027965956636194444 0.012299692262525622 -0.0090490631476156068 0.001034626438712799 -0.00042002048960376438 0.018902307691834021 -0.0053585620263941992 0.033499709684309417 -0.014590311681909236 0.0066171139289959643 0.0023308808799848307 -0.025388728612739334 -0.0017022963072665298 0.00031113989380844961 0.024017343294738799 -3.1950723877663664e-07 0.0050332537409429586 -0.0038964018993406955 -0.0068342626021593352 0.0091763785317894812 -0.01145785560778197 0.0016703468775724115 0.014978227093069762 0.0029864295772243296 -0.0011090213091600053 -0.0021469893197345832 0.014564974385765482 0.00066502502359539926 -0.017761143513338476 0.0075280613255907063 -0.0045981342942959698 -0.0079037072337061684 -0.0033296666281715107 0.0043804495331220454 -0.010050843406374741 0.0057516832644591027 -0.0060386032513137979 0.010442827575170932 0.0013312976305143035 0.0019960458197791141 0.012489942110241651 0.0026571814672999524 0.01110514871473511 0.0033266214809793628 0.0082083589928656463 0.013475261235016672 -0.013523194681366596 0.0061419850415638036 0.0047344568675410682 0.0040197772157687462 0.0071064657932460862 0.0053775498213578972 0.0086006575311194551 0.0099081900043606168
leaf_weight=10.000000000000005 74 223 13.000000000000002 43 316 1355 11.000000000000005 98 7.9999999999999991 8.0000000000000018 44 168 10.999999999999998 237 993 7.9999999999999991 568093 36 164 80 17.000000000000004 26 232 9.9999999999999982 113 629 286 15.999999999999998 536 9.9999999999999982 33 125 54 152 72 24 54 56 13.000000000000002 233 156 11.000000000000002 124 8.9999999999999982 117 29 10.999999999999998 21 47 35 71 14.999999999999998 35 7.9999999999999991 10.999999999999998
leaf_count=10 74 223 13 43 316 1355 11 98 8 8 44 168 11 237 993 8 568093 36 164 80 17 26 232 10 113 629 286 16 536 10 33 125 54 152 72 24 54 56 13 233 156 11 124 9 117 29 11 21 47 35 71 15 35 8 11
internal_value=0 -8.93354e-06 0.00718696 -0.00622901 6.27447e-07 -4.23522e-06 0.0164794 -0.00511204 0.022133 -0.0140663 0.00566911 0.00190818 -0.0195677 -0.00170094 -1.49241e-07 0.0189811 -1.3182e-06 0.0047468 -0.00416555 -0.00730113 0.00796881 -0.0119041 0.00142595 0.0170462 0.00277374 -0.00127141 -0.00243167 0.0129882 0.000435202 -0.0163489 0.00731045 -0.00493267 -0.00841281 -0.00362397 0.00414139 -0.0107858 0.00563335 -0.00650737 0.00959174 0.00116057 0.00180137 0.0124099 0.00246958 0.0118759 0.0031597 0.00784825 0.0128469 -0.0138252 0.00593423 0.00449692 0.00387857 0.00674337 0.00520412 0.00899762 0.0102044
internal_weight=0 574693 691 882 573811 572352 97 772 37 110 594 1459 31 1375 570977 29 569448 424 539 233 170 79 937 21 522 866 509 60 1529 20 121 223 97 316 252 50 172 136 49 549 388 44 292 20 230 62 24 29 101 107 145 59 71 25 24
internal_count=575384 574693 691 882 573811 572352 97 772 37 110 594 1459 31 1375 570977 29 569448 424 539 233 170 79 937 21 522 866 509 60 1529 20 121 223 97 316 252 50 172 136 49 549 388 44 292 20 230 62 24 29 101 107 145 59 71 25 24
is_linear=0
shrinkage=0.0472089


Tree=10
num_leaves=55
num_cat=0
split_feature=130 130 130 130 130 130 130 85 130 130 130 130 13 130 130 130 130 130 130 130 130 37 99 130 130 130 35 130 130 130 130 130 130 130 130 130 130 130 130 130 69 53 130 130 130 130 130 15 130 130 0 130 59 39
split_gain=14.5585 13.9229 3.97023 3.05419 2.16854 1.73822 0.778344 0.942939 0.605706 0.531708 0.51304 0.248043 0.234574 0.183117 0.121276 0.118035 0.0925566 0.0838612 0.0783711 0.0735738 0.0682143 0.0515912 0.0524295 0.043027 0.0380124 0.0249111 0.0227077 0.0211386 0.014695 0.0142336 0.0112991 0.0104428 0.00948004 0.00932912 0.00885698 0.00868315 0.00668245 0.00492162 0.00479919 0.00400939 0.00327697 0.0040049 0.00305452 0.00264519 0.00251796 0.0018533 0.00168039 0.00152068 0.00107264 0.00103957 0.000858104 0.000801971 0.000187567 3.0952e-05
threshold=5.8080052514841725e-05 -5.5096573325585922e-05 0.00017853959545810485 -0.00015836927425150191 1.6521825332294075e-05 -1.6541776583001152e-05 0.00025314974780599192 5.7185000000000015 -9.4441835229608348e-05 -0.00024911447299391648 0.00010509140395464912 3.5844814017083067e-05 1.1805000000000001 -3.5982409134049924e-05 -5.5704100621056787e-06 2.7592220158689788e-06 8.0360453803440826e-05 -0.00012805381939717805 -7.1931106799538722e-05 0.00014071972019102932 -0.00020505377421681234 0.82750000000000001 5.5605000000000002 -2.3525852421768519e-05 2.4822007330227439e-05 4.581873552134131e-05 3.0735000000000006 0.00022758811607170862 0.00012113061129792603 -0.00011074105143443756 -4.4520871958275692e-05 -6.1226934654490237e-05 6.7908560653306984e-05 -0.00017692828508797384 9.4141884420251301e-05 -8.2967584574933348e-05 0.0001594965236521029 -0.00013895266855973307 1.9433713734029471e-05 3.0536048644558285e-05 13.323000000000002 6.4730000000000016 4.1425107675241442e-05 5.0134947460644959e-05 0.00012776264948588525 -8.3553941158664974e-06 8.7259447558940564e-05 2.6105000000000005 7.7260995127503853e-05 6.4965316468046388e-05 1808.2550000000003 0.00011464050958631679 0.8135 6.9585000000000008
decision_type=2 2 2 2 2 2 2 2 2 2 2 2 2 2 2 2 2 2 2 2 2 2 2 2 2 2 2 2 2 2 2 2 2 2 2 2 2 2 2 2 2 2 2 2 2 2 2 2 2 2 2 2 2 2
left_child=1 3 10 9 5 13 27 21 17 12 16 24 26 30 45 -16 32 37 35 28 47 -8 -23 -15 38 42 -1 40 51 -19 -3 -20 49 -22 46 -10 52 -5 -6 -26 41 -4 -13 -27 -30 -7 -18 -11 -34 -2 -36 -12 -21 -38
right_child=2 4 6 8 11 14 7 -9 18 20 19 25 -14 23 15 -17 34 29 31 36 33 22 -24 -25 39 43 -28 -29 44 -31 -32 -33 48 -35 50 -37 53 -39 -40 -41 -42 -43 -44 -45 -46 -47 -48 -49 -50 -51 -52 -53 -54 -55
leaf_value=-0.014512870086154837 0.0035656369783990398 -0.0029062739260145619 0.012356374279198322 -0.0086220208746444274 0.00098578525984108927 -0.00073854350116879281 0.020391719730652347 0.035437501795457557 -0.0051056302378389594 -0.013608965878644906 0.0063048373092064276 0.0022208527177498875 -0.024612301332959479 -0.0017251215955270201 -6.7267289875449341e-07 0.00041782034651266259 0.0047957416389621532 -0.0068591227655430851 -0.0038835056135050885 0.0087725193165892248 -0.010917265125294867 0.013960495412629134 0.018894551469508906 -0.0010834969791379224 0.0015914969154596898 0.0028454629143056867 -0.017827247274661267 0.013878043333552199 0.0071728366429606918 -0.0059527124332101377 -0.0023739224698683331 -0.0033290833142099758 0.0041736978518958053 -0.0095766604870734847 0.0056242162768968765 -0.0044646646814898534 0.0099504204266777051 -0.007796627183077433 0.0012684527169437465 0.001901824081320921 0.010836718306560656 0.011069792232121374 0.0025317545167303441 0.0031695960701385042 0.0078210586435565263 -0.00047963191025925046 0.0052238144438479508 -0.01269186695462975 0.0045110473595904189 0.0038300493079395201 0.0060026810202967679 0.0067713236939690108 0.0082614692995778109 0.0094410938751083584
leaf_weight=13.000000000000005 74 140 27 43 316 473 8.0000000000000018 7.9999999999999991 98 15.000000000000002 44 168 9.9999999999999982 398 568994 1506 36 70 138 15.000000000000002 26 13.000000000000002 7.9999999999999991 562 232 113 7.9999999999999991 15.999999999999998 33 90 246 171 72 24 49 94 13.000000000000002 30 233 156 7.9999999999999991 8.9999999999999982 124 117 29 71 61 13.999999999999998 35 71 26 14.999999999999998 9.9999999999999982 10.999999999999998
leaf_count=13 74 140 27 43 316 473 8 8 98 15 44 168 10 398 568994 1506 36 70 138 15 26 13 8 562 232 113 8 16 33 90 246 171 72 24 49 94 13 30 233 156 8 9 124 117 29 71 61 14 35 71 26 15 10 11
internal_value=0 -8.51198e-06 0.00684795 -0.00606743 3.99457e-07 -4.23387e-06 0.0157026 0.0210899 -0.00496784 -0.0134029 0.00540161 0.00181811 -0.0186453 -0.00169873 -2.39749e-07 4.32071e-07 0.00452278 -0.00695655 -0.00404277 0.00759291 -0.0113425 0.0171151 0.0158527 -0.00134953 0.00135863 0.00264281 -0.0157877 0.0123758 0.00696551 -0.0063499 -0.00256711 -0.00357687 0.00394593 -0.010277 0.0053675 -0.00479221 0.00913949 -0.00828456 0.00110579 0.00171634 0.0118248 0.0120397 0.00235301 0.00301055 0.00747793 -0.000704768 0.00506574 -0.0131733 0.00428469 0.00369551 0.00575664 0.0064252 0.00857338 0.00972325
internal_weight=0 574693 691 844 573849 572390 97 37 734 110 594 1459 31 1346 571044 570500 424 233 501 170 79 29 21 960 937 522 21 60 121 160 386 309 252 50 172 192 49 73 549 388 44 36 292 230 62 544 97 29 107 145 75 59 25 24
internal_count=575384 574693 691 844 573849 572390 97 37 734 110 594 1459 31 1346 571044 570500 424 233 501 170 79 29 21 960 937 522 21 60 121 160 386 309 252 50 172 192 49 73 549 388 44 36 292 230 62 544 97 29 107 145 75 59 25 24
is_linear=0
shrinkage=0.0472089


Tree=11
num_leaves=55
num_cat=0
split_feature=130 130 130 130 130 130 130 85 130 130 130 130 13 130 130 130 130 130 130 130 130 37 99 130 35 130 130 130 130 130 130 130 130 130 130 130 130 27 130 130 130 130 130 130 71 130 59 130 130 130 130 29 130 39
split_gain=13.2174 12.64 3.60488 2.77307 1.96864 1.57798 0.706788 0.856195 0.549893 0.482816 0.465897 0.22518 0.214452 0.167231 0.110096 0.107708 0.0981518 0.0763215 0.0711931 0.0619418 0.0551309 0.0468504 0.047615 0.0345085 0.0266343 0.0249676 0.022615 0.01977 0.0191907 0.0130934 0.0110486 0.0109905 0.00860665 0.00846896 0.0081242 0.007707 0.00606719 0.00489616 0.00439158 0.00435678 0.00363982 0.00277296 0.00240127 0.00228592 0.00169049 0.00168238 0.0015624 0.00152504 0.00097398 0.000943663 0.00072799 0.000227784 0.00016032 2.75686e-05
threshold=5.8080052514841725e-05 -5.5096573325585922e-05 0.00017853959545810485 -0.00015836927425150191 1.6521825332294075e-05 -1.6541776583001152e-05 0.00025314974780599192 5.7185000000000015 -9.4441835229608348e-05 -0.00024911447299391648 0.00010813262260078728 3.5844814017083067e-05 0.36750000000000005 -3.0633334571372732e-05 -5.5704100621056787e-06 2.7849257643319807e-06 8.0360453803440826e-05 -0.00012181751736745071 -7.6125978141106096e-05 -0.00020505377421681234 0.00014071972019102932 0.82750000000000001 5.5605000000000002 2.4822007330227439e-05 3.0735000000000006 -4.4096451010611208e-05 4.581873552134131e-05 -2.075852623073526e-05 0.00022758811607170862 -6.1226934654490237e-05 -0.00013895266855973307 9.4141884420251301e-05 6.7908560653306984e-05 -0.00017692828508797384 0.00012113061129792603 -0.00010511321612560741 0.0001594965236521029 5.5615000000000014 -8.8359271024851513e-05 1.9433713734029471e-05 3.0536048644558285e-05 4.1425107675241442e-05 5.0134947460644959e-05 0.00012776264948588525 1.6535000000000002 -8.3553941158664974e-06 0.5635 8.7259447558940564e-05 7.7260995127503853e-05 6.4965316468046388e-05 9.9490448980166249e-05 1.3225000000000002 0.00011464050958631679 6.9585000000000008
decision_type=2 2 2 2 2 2 2 2 2 2 2 2 2 2 2 2 2 2 2 2 2 2 2 2 2 2 2 2 2 2 2 2 2 2 2 2 2 2 2 2 2 2 2 2 2 2 2 2 2 2 2 2 2 2
left_child=1 3 10 9 5 13 28 21 17 12 16 23 24 25 45 -16 32 30 38 46 34 -8 -23 39 -1 -3 41 -15 37 -20 -5 47 49 -21 52 -19 51 44 -10 -6 -25 -13 -28 -36 -4 -7 -11 -18 -34 -2 -33 -22 -12 -38
right_child=2 4 6 8 11 14 7 -9 18 19 20 26 -14 27 15 -17 31 35 29 33 36 22 -24 40 -26 -27 42 -29 -30 -31 -32 50 48 -35 43 -37 53 -39 -40 -41 -42 -43 -44 -45 -46 -47 -48 -49 -50 -51 -52 -53 -54 -55
leaf_value=-0.013373551127748894 0.0033973425086372996 -0.0026167795768349865 0.012145837131044409 -0.0082151315002250182 0.00093924970946367029 -0.00070367882022790774 0.019430911416578347 0.033767772757094548 -0.0049866863621941286 -0.013277834054968952 0.0061324727525610152 0.0021160183644066848 -0.023074840455585655 -0.0013790965248673753 -5.7616265703737845e-07 0.00042635923037699923 0.0045694375112596839 -0.0062061206933300512 -0.0037597565668332157 -0.01040218033712152 0.0084690642433049943 0.013302221034994104 0.018004285912275573 0.001516369119848815 -0.016987270629531481 -0.0019732946341017733 0.0027111501805814975 -0.00090161132236542295 0.013223510380751998 -0.0031719352036693182 -0.007182389278592236 0.0053208066833042196 0.0039767045916251614 -0.0091248488253764925 0.0068343738950378983 -0.0054726631014204762 0.0094812317197635488 0.010510904658672719 -0.0044712149391459054 0.0012085744556263225 0.0018120499855805543 0.0024122481592680992 0.0030199827595206209 0.00745203222402785 0.01124026359254879 -0.00045699395606800698 -0.01226592201131378 0.0049772664852807029 0.0042981799969623296 0.0036492764671692459 0.0056489346901255795 0.0079605965462870142 0.006451987082938618 0.0089960175965551007
leaf_weight=12.000000000000005 74 239 13.000000000000002 43 316 473 8.0000000000000018 7.9999999999999991 62 8.0000000000000018 26 168 10.999999999999998 471 569180 1320 36 80 169 26 10.000000000000002 13.000000000000002 7.9999999999999991 232 7.9999999999999991 308 113 328 15.999999999999998 171 54 28 72 24 33 56 13.000000000000002 14.999999999999998 99 233 156 124 117 29 15.999999999999998 71 21 61 35 71 65 14.999999999999998 14.999999999999998 10.999999999999998
leaf_count=12 74 239 13 43 316 473 8 8 62 8 26 168 11 471 569180 1320 36 80 169 26 10 13 8 232 8 308 113 328 16 171 54 28 72 24 33 56 13 15 99 233 156 124 117 29 16 71 21 61 35 71 65 15 15 11
internal_value=0 -8.11032e-06 0.00652492 -0.00578112 3.80609e-07 -4.034e-06 0.0149623 0.020096 -0.00473336 -0.0127709 0.00514674 0.00173229 -0.0177664 -0.00161854 -2.28432e-07 4.11674e-07 0.00437111 -0.00662823 -0.00385194 -0.0108075 0.0074015 0.0163085 0.0151055 0.0012945 -0.0148311 -0.00225452 0.00251807 -0.0011831 0.0117922 -0.00346428 -0.00764145 0.00518166 0.00375969 -0.00979209 0.00677846 -0.00590477 0.00870857 0.0112672 -0.00467018 0.00105359 0.00163532 0.00224194 0.00286845 0.00712508 0.0116525 -0.000671498 -0.012552 0.00482667 0.00408247 0.00352109 0.00555105 0.00816914 0.00625178 0.00926482
internal_weight=0 574693 691 844 573849 572390 97 37 734 110 594 1459 31 1346 571044 570500 442 233 501 79 152 29 21 937 20 547 522 799 60 340 97 190 252 50 103 136 49 44 161 549 388 292 230 62 29 544 29 97 107 145 93 25 41 24
internal_count=575384 574693 691 844 573849 572390 97 37 734 110 594 1459 31 1346 571044 570500 442 233 501 79 152 29 21 937 20 547 522 799 60 340 97 190 252 50 103 136 49 44 161 549 388 292 230 62 29 544 29 97 107 145 93 25 41 24
is_linear=0
shrinkage=0.0472089


Tree=12
num_leaves=55
num_cat=0
split_feature=130 130 130 130 130 130 130 130 101 130 130 130 106 130 130 130 130 130 130 130 130 130 1 130 97 130 130 130 130 130 130 130 130 130 130 83 130 130 130 130 130 130 130 130 87 130 130 130 130 130 75 8 85 33
split_gain=11.4823 11.1984 2.72834 2.36371 1.66196 1.12372 0.639988 0.436626 0.777652 0.425642 0.338563 0.20179 0.172017 0.109643 0.0902416 0.0885242 0.0806796 0.0685775 0.0491288 0.0451742 0.0445669 0.0420569 0.0411155 0.0309431 0.0283321 0.0188315 0.0179441 0.0171479 0.0151671 0.0140029 0.0129985 0.0124253 0.0100332 0.0100062 0.0065883 0.00599608 0.00524338 0.00499251 0.00451389 0.00395857 0.00357211 0.00288569 0.00230941 0.00201193 0.00150232 0.00125285 0.000874741 0.000722701 0.000702005 0.000602342 0.000372162 0.000357001 0.00024019 0.000143264
threshold=5.8080052514841725e-05 -4.9657227491894933e-05 -0.00015836927425150191 0.0001594965236521029 1.3885379817168976e-05 -1.1140944258580808e-05 -8.8980590048415284e-05 0.00025314974780599192 4.0005000000000015 -0.00024911447299391648 9.9490448980166249e-05 3.5844814017083067e-05 0.26499462748622366 -2.7824848250090902e-05 1.0000000180025095e-35 -0.00012181751736745071 -1.0000000180025095e-35 -6.6842313412918117e-05 0.00012776264948588525 7.7260995127503853e-05 -0.00020505377421681234 0.00022758811607170862 26.689000000000004 2.4822007330227439e-05 5.5875000000000012 0.00017853959545810485 4.581873552134131e-05 -1.7994471738447256e-05 8.2711048161598927e-06 -3.5982409134049924e-05 -6.0704391742660839e-05 -0.00010511321612560741 0.00011464050958631679 -0.00013895266855973307 8.7259447558940564e-05 4.6395000000000008 -7.7817450231609784e-05 -0.00017692828508797384 1.9433713734029471e-05 6.7908560653306984e-05 0.00014071972019102932 2.7838558656956284e-05 4.1425107675241442e-05 5.0134947460644959e-05 8.3020000000000014 0.00010813262260078728 6.4965316468046388e-05 0.00012113061129792603 8.8807977337235236e-05 8.0360453803440826e-05 0.62550000000000006 1812.3950000000002 9.9445000000000032 5.7405000000000008
decision_type=2 2 2 2 2 2 2 2 2 2 2 2 2 2 2 2 2 2 2 2 2 2 2 2 2 2 2 2 2 2 2 2 2 2 2 2 2 2 2 2 2 2 2 2 2 2 2 2 2 2 2 2 2 2
left_child=1 2 9 10 5 13 15 21 -9 12 19 23 22 29 16 33 -7 36 32 39 44 25 -1 38 -10 50 42 -15 -16 -3 -19 -17 45 -4 49 -27 -8 -22 -6 46 -20 -25 -13 -28 -11 -12 -2 -34 -36 -21 -5 -41 -23 -42
right_child=3 4 6 7 11 14 17 8 24 20 18 26 -14 27 28 31 -18 30 40 34 37 52 -24 41 -26 35 43 -29 -30 -31 -32 -33 47 -35 48 -37 -38 -39 -40 51 53 -43 -44 -45 -46 -47 -48 -49 -50 -51 -52 -53 -54 -55
leaf_value=-0.012535414545845069 0.0032320071374219387 -0.0022097561195865601 -0.0078389131573417675 0.0084648251790505179 0.00088999438398489875 -0.00036892432680035806 -0.0044125345154726126 0.027137863599669694 0.013005893313776782 -0.011541960245945733 0.005432950481224527 0.0020189809526888138 -0.021905285186784494 -0.0012678604905505472 0.00026089460821227255 -0.0058972870691447968 -2.5372663838987975e-07 -0.0033644538555096105 0.0070491208484664437 0.0040810253613464713 -0.0099553654028416046 0.01214906953758748 -0.016910934146757137 0.0014310462862216961 0.0093789173382396087 0.0099993445611190751 0.0025765279823338921 -0.00082600009897686709 0.00058101693925306222 -0.0016881844025170155 -0.0028027412578590428 -0.0050762696174113595 0.0060890855518330204 -0.006874669574905414 0.0046450967713686604 0.011267031135233462 -0.0038927003124857675 -0.0088085095242537402 0.00115415705669462 0.0037368009941557462 0.0080060781776726837 0.0017024270266482739 0.0023061454569755389 0.0028672966334705218 -0.012471735265809501 0.0058281510538913794 0.0034804735579756609 0.0064963987438913023 0.0049553320266908715 0.0043718370196584536 0.0090753068296504751 0.0040415177283077376 0.012989264993412495 0.0076066413670545403
leaf_weight=11.000000000000005 71 265 43 8.0000000000000018 340 1326 89 10.999999999999998 13.000000000000002 22.000000000000004 65 155 10.999999999999998 443 1001 90 567052 155 31 37 19 9.0000000000000018 8.9999999999999982 183 7.9999999999999991 21 113 351 492 203 228 78 21 59 32 17 88 19 251 52 14.999999999999998 169 107 105 8.9999999999999982 31 67 38 54 40 18 13.999999999999998 7.9999999999999991 17
leaf_count=11 71 265 43 8 340 1326 89 11 13 22 65 155 11 443 1001 90 567052 155 31 37 19 9 9 183 8 21 113 351 492 203 228 78 21 59 32 17 88 19 251 52 15 169 107 105 9 31 67 38 54 40 18 14 8 17
internal_value=0 -7.66013e-06 -0.00518378 0.00605089 7.47553e-07 -3.26722e-06 -0.00429606 0.0123014 0.0169728 -0.01255 0.00484324 0.00161209 -0.0171477 -0.00141042 -1.50992e-07 -0.00618403 -1.11383e-06 -0.00338565 0.00631698 0.0039676 -0.0104809 0.0104529 -0.014516 0.00121097 0.0116322 0.00989141 0.00240006 -0.00107255 0.000366392 -0.00198358 -0.0030302 -0.00551661 0.00586342 -0.0072823 0.00455407 0.0105709 -0.00415445 -0.00938578 0.00100221 0.00349868 0.00743118 0.00156141 0.00213639 0.00271677 -0.011818 0.0055615 0.00335302 0.00635307 0.00484076 0.00423296 0.00889265 0.00380238 0.012556 0.00779769
internal_weight=0 573486 930 698 572556 571133 830 113 32 100 585 1423 31 1262 569871 270 568378 560 218 367 69 81 20 943 21 64 480 794 1493 468 383 168 155 102 163 38 177 38 591 204 63 352 262 218 31 96 138 59 86 77 26 66 17 32
internal_count=574184 573486 930 698 572556 571133 830 113 32 100 585 1423 31 1262 569871 270 568378 560 218 367 69 81 20 943 21 64 480 794 1493 468 383 168 155 102 163 38 177 38 591 204 63 352 262 218 31 96 138 59 86 77 26 66 17 32
is_linear=0
shrinkage=0.0472089


Tree=13
num_leaves=55
num_cat=0
split_feature=130 130 130 130 130 130 130 130 101 130 130 130 61 130 130 130 130 37 130 130 130 130 130 130 97 130 130 130 130 130 130 130 130 130 130 83 130 130 130 130 130 130 130 27 130 130 130 130 130 130 81 8 85 33
split_gain=10.4244 10.169 2.35075 2.14619 1.50942 1.19347 0.506414 0.396444 0.706058 0.386494 0.307376 0.183191 0.182517 0.133347 0.0819225 0.0803686 0.0732419 0.0523153 0.0480172 0.0446086 0.0410119 0.0404652 0.0381989 0.0280908 0.0257178 0.0178827 0.0176524 0.0170932 0.0162902 0.0137689 0.0112797 0.00922103 0.00910982 0.00707836 0.00598083 0.00544434 0.00475995 0.00453235 0.00409778 0.0035944 0.00324449 0.00265336 0.00209654 0.00189006 0.00182642 0.00113773 0.000794037 0.000655471 0.000636936 0.000546684 0.000466529 0.000324433 0.000218117 0.000129969
threshold=5.8080052514841725e-05 -4.9904212192031221e-05 -0.00015836927425150191 0.0001594965236521029 1.3885379817168976e-05 -1.1140944258580808e-05 -8.8980590048415284e-05 0.00025314974780599192 4.0005000000000015 -0.00024911447299391648 9.9490448980166249e-05 3.5844814017083067e-05 0.20650000000000002 -3.0633334571372732e-05 1.0000000180025095e-35 -0.00012181751736745071 -1.0000000180025095e-35 6.113500000000001 -6.6842313412918117e-05 0.00012776264948588525 7.7260995127503853e-05 -0.00020505377421681234 0.00022758811607170862 2.4822007330227439e-05 5.5875000000000012 -2.075852623073526e-05 -4.0186578780909692e-05 0.00017853959545810485 4.581873552134131e-05 8.2711048161598927e-06 -0.00010511321612560741 -0.00013315579899991767 0.00011464050958631679 -6.0704391742660839e-05 8.7259447558940564e-05 4.6395000000000008 -7.7817450231609784e-05 -0.00017692828508797384 1.9433713734029471e-05 6.7908560653306984e-05 0.00014071972019102932 3.0536048644558285e-05 4.1425107675241442e-05 1.1185000000000003 5.0134947460644959e-05 0.00010813262260078728 6.4965316468046388e-05 0.00012113061129792603 8.8807977337235236e-05 8.0360453803440826e-05 1.5125000000000002 1812.3950000000002 9.9445000000000032 5.7405000000000008
decision_type=2 2 2 2 2 2 2 2 2 2 2 2 2 2 2 2 2 2 2 2 2 2 2 2 2 2 2 2 2 2 2 2 2 2 2 2 2 2 2 2 2 2 2 2 2 2 2 2 2 2 2 2 2 2
left_child=1 2 9 10 5 13 15 22 -9 12 20 23 -1 26 16 31 -7 -14 36 32 39 43 27 38 -10 -15 -3 50 42 -16 -17 -4 45 -20 49 -29 -8 -23 -6 46 -21 -25 -13 -11 -30 -12 -2 -34 -36 -22 -5 -41 -24 -42
right_child=3 4 6 7 11 14 18 8 24 21 19 28 17 25 29 30 -18 -19 33 40 34 37 52 41 -26 -27 -28 35 44 -31 -32 -33 47 -35 48 -37 -38 -39 -40 51 53 -43 -44 -45 -46 -47 -48 -49 -50 -51 -52 -53 -54 -55
leaf_value=-0.021236513533539565 0.0030794609573707326 -0.0023190022443876448 -0.0072897096730466029 0.008156837677413516 0.00084798064843432113 -0.00035150801957511534 -0.0042042599227816403 0.02585851829507008 0.01239263067074394 -0.01069300297635116 0.0051765280141275417 0.0019236766208291054 -0.011411355788457252 -0.0012461212824558658 0.00024857825118106591 -0.0056189305807686973 -2.4174847777593637e-07 -0.016320709308078721 -0.0032056375007813616 0.0067165057130362856 0.0038884453430419108 -0.0094857666420914734 0.011576511782123823 0.0013800984423671739 0.0089370055614328911 -0.00080623358107748946 -0.0017606069417526289 0.0095276348264060774 0.0024549096617550057 0.00055358863414320403 -0.004836672133516285 -0.0063445536710016581 0.0058018386465117392 -0.0027494744534497556 0.0044259131117154477 0.010735611708253679 -0.0037089625721478227 -0.0083930085779140087 0.0010996739460532965 0.0035604433117359391 0.0076285102927981189 0.0016448051504280537 0.0021972906694728168 -0.011610147694289483 0.0027319546990977376 0.005553148030969686 0.0033162023120231398 0.0061898359577665443 0.0047214633502748685 0.0041655273910590528 0.0087352403981016853 0.0038509331685820723 0.012377242352618134 0.0072478673948773269
leaf_weight=11.000000000000002 71 229 64 12.000000000000002 340 1326 89 10.999999999999998 13.000000000000002 12.000000000000002 65 155 11.000000000000002 442 1001 90 567052 8.9999999999999982 155 31 37 19 9.0000000000000018 209 7.9999999999999991 386 282 21 113 492 78 38 21 151 32 17 88 19 251 52 14.999999999999998 143 107 19 105 31 67 38 54 40 13.999999999999998 13.999999999999998 7.9999999999999991 17
leaf_count=11 71 229 64 12 340 1326 89 11 13 12 65 155 11 442 1001 90 567052 9 155 31 37 19 9 209 8 386 282 21 113 492 78 38 21 151 32 17 88 19 251 52 15 143 107 19 105 31 67 38 54 40 14 14 8 17
internal_value=0 -7.29866e-06 -0.00515795 0.00576544 3.73938e-07 -3.45165e-06 -0.00425463 0.0117214 0.0161727 -0.0119582 0.0046147 0.001536 -0.0163394 -0.00141121 -1.43863e-07 -0.00589216 -1.06125e-06 -0.0136315 -0.00333908 0.00601892 0.00378036 -0.00998661 0.00996005 0.00115381 0.0110838 -0.00104107 -0.00201091 0.00942489 0.00228677 0.000349096 -0.00525622 -0.00693862 0.00558672 -0.00298069 0.00433916 0.0100722 -0.00395836 -0.00894305 0.000954903 0.00333357 0.00708063 0.00148771 0.00203555 -0.0112607 0.00258854 0.00529903 0.00319477 0.00605331 0.00461232 0.0040332 0.00847333 0.00362296 0.0119643 0.00742992
internal_weight=0 573486 853 698 572633 571210 753 113 32 100 585 1423 31 1339 569871 270 568378 20 483 218 367 69 81 943 21 828 511 64 480 1493 168 102 155 306 163 38 177 38 591 204 63 352 262 31 218 96 138 59 86 77 26 66 17 32
internal_count=574184 573486 853 698 572633 571210 753 113 32 100 585 1423 31 1339 569871 270 568378 20 483 218 367 69 81 943 21 828 511 64 480 1493 168 102 155 306 163 38 177 38 591 204 63 352 262 31 218 96 138 59 86 77 26 66 17 32
is_linear=0
shrinkage=0.0472089


Tree=14
num_leaves=55
num_cat=0
split_feature=130 130 130 130 130 130 130 130 101 130 130 61 130 130 130 130 130 37 130 130 130 130 130 97 130 130 130 130 130 130 130 130 130 130 130 83 130 130 130 130 130 130 130 130 87 130 130 130 130 130 81 8 85 33
split_gain=9.46409 9.23263 2.24871 1.94868 1.36971 0.933773 0.526938 0.35996 0.641056 0.350948 0.279062 0.165709 0.164311 0.140489 0.0760452 0.0729641 0.0563142 0.0475037 0.0405042 0.0372331 0.0367406 0.0346947 0.0249827 0.0233447 0.0231003 0.0216296 0.0155153 0.0147887 0.013075 0.0106807 0.0102397 0.00968801 0.00853606 0.00827141 0.00542936 0.00494335 0.00432109 0.00411459 0.00358828 0.00326373 0.00294692 0.00240996 0.00190329 0.00165801 0.00146871 0.00103318 0.000720774 0.000594486 0.000577892 0.000496163 0.000423095 0.00029483 0.000198057 0.000117897
threshold=5.8080052514841725e-05 -4.9657227491894933e-05 -0.00015836927425150191 0.0001594965236521029 1.6521825332294075e-05 -8.3553941158664974e-06 -8.8980590048415284e-05 0.00025314974780599192 4.0005000000000015 -0.00024911447299391648 9.9490448980166249e-05 0.20650000000000002 3.5844814017083067e-05 -2.3525852421768519e-05 1.0000000180025095e-35 -0.00012181751736745071 -6.6842313412918117e-05 6.113500000000001 0.00012776264948588525 7.7260995127503853e-05 -0.00020505377421681234 0.00022758811607170862 2.4822007330227439e-05 5.5875000000000012 -3.5982409134049924e-05 -1.0000000180025095e-35 0.00017853959545810485 4.581873552134131e-05 8.2711048161598927e-06 -5.5543343623398738e-05 -0.00010511321612560741 -1.7994471738447256e-05 -0.00013895266855973307 0.00011464050958631679 8.7259447558940564e-05 4.6395000000000008 -7.7817450231609784e-05 -0.00017692828508797384 1.9433713734029471e-05 6.7908560653306984e-05 0.00014071972019102932 2.7838558656956284e-05 4.1425107675241442e-05 5.0134947460644959e-05 8.3020000000000014 0.00010813262260078728 6.4965316468046388e-05 0.00012113061129792603 8.8807977337235236e-05 8.0360453803440826e-05 1.5125000000000002 1812.3950000000002 9.9445000000000032 5.7405000000000008
decision_type=2 2 2 2 2 2 2 2 2 2 2 2 2 2 2 2 2 2 2 2 2 2 2 2 2 2 2 2 2 2 2 2 2 2 2 2 2 2 2 2 2 2 2 2 2 2 2 2 2 2 2 2 2 2
left_child=1 2 9 10 5 13 15 21 -9 11 19 -1 22 24 25 32 36 -13 33 39 44 26 38 -10 -3 -7 50 42 -16 -18 -17 -15 -4 45 49 -28 -8 -22 -6 46 -20 -24 -14 -29 -11 -12 -2 -35 -36 -21 -5 -41 -23 -42
right_child=3 4 6 7 12 14 16 8 23 20 18 17 27 31 28 30 29 -19 40 34 37 52 41 -25 -26 -27 35 43 -30 -31 -32 -33 -34 47 48 -37 -38 -39 -40 51 53 -43 -44 -45 -46 -47 -48 -49 -50 -51 -52 -53 -54 -55
leaf_value=-0.020235372450648739 0.0029341147296890854 -0.002007211074424108 -0.0071249649024481268 0.007772259115895807 0.00081055972249461305 -0.00022473668724955529 -0.0040058160130959581 0.024639484363123347 0.011808285388013167 -0.010465477994012748 0.0049322080842498532 -0.010873396440206651 0.0018328710497397807 -0.001021133730967437 0.00023684332502460953 -0.0053537127135052445 -0.0030005934616486652 -0.015551551899784605 0.0063995854589838329 0.0037049530532097205 -0.0090383192095173041 0.011030937102416047 0.0012983464753245203 0.0085159155019610688 -0.0014351651451843278 -2.3033581000519165e-07 0.0090781775255121041 0.0023390319572592043 0.00053188220900952953 -0.0025007268429377495 -0.0046083835307976261 -0.00068384061554969337 -0.0062348911137418261 0.0055281423768871758 0.0042170718198771984 0.01022925721972371 -0.003533897392706768 -0.0079971070113218079 0.0010477627555482325 0.0033924087723091216 0.0072687485529310623 0.0015463447744139521 0.0020935739866023862 0.002603001154598938 -0.011356021405624707 0.0052911210656274802 0.0031596843018259287 0.005897739870434628 0.0044986322432680696 0.0039689535652297674 0.0083233155777747651 0.0036693359781705464 0.011794056458743547 0.006906015373395435
leaf_weight=11.000000000000002 71 265 43 12.000000000000002 329 958 89 10.999999999999998 13.000000000000002 22.000000000000004 65 11.000000000000002 155 258 1001 90 193 8.9999999999999982 31 37 19 9.0000000000000018 183 7.9999999999999991 388 567052 21 113 503 190 78 719 59 21 32 17 88 19 251 52 14.999999999999998 169 107 105 8.9999999999999982 31 67 38 54 40 13.999999999999998 13.999999999999998 7.9999999999999991 17
leaf_count=11 71 265 43 12 329 958 89 11 13 22 65 11 155 258 1001 90 193 9 31 37 19 9 183 8 388 567052 21 113 503 190 78 719 59 21 32 17 88 19 251 52 15 169 107 105 9 31 67 38 54 40 14 14 8 17
internal_value=0 -6.95425e-06 -0.00470686 0.00549346 6.79906e-07 -2.95067e-06 -0.00390094 0.0111687 0.0154103 -0.0113943 0.00439694 -0.0155692 0.00146921 -0.00113126 2.78684e-07 -0.00561406 -0.00307484 -0.012989 0.00573493 0.00360196 -0.00951558 0.0094904 0.0011037 0.0105613 -0.00166736 -6.08993e-07 0.00898038 0.00217883 0.000335522 -0.00275273 -0.00500813 -0.000772926 -0.00661115 0.00532309 0.00413439 0.00959712 -0.00377152 -0.00852121 0.000913238 0.00317624 0.00674661 0.00141748 0.00193946 0.00246635 -0.0107296 0.00504895 0.00304398 0.00576769 0.00439465 0.00384288 0.00807379 0.00345201 0.0114005 0.00707951
internal_weight=0 573486 930 698 572556 571144 830 113 32 100 585 31 1412 1630 569514 270 560 20 218 367 69 81 932 21 653 568010 64 480 1504 383 168 977 102 155 163 38 177 38 580 204 63 352 262 218 31 96 138 59 86 77 26 66 17 32
internal_count=574184 573486 930 698 572556 571144 830 113 32 100 585 31 1412 1630 569514 270 560 20 218 367 69 81 932 21 653 568010 64 480 1504 383 168 977 102 155 163 38 177 38 580 204 63 352 262 218 31 96 138 59 86 77 26 66 17 32
is_linear=0
shrinkage=0.0472089


Tree=15
num_leaves=55
num_cat=0
split_feature=130 130 130 130 130 130 130 130 101 130 130 130 61 130 130 130 130 37 130 130 130 130 130 130 97 130 130 130 130 130 130 130 130 130 130 53 130 130 130 130 130 130 130 13 130 130 130 130 130 130 81 6 85 33
split_gain=8.59221 8.38271 1.93771 1.76935 1.2441 0.984421 0.41712 0.326834 0.582037 0.31867 0.253356 0.150945 0.150448 0.110124 0.0674843 0.066242 0.0608148 0.0431345 0.0394744 0.0367775 0.0338025 0.0333592 0.0315119 0.0231342 0.0211906 0.0148773 0.0146111 0.014083 0.0134256 0.0113638 0.00929557 0.00786181 0.00751016 0.00591486 0.00492873 0.0046532 0.00392269 0.00373533 0.00336814 0.00296348 0.00267662 0.00221715 0.00172786 0.00164112 0.00150512 0.00093823 0.000654266 0.000553588 0.000539168 0.000450306 0.000383692 0.000267924 0.000179826 0.000106937
threshold=5.8080052514841725e-05 -4.9904212192031221e-05 -0.00015836927425150191 0.0001594965236521029 1.3885379817168976e-05 -1.1140944258580808e-05 -8.8980590048415284e-05 0.00025314974780599192 4.0005000000000015 -0.00024911447299391648 9.9490448980166249e-05 3.5844814017083067e-05 0.20650000000000002 -3.0633334571372732e-05 1.0000000180025095e-35 -0.00012181751736745071 -5.5704100621056787e-06 6.113500000000001 -6.6842313412918117e-05 0.00012776264948588525 7.7260995127503853e-05 -0.00020505377421681234 0.00022758811607170862 2.4822007330227439e-05 5.5875000000000012 -2.3525852421768519e-05 -4.0186578780909692e-05 0.00017853959545810485 4.581873552134131e-05 8.3138650358582939e-06 -0.00010511321612560741 -0.00013315579899991767 0.00011464050958631679 -6.0704391742660839e-05 8.7259447558940564e-05 6.4730000000000016 -7.7817450231609784e-05 -0.00017692828508797384 1.9433713734029471e-05 6.7908560653306984e-05 0.00014071972019102932 3.0536048644558285e-05 4.1425107675241442e-05 1.8595000000000004 5.0134947460644959e-05 0.00010813262260078728 6.4965316468046388e-05 9.4141884420251301e-05 0.00012113061129792603 8.0360453803440826e-05 1.5125000000000002 1812.3550000000002 9.9445000000000032 5.7405000000000008
decision_type=2 2 2 2 2 2 2 2 2 2 2 2 2 2 2 2 2 2 2 2 2 2 2 2 2 2 2 2 2 2 2 2 2 2 2 2 2 2 2 2 2 2 2 2 2 2 2 2 2 2 2 2 2 2
left_child=1 2 9 10 5 13 15 22 -9 12 20 23 -1 26 16 31 -7 -14 36 32 39 43 27 38 -10 -15 -3 50 42 -16 -17 -4 45 -20 49 -29 -8 -23 -6 46 -21 -25 -13 -11 -30 -12 -2 -36 -34 -22 -5 -41 -24 -42
right_child=3 4 6 7 11 14 18 8 24 21 19 28 17 25 29 30 -18 -19 33 40 34 37 52 41 -26 -27 -28 35 44 -31 -32 -33 48 -35 47 -37 -38 -39 -40 51 53 -43 -44 -45 -46 -47 -48 -49 -50 -51 -52 -53 -54 -55
leaf_value=-0.019281427426994228 0.0027956286696015249 -0.0021069468914664976 -0.0066231578667654582 0.0074058129156852502 0.00077011196706404026 -0.00055765086960839856 -0.0038167387724118693 0.023477918623104749 0.011251493175541635 -0.010482708859396381 0.004699419509487969 0.0017463518532190826 -0.010360798052000226 -0.0012790457428749967 0.00022992494284584681 -0.0051010133816778028 -5.3315576612839218e-07 -0.014818643075272829 -0.002912677515031329 0.0060976190590280111 0.0035301196419995459 -0.0086119781609987553 0.010511074490335445 0.0012522050383370373 0.0081146660097264796 -0.00082525400240732823 -0.0015989255712794146 0.0094945370251803465 0.0022286239932426148 0.00051202125427351726 -0.0043908700737747639 -0.0057509341682939084 0.0052673573946615763 -0.0024957056861148576 0.0040992284958720933 0.0082728173064184098 -0.0033670953922860089 -0.007619880149185485 0.00099830209252474932 0.0032323046672989488 0.0069259533699811528 0.0014941707936246627 0.0019947529691257898 -0.0095731267499833163 0.0024801344814177036 0.0050414580162340145 0.003010553515045534 0.0043878205631258105 0.0056194277306478788 0.0037816563647351622 0.0079308155955506287 0.0034963023100269375 0.01123834908656297 0.0065802870572147362
leaf_weight=11.000000000000002 71 229 64 12.000000000000002 340 437 89 10.999999999999998 13.000000000000002 22.000000000000004 65 155 11.000000000000002 219 1033 90 567941 8.9999999999999982 155 31 37 19 9.0000000000000018 209 7.9999999999999991 609 282 27 113 460 78 38 21 151 60 10.999999999999998 88 19 251 52 14.999999999999998 143 107 8.9999999999999982 105 31 67 26 38 40 13.999999999999998 13.999999999999998 7.9999999999999991 17
leaf_count=11 71 229 64 12 340 437 89 11 13 22 65 155 11 219 1033 90 567941 9 155 31 37 19 9 209 8 609 282 27 113 460 78 38 21 151 60 11 88 19 251 52 15 143 107 9 105 31 67 26 38 40 14 14 8 17
internal_value=0 -6.62609e-06 -0.00468306 0.0052343 3.40089e-07 -3.13303e-06 -0.00386293 0.0106421 0.0146838 -0.010857 0.00418946 0.00139448 -0.0148353 -0.00128167 -1.28886e-07 -0.00534909 -9.61515e-07 -0.0123768 -0.00303201 0.00546433 0.00343197 -0.00906677 0.0090429 0.00104756 0.0100634 -0.000945301 -0.00182665 0.00855683 0.00207598 0.000316845 -0.00477174 -0.00629914 0.00507189 -0.00270706 0.00393929 0.00914442 -0.00359351 -0.00811926 0.00086705 0.00302634 0.00642835 0.00135057 0.00184791 -0.0102236 0.00234994 0.00481067 0.00290031 0.00418726 0.00549554 0.00366153 0.00769309 0.00328912 0.0108633 0.00674562
internal_weight=0 573486 853 698 572633 571210 753 113 32 100 585 1423 31 1339 569871 270 568378 20 483 218 367 69 81 943 21 828 511 64 480 1493 168 102 155 306 163 38 177 38 591 204 63 352 262 31 218 96 138 86 59 77 26 66 17 32
internal_count=574184 573486 853 698 572633 571210 753 113 32 100 585 1423 31 1339 569871 270 568378 20 483 218 367 69 81 943 21 828 511 64 480 1493 168 102 155 306 163 38 177 38 591 204 63 352 262 31 218 96 138 86 59 77 26 66 17 32
is_linear=0
shrinkage=0.0472089


Tree=16
num_leaves=50
num_cat=0
split_feature=130 130 130 130 71 130 130 130 130 130 79 130 130 51 65 130 130 130 130 49 130 130 130 130 130 104 130 130 130 130 130 130 130 130 130 130 19 130 130 87 130 130 130 130 130 130 130 130 130
split_gain=8.37438 7.70978 2.6049 1.86983 1.7055 1.26588 0.787324 0.464096 0.435368 0.417415 0.192591 0.158553 0.121918 0.0837579 0.132369 0.0786787 0.0678871 0.0648897 0.0644572 0.0535782 0.046941 0.0309302 0.0209378 0.0185208 0.0184497 0.0164613 0.0163129 0.00993273 0.0094593 0.00904688 0.00884965 0.00864319 0.00754606 0.00753881 0.00725109 0.00701743 0.00494949 0.00482527 0.00334055 0.00295787 0.00280136 0.00272047 0.00231168 0.00174839 0.00171311 0.00114964 0.000810553 0.000516691 0.000466464
threshold=6.0958209523898084e-05 -4.9657227491894933e-05 0.00022758811607170862 -0.00015836927425150191 12.290500000000003 1.6521825332294075e-05 -8.3553941158664974e-06 0.00012113061129792603 -8.8980590048415284e-05 -0.00024911447299391648 5.6315000000000008 3.5844814017083067e-05 -2.7587275722495971e-05 19.162500000000005 0.0085000000000000023 0.0001594965236521029 8.7259447558940564e-05 2.7849257643319807e-06 -0.00012181751736745071 3.5865000000000005 -6.6842313412918117e-05 -0.00020505377421681234 2.4822007330227439e-05 -1.0000000180025095e-35 4.581873552134131e-05 0.054500000000000007 -3.5982409134049924e-05 -1.7994471738447256e-05 0.00017853959545810485 8.3138650358582939e-06 -5.5543343623398738e-05 9.9490448980166249e-05 -0.00013315579899991767 -0.00017692828508797384 -0.00010511321612560741 7.2051903441727752e-05 6.6495000000000006 0.00012776264948588525 -8.2967584574933348e-05 6.480500000000001 1.9433713734029471e-05 5.0134947460644959e-05 2.7838558656956284e-05 0.00010813262260078728 4.4125758589030901e-05 0.00014071972019102932 8.0360453803440826e-05 6.7908560653306984e-05 9.4141884420251301e-05
decision_type=2 2 2 2 2 2 2 2 2 2 2 2 2 2 2 2 2 2 2 2 2 2 2 2 2 2 2 2 2 2 2 2 2 2 2 2 2 2 2 2 2 2 2 2 2 2 2 2 2
left_child=1 3 7 9 13 6 12 16 18 10 -1 22 26 25 -15 37 35 23 32 -16 38 39 40 -8 44 -4 -3 -14 -17 -19 -22 48 -5 -23 -20 47 -30 -9 -10 -11 -7 -26 -24 -33 -13 -39 -37 -2 -18
right_child=2 5 4 8 -6 11 17 15 20 21 -12 24 27 14 19 28 31 29 34 -21 30 33 42 -25 41 -27 -28 -29 36 -31 -32 43 -34 -35 -36 46 -38 45 -40 -41 -42 -43 -44 -45 -46 -47 -48 -49 -50
leaf_value=-0.010614713357752473 0.0028291763172193091 -0.0017971321502588786 0.0073458883278222746 -0.0063319720039605922 0.033829476284038859 0.00073779321907375907 -0.00021224114317051071 0.0053812469247203273 -0.0037240383379435757 -0.0092721483678822221 -0.018868902903509926 0.0016708118968656207 -0.00095734966358647074 0.018246221755289734 0.0080177206382549913 0.0072579770411414606 0.0039012184897232521 0.00023830997047184129 -0.0048593418555959583 0.012895876340645467 -0.0027283704936940756 -0.0083350149885002851 0.0011736691319019848 -1.3939973302589912e-07 0.0021308231963691067 0.010206177580908901 -0.0013209812809376891 -0.00061825292371801908 0.0080879938766298363 0.00049724660946504681 -0.0022784121934912552 0.0044578123652310574 -0.0054802083332092808 -0.007119585175360944 -0.004208438374532714 0.0033128307747049479 0.0092799086775963886 0.0058627154648286071 -0.0032866483132301125 -0.010327265557713924 0.00094870690807958473 0.0024396844882072599 0.0014089549091319334 0.004870422882902568 0.0019235550299780272 0.0063502455849705876 0.0035925369227324858 0.0030439517397756284 0.0041567784771045337
leaf_weight=11.000000000000002 87 291 8.0000000000000018 68 8.9999999999999982 323 919 35 60 21 14.999999999999998 185 259 8.0000000000000018 8.0000000000000018 23 58 797 74 13.999999999999998 202 24 201 567325 113 10.999999999999998 358 751 25 483 190 59 37 24 82 70 12.999999999999998 26 119 10.999999999999998 249 150 175 43 90 27 40 41 30
leaf_count=11 87 291 8 68 9 323 919 35 60 21 15 185 259 8 8 23 58 797 74 14 202 24 201 567325 113 11 358 751 25 483 190 59 37 24 82 70 13 26 119 11 249 150 175 43 90 27 40 41 30
internal_value=0 -6.14222e-06 0.00541821 -0.0042826 0.014954 8.62499e-07 -2.71758e-06 0.0044593 -0.00353013 -0.0101874 -0.0153852 0.00137695 -0.00102965 0.0114774 0.0130353 0.00672857 0.00366909 2.73871e-07 -0.00512748 0.0111289 -0.00279987 -0.00849549 0.00100956 -4.82431e-07 0.00202426 0.00900885 -0.00153452 -0.000705223 0.00803329 0.000336023 -0.00251038 0.00433483 -0.00603269 -0.00772981 -0.00451766 0.00313736 0.00849939 0.0058229 -0.00343357 -0.00963969 0.000829632 0.00230712 0.00128323 0.00463248 0.00175363 0.00611288 0.00341504 0.00289834 0.00398907
internal_weight=0 573607 635 938 58 572669 571183 577 832 106 26 1486 1659 49 30 149 428 569524 261 22 571 80 948 568244 538 19 649 1010 61 1280 392 190 105 48 156 238 38 88 179 32 572 263 376 102 275 53 110 128 88
internal_count=574242 573607 635 938 58 572669 571183 577 832 106 26 1486 1659 49 30 149 428 569524 261 22 571 80 948 568244 538 19 649 1010 61 1280 392 190 105 48 156 238 38 88 179 32 572 263 376 102 275 53 110 128 88
is_linear=0
shrinkage=0.0472089


Tree=17
num_leaves=50
num_cat=0
split_feature=130 130 130 130 130 104 130 130 130 130 45 130 106 130 9 130 75 130 130 130 130 130 12 130 130 130 130 130 130 130 130 130 130 130 130 9 130 87 130 130 130 130 130 47 130 130 130 130 130
split_gain=7.60291 6.99961 2.36525 1.61738 1.14967 1.01589 0.826371 0.434814 0.421357 0.286663 0.178216 0.143938 0.137902 0.0824415 0.0767431 0.0714353 0.0672902 0.0625038 0.0616315 0.059605 0.0588933 0.0553476 0.0267022 0.0190078 0.016749 0.0132217 0.00901019 0.00899085 0.00858858 0.00833027 0.00784625 0.00637073 0.0053336 0.0051916 0.00467121 0.00444157 0.00438101 0.00268722 0.00254311 0.00249996 0.00209938 0.00158731 0.00155525 0.00128707 0.00104351 0.000874564 0.000735918 0.00046913 0.000444072
threshold=6.0958209523898084e-05 -4.9904212192031221e-05 0.00022758811607170862 -0.00017692828508797384 1.6521825332294075e-05 0.0075000000000000006 -1.6541776583001152e-05 -9.9393977469441883e-05 0.00012113061129792603 -0.00024911447299391648 0.22050000000000003 3.5844814017083067e-05 -0.36027107468413416 -2.7824848250090902e-05 1.8795000000000002 0.0001594965236521029 2.5535000000000001 -5.5704100621056787e-06 8.7259447558940564e-05 -0.00012805381939717805 2.7849257643319807e-06 -7.6125978141106096e-05 1805.4650000000004 2.4822007330227439e-05 4.581873552134131e-05 -3.8629321540972754e-05 -2.075852623073526e-05 -0.00020505377421681234 0.00017853959545810485 -6.617643195278021e-05 9.9490448980166249e-05 7.2051903441727752e-05 -0.00015836927425150191 -0.00011074105143443756 -8.8359271024851513e-05 2.0705000000000005 0.00012776264948588525 6.480500000000001 1.9433713734029471e-05 5.521187534918149e-05 3.0536048644558285e-05 0.00010813262260078728 4.4125758589030901e-05 7.1165000000000012 0.00014071972019102932 -8.3553941158664974e-06 8.0360453803440826e-05 6.7908560653306984e-05 8.8807977337235236e-05
decision_type=2 2 2 2 2 2 2 2 2 2 2 2 2 2 2 2 2 2 2 2 2 2 2 2 2 2 2 2 2 2 2 2 2 2 2 2 2 2 2 2 2 2 2 2 2 2 2 2 2
left_child=1 3 8 9 6 -4 13 19 18 10 -1 23 -7 25 -12 36 22 45 31 32 -19 34 -14 38 42 -3 -15 37 -17 -23 48 47 -5 -21 -9 -30 -10 -11 -6 -26 -25 -32 -13 -29 -38 -8 -33 -2 -20
right_child=2 4 5 7 11 12 17 21 15 27 14 24 16 26 -16 28 -18 20 30 33 -22 29 -24 40 39 -27 -28 43 35 -31 41 46 -34 -35 -36 -37 44 -39 -40 -41 -42 -43 -44 -45 -46 -47 -48 -49 -50
leaf_value=-0.02053169205431276 0.0026956378486424617 -0.0018084141251030865 0.029859126663920418 -0.0067836945655769636 0.00070296448410662245 0.015933774301300073 -0.00054244067221365859 -0.0038141348306873178 0.0051273166532881621 -0.0088347432845069206 -0.0092506561862109576 0.0015919412996754025 0.010492725954669355 -0.0010138670978359979 -0.015489484953392996 0.0069155669136869071 0.013008799280754154 -4.2038955277262511e-07 0.0036365349282491879 -0.0049195291020880123 0.00032016062947117836 -0.0028437412710856 0.0073026483429785476 0.0011349842470004272 0.0020564548671134606 -0.0013512565953017967 -0.00067443592985361634 -0.008220051457694352 0.0087968075632572501 -0.0023684255717357871 0.0042474192156408998 0.0031564704079589281 -0.0059604400774264021 -0.0043114686349907238 -0.00332805285623695 0.0076856760601646881 0.0055861081491919767 -0.0098404130232024861 0.00090392228512450607 0.0023497406563743242 0.0013653668525108204 0.0046405784850376813 0.0018327618044134202 -0.007370330326216582 0.0060506294585247512 -0.00035449831654920343 0.003423002959883167 0.0029003044603240313 0.0038847793033263012
leaf_weight=8.0000000000000018 87 337 7.9999999999999991 24 323 12.999999999999998 453 79 35 21 10.000000000000002 185 11.000000000000002 375 7.9999999999999991 23 12.999999999999998 568181 30 67 1280 126 12.999999999999998 233 136 243 326 16.000000000000004 13.999999999999998 240 59 70 79 62 104 24 26 10.999999999999998 249 127 143 43 90 7.9999999999999991 27 63 40 41 58
leaf_count=8 87 337 8 24 323 13 453 79 35 21 10 185 11 375 8 23 13 568181 30 67 1280 126 13 233 136 243 326 16 14 240 59 70 79 62 104 24 26 11 249 127 143 43 90 8 27 63 40 41 58
internal_value=0 -5.85237e-06 0.00516262 -0.00425425 5.49145e-07 0.0142491 -2.8622e-06 -0.00359187 0.00424888 -0.0105611 -0.0146597 0.00131195 0.0117431 -0.00120056 -0.0120345 0.00641113 0.0102646 -1.70394e-07 0.00349592 -0.00530545 3.00201e-07 -0.00286761 0.00877063 0.000961903 0.00192871 -0.00161692 -0.000856034 -0.00865459 0.00765435 -0.00253217 0.00413025 0.00298929 -0.00615327 -0.00462784 -0.0035382 0.00809848 0.00554815 -0.00918506 0.000790468 0.00219821 0.00122266 0.00441385 0.00167086 -0.00794178 0.00582446 -0.000519507 0.00325387 0.00276154 0.00380081
internal_weight=0 573607 635 863 572744 58 571258 781 577 82 26 1486 50 1281 18 149 37 569977 428 232 569461 549 24 948 538 580 701 56 61 366 190 238 103 129 183 38 88 32 572 263 376 102 275 24 53 516 110 128 88
internal_count=574242 573607 635 863 572744 58 571258 781 577 82 26 1486 50 1281 18 149 37 569977 428 232 569461 549 24 948 538 580 701 56 61 366 190 238 103 129 183 38 88 32 572 263 376 102 275 24 53 516 110 128 88
is_linear=0
shrinkage=0.0472089


Tree=18
num_leaves=34
num_cat=0
split_feature=131 111 1 51 122 51 122 3 1 122 1 129 51 124 129 53 54 1 101 21 104 128 132 131 101 128 23 59 107 1 131 125 0
split_gain=0.0967515 0.617298 0.0459742 0.044713 0.0303696 0.0223497 0.0220564 0.0130445 0.0130281 0.0117781 0.0103053 0.00684679 0.0080161 0.00554429 0.00529136 0.00446382 0.0052454 0.00324098 0.00324918 0.00312963 0.00297227 0.00197412 0.00176588 0.00068175 0.00060399 0.000500476 0.000496614 0.00297773 0.000272866 0.00108475 0.000263675 0.000212028 6.92951e-05
