tree
version=v3
num_class=1
num_tree_per_iteration=1
label_index=0
max_feature_idx=140
objective=regression
feature_names=px_buy_1 amt_buy_1 px_buy_2 amt_buy_2 px_buy_3 amt_buy_3 px_buy_4 amt_buy_4 px_buy_5 amt_buy_5 px_buy_6 amt_buy_6 px_buy_7 amt_buy_7 px_buy_8 amt_buy_8 px_buy_9 amt_buy_9 px_buy_10 amt_buy_10 px_buy_11 amt_buy_11 px_buy_12 amt_buy_12 px_buy_13 amt_buy_13 px_buy_14 amt_buy_14 px_buy_15 amt_buy_15 px_buy_16 amt_buy_16 px_buy_17 amt_buy_17 px_buy_18 amt_buy_18 px_buy_19 amt_buy_19 px_buy_20 amt_buy_20 px_buy_21 amt_buy_21 px_buy_22 amt_buy_22 px_buy_23 amt_buy_23 px_buy_24 amt_buy_24 px_buy_25 amt_buy_25 px_sell_1 amt_sell_1 px_sell_2 amt_sell_2 px_sell_3 amt_sell_3 px_sell_4 amt_sell_4 px_sell_5 amt_sell_5 px_sell_6 amt_sell_6 px_sell_7 amt_sell_7 px_sell_8 amt_sell_8 px_sell_9 amt_sell_9 px_sell_10 amt_sell_10 px_sell_11 amt_sell_11 px_sell_12 amt_sell_12 px_sell_13 amt_sell_13 px_sell_14 amt_sell_14 px_sell_15 amt_sell_15 px_sell_16 amt_sell_16 px_sell_17 amt_sell_17 px_sell_18 amt_sell_18 px_sell_19 amt_sell_19 px_sell_20 amt_sell_20 px_sell_21 amt_sell_21 px_sell_22 amt_sell_22 px_sell_23 amt_sell_23 px_sell_24 amt_sell_24 px_sell_25 amt_sell_25 aggr_trade_last_buy_px aggr_trade_last_buy_amt aggr_trade_last_buy_cnt aggr_trade_last_sell_px aggr_trade_last_sell_amt aggr_trade_last_sell_cnt ImBalance1 ImBalance2 ImBalance3 ImBalance4 ImBalance5 ImBalance10 ImBalance1v ImBalance2v ImBalance3v OFIa OFI2a OFI3a OFIb OFI2b OFI3b OFI4 OFI5 OFI10 OFI1v OFIV OFIV2 OFIV3 slope5 slope10 TruePrice MeanRev2 MeanRev1 MidReturn Momentum1 Momentum2 Momentum3 overA overB Volume TrueVolume
feature_infos=[28250.099999999999:28630.099999999999] [0.001:314.76600000000002] [28250:28630] [0.001:202.852] [28249.900000000001:28629.900000000001] [0.001:272.38299999999998] [28249.799999999999:28629.799999999999] [0.001:314.76600000000002] [28249.700000000001:28629.599999999999] [0.001:271.52100000000002] [28249.599999999999:28629.5] [0.001:272.38299999999998] [28249.5:28629.400000000001] [0.001:207.89099999999999] [28249.400000000001:28629.299999999999] [0.001:149.601] [28249.299999999999:28629.200000000001] [0.001:272.38299999999998] [28249.200000000001:28629.099999999999] [0.001:272.36099999999999] [28249.099999999999:28629] [0.001:314.92599999999999] [28249:28628.900000000001] [0.001:209.249] [28248.900000000001:28628.799999999999] [0.001:272.38299999999998] [28248.799999999999:28628.700000000001] [0.001:215.89099999999999] [28248.700000000001:28628.599999999999] [0.001:297.072] [28248.599999999999:28628.5] [0.001:274.26100000000002] [28248.5:28628.400000000001] [0.001:205.00899999999999] [28248.400000000001:28628.200000000001] [0.001:161.93700000000001] [28248.299999999999:28628.099999999999] [0.001:215.80699999999999] [28248.200000000001:28628] [0.001:215.79599999999999] [28248.099999999999:28627.900000000001] [0.001:199.125] [28248:28627.799999999999] [0.001:271.87200000000001] [28247.900000000001:28627.599999999999] [0.001:207.79599999999999] [28247.799999999999:28627.400000000001] [0.001:207.89099999999999] [28247.700000000001:28627.299999999999] [0.001:207.89099999999999] [28250.200000000001:28632.099999999999] [0.001:360.17500000000001] [28250.299999999999:28632.200000000001] [0.001:151.58600000000001] [28251.099999999999:28632.299999999999] [0.001:240.15600000000001] [28251.5:28632.400000000001] [0.001:151.55099999999999] [28251.700000000001:28632.5] [0.001:121.961] [28252.099999999999:28632.599999999999] [0.001:143.31800000000001] [28252.400000000001:28632.700000000001] [0.001:240.15600000000001] [28252.5:28632.799999999999] [0.001:150.22] [28252.599999999999:28632.900000000001] [0.001:144.506] [28252.700000000001:28633] [0.001:321.79300000000001] [28252.799999999999:28633.099999999999] [0.001:321.79300000000001] [28252.900000000001:28633.200000000001] [0.001:318.02300000000002] [28253:28633.299999999999] [0.001:124.319] [28253.099999999999:28633.400000000001] [0.001:97.280000000000001] [28253.200000000001:28633.5] [0.001:210.221] [28253.299999999999:28633.599999999999] [0.001:145.61699999999999] [28253.400000000001:28633.700000000001] [0.001:145.61500000000001] [28253.5:28633.900000000001] [0.001:210.06200000000001] [28253.599999999999:28634] [0.001:210.221] [28253.700000000001:28634.099999999999] [0.001:210.06100000000001] [28253.799999999999:28634.200000000001] [0.001:147.93700000000001] [28253.900000000001:28634.299999999999] [0.001:318.053] [28254:28634.400000000001] [0.001:147.63] [28254.099999999999:28634.5] [0.001:147.90299999999999] [28254.200000000001:28634.599999999999] [0.001:147.63] [28251.099999999999:28632.5] [0.001:90.739000000000004] [1:303] [28250.099999999999:28631.900000000001] [0.001:132.16999999999999] [1:182] [-0.99994141940775039:0.99996417504075097] [-0.9999861757204177:0.99999006823125125] [-0.9999748202797466:0.99998663119477005] [-0.99998105881238741:0.99998663119477005] [-0.99998360144963172:0.9999926341143629] [-0.99999378484372003:0.9999866312841319] [-1.9945132833867294:1.9871265471674262] [-1.9990145808076756:1.9989249059563612] [-1.999285277938011:1.9984726193902422] [-141.61000000000001:360.27500000000003] [-199.374:120.426] [-217.47200000000001:247.58100000000002] [-237.727:55.314] [-204.84399999999999:36.994] [-218.12200000000001:27.424999999999997] [-140.61800000000002:272.53899999999999] [-121.917:271.52100000000002] [-57.401000000000003:321.79300000000001] [-160.374:360.27500000000003] [-1:1] [-1:1] [-1:1] [-1:1] [-1:1] [28250.150000000001:28631.049999999999] [-19.094999999997526:25.754999999997381] [-18.090000000003783:21.209999999995489] [-0.0005396644618687052:0.0011448317889846127] [-0.00070849613763868113:0.0007075972770673733] [-0.0005396644618687052:0.00072129735483450474] [-0.00035109709063396721:0.0010616771345228759] [0:1] [0:1] [0.094:365.18299999999999] [-205.49600000000001:350.09999999999997]
tree_sizes=25702 27487 28235 28640 30665 30022 29955 31503 31687 31761 31801 31730 31990 33403 31835 32632 33265 33981 32513 34875

Tree=0
num_leaves=287
num_cat=0
split_feature=134 134 134 134 134 134 134 139 134 134 134 134 134 134 134 131 134 112 134 134 47 134 134 134 134 134 89 134 134 134 134 134 132 134 132 134 134 9 134 134 134 131 134 134 132 134 134 134 134 134 134 134 134 132 134 132 134 131 134 132 134 134 131 134 134 132 49 99 132 132 61 134 132 97 132 132 131 134 134 134 132 132 0 131 0 134 131 132 47 132 134 67 134 134 134 0 58 134 0 52 132 0 134 134 0 132 116 81 132 134 6 31 0 134 76 132 0 134 134 73 0 128 134 0 0 1 0 134 0 134 0 0 0 2 122 115 131 132 53 0 87 134 0 0 41 134 0 134 0 134 0 134 0 102 11 69 134 0 134 2 132 132 134 134 132 134 0 134 0 134 0 134 0 139 2 134 2 134 134 4 0 134 131 0 0 132 134 103 14 0 0 65 77 134 108 132 124 25 129 71 128 14 43 51 132 118 118 107 119 73 134 0 32 112 5 31 97 134 130 0 132 1 134 0 7 5 1 134 4 1 17 3 11 0 0 19 93 2 27 21 3 0 0 9 15 5 3 0 9 0 0 0 0 0 0 0 0 0 0 0 0 0 0 0 2 0 0 0 0 0 3 0 0 0 0 1 1 0 0 0 0 0 0 0 92 1
split_gain=14210.5 12403.3 3619.41 2300.72 2071.57 1598.88 940.715 710.713 614.083 429.767 211.436 209.422 129.536 128.678 128.635 123.33 120.447 74.4653 61.5486 56.1236 43.5726 42.6993 34.0459 23.4546 21.2325 20.4952 20.0312 19.7626 19.492 16.6053 15.4446 12.6596 11.3526 9.78937 8.59321 6.83393 6.01422 5.88001 5.6752 5.38265 5.30591 5.17821 4.51206 4.09597 3.48867 3.31087 3.03834 2.99004 2.65726 2.53238 2.03089 1.8648 1.60357 1.54219 1.508 1.40855 1.37942 1.32447 1.31432 1.24718 1.16721 1.11239 0.994761 0.960034 0.907104 0.869939 0.855911 0.871488 0.768594 0.747862 0.696671 0.6493 0.634169 0.552047 0.47064 0.463849 0.424593 0.395865 0.325438 0.315867 0.295311 0.293237 0.27663 0.270114 0.254427 0.218382 0.210139 0.207616 0.204325 0.193378 0.183186 0.173353 0.169316 0.168102 0.165712 0.16164 0.154903 0.146262 0.157341 0.141836 0.139528 0.137412 0.135912 0.129494 0.12355 0.120275 0.120246 0.112331 0.0926427 0.0873206 0.0860248 0.0826494 0.0812116 0.0771264 0.0922635 0.0770381 0.0691948 0.067242 0.0533574 0.0493795 0.0481566 0.0477145 0.0473048 0.0460209 0.0458553 0.0445656 0.0433108 0.0415885 0.0401517 0.0395403 0.0580851 0.0386487 0.0384278 0.0383057 0.0379913 0.0343231 0.0334058 0.0327845 0.0320755 0.030571 0.0296015 0.0293923 0.0415809 0.0257835 0.0256521 0.0237094 0.0288874 0.0235923 0.051236 0.0233302 0.0411972 0.0225107 0.0427778 0.0224876 0.025015 0.0224074 0.0219617 0.0645141 0.0215707 0.0386697 0.0247917 0.0193736 0.017782 0.0177762 0.017398 0.0166872 0.0485922 0.0166429 0.0438584 0.0162787 0.0496323 0.0151715 0.0246176 0.0128954 0.0125488 0.0124132 0.0298284 0.0122228 0.0114735 0.0177084 0.0105625 0.0103363 0.0102173 0.00966755 0.00933544 0.00924384 0.00906791 0.0229859 0.00999716 0.00899999 0.00755492 0.00755492 0.00736986 0.00648458 0.0110769 0.00616894 0.00535714 0.00458936 0.00458158 0.00453312 0.00452184 0.00445127 0.00386519 0.00373728 0.00369275 0.00560341 0.00365574 0.0035625 0.00337662 0.00337199 0.00325152 0.00518597 0.0028701 0.00278458 0.00272001 0.00250257 0.00228571 0.00180982 0.00801562 0.00163731 0.00145149 0.00139394 0.00132319 0.0015625 0.00118368 0.00103607 0.000951926 0.000838638 0.00357216 0.0008125 0.000743644 0.000628205 0.000562499 0.000427537 0.000380953 0.000371794 0.000358181 0.000723215 0.000341269 0.000338709 0.000324562 0.00031132 0.000277779 0.000261905 0.000116409 0.000110294 0.000102876 9.55881e-05 9.33547e-05 8.40166e-05 8.18964e-05 5.68434e-14 2.84217e-14 2.84217e-14 2.84217e-14 2.84217e-14 2.84217e-14 2.84217e-14 2.84217e-14 2.84217e-14 2.84217e-14 2.84217e-14 2.84217e-14 2.84217e-14 2.84217e-14 1.42109e-14 1.42109e-14 1.42109e-14 1.42109e-14 1.42109e-14 1.42109e-14 3.55271e-15 3.55271e-15 3.55271e-15 1.77636e-15 1.77636e-15 1.77636e-15 4.44089e-16 4.44089e-16 2.22045e-16 1.11022e-16 1.11022e-16 5.55112e-17 6.93889e-18 3.46945e-18 1.35525e-20
threshold=4.8259936334171811e-05 -4.0531463151083351e-05 0.00017090917804085673 -0.00011385079891151893 1.2289919290475739e-05 -1.3183133187155692e-05 9.5340837995339114e-05 18.778000000000009 -0.00017323900425120217 -7.0354781596559932e-05 2.8004539483816874e-05 0.00021727949559180451 -5.2606475506866693e-06 -2.4727642848887396e-05 6.7142435622891141e-05 3.325000000002547 5.2559931638107579e-06 -0.38100326358161268 -9.1658080571044285e-05 -5.2917620830428273e-05 0.97650000000000003 -0.00014058879630646223 3.8497343692878168e-05 1.7688721463460236e-05 0.00014974388968691524 -1.9299103410086446e-05 0.62450000000000017 8.4250445754108241e-05 -1.0000000180025095e-35 1.7576669615326781e-06 5.9509956820025252e-05 -3.1803524992324299e-05 2.8000000000010918 -8.0791493883680663e-05 -1.6174999999948338 -0.00012429185378048932 -4.7278048951326916e-05 0.23850000000000002 -9.6515108484185302e-06 -0.00010523872990664261 8.7720934949242508e-06 5.0587500000001464 3.15229251868221e-05 0.00013415236969482883 1.8900000000048751 4.1256080781537647e-05 -1.5782665602093179e-05 2.1988500695124816e-05 1.7501793935226221e-05 5.1119763736395825e-05 -2.119530953759163e-05 -3.1489506125581539e-05 -3.7002112707185113e-05 2.6250000000000004 -8.6178544408677102e-05 1.6025000000008733 -9.8491515630905177e-05 2.3750000000018194 3.5023325792749034e-05 4.0375000000003647 -6.6507049969133356e-05 -7.3779104196591825e-05 3.8537500000002187 -5.9525999147380653e-05 0.0001149342058585079 1.1450000000004368 0.26750000000000007 1.4515000000000002 1.3800000000028378 -1.1200000000008001 0.59250000000000014 -1.7675658477989129e-06 -1.2975000000005819 0.31050000000000005 1.9850000000024013 1.6799999999984723 -3.1487500000002906 7.0580222366500869e-05 1.767529330565232e-06 -7.7138040075419565e-05 -1.7899999999990539 3.0625000000036384 28307.150000000005 2.7199999999975266 28553.650000000005 1.0000000180025095e-35 2.520000000002256 -1.4074999999993449 0.36050000000000004 2.2450000000008008 5.2909633116993157e-06 1.1465000000000003 2.4750462738420968e-05 1.4126164306516033e-05 -7.0733863998251314e-06 28519.250000000004 28561.850000000002 -2.8029950160601832e-05 28542.050000000003 28316.950000000004 -0.89750000000094576 28366.150000000005 -5.2891773597574235e-06 0.00010592453926450142 28433.350000000002 -2.0200000000004361 0.80050000000000021 2.0115000000000003 -2.6100000000024006 1.0496245025026775e-05 28567.650000000005 0.77150000000000019 28535.350000000002 -6.332375859668947e-05 28424.250000000004 1.8000000000010916 28469.550000000003 2.0999837267776659e-05 -4.5576934056046341e-05 1.3735000000000002 28523.050000000003 0.46240316951079841 -1.0602505018775242e-05 28558.550000000003 28303.250000000004 1.0795000000000001 28377.150000000005 5.6118494250356761e-05 28572.350000000002 1.4011489452681049e-05 28547.050000000003 28581.150000000005 28435.850000000002 28536.850000000002 -0.16450000000000006 -8.0669999999999984 -1.6912499999998543 2.340000000001965 0.25350000000000006 28568.150000000005 0.52350000000000019 -1.7500078752952227e-05 28570.650000000005 28358.450000000004 0.42550000000000004 -2.8255721963910126e-05 28310.850000000002 -2.1008660829657796e-05 28559.350000000002 -3.5356490720173102e-06 28513.250000000004 -2.4516714277500459e-05 28551.350000000002 1.5000000000000002 0.098500000000000018 0.024500000000000004 2.8230843672316656e-05 28364.750000000004 4.5653521381194835e-05 28485.450000000004 1.2000000000025468 1.0200000000022558 -5.9917808028664414e-05 4.2415492772396319e-05 1.0649999999986905 7.0028992013027044e-06 28559.350000000002 2.4534415738686203e-05 28532.350000000002 -7.0010422891231264e-06 28566.150000000005 -4.9064705091528264e-05 28540.650000000005 8.8075000000000028 28298.850000000002 3.1785497353831189e-05 28314.150000000005 7.7403108196261186e-05 -3.5027006303756096e-05 28558.950000000004 28395.850000000002 5.9969646932889205e-05 -1.837500000001455 28554.950000000004 28349.450000000004 -1.0199999999986173 3.5353428222695275e-06 28283.950000000004 28289.750000000004 28328.150000000005 28532.350000000002 0.21550000000000002 2.7575000000000003 1.0605541043373636e-05 0.97819033026980717 -1.079999999999927 -5.8439999999999994 0.45450000000000007 -0.70501765525077287 0.64750000000000008 0.94935645984923422 28289.750000000004 1.1575000000000002 0.59550000000000003 -0.90749999999752606 -9.347999999999999 -9.347999999999999 0.3685855263157895 -0.14849999999999994 0.10150000000000002 5.6443163537811543e-05 28324.850000000002 28558.650000000005 -0.037418068324377295 4.3690000000000007 1.1875000000000002 0.35550000000000004 -1.4121326931681997e-05 28324.000000000004 28335.050000000003 -0.98999999999978161 3.1785000000000001 -4.2089684157586842e-05 28556.050000000003 0.17650000000000002 2.3185000000000007 1.4285000000000003 7.0629200232819053e-06 28313.950000000004 3.0065000000000004 0.70650000000000002 0.25750000000000006 1.7850000000000004 28487.950000000004 28513.250000000004 0.32450000000000007 0.95950000000000013 28453.550000000003 0.020500000000000004 0.54950000000000021 0.06950000000000002 28504.350000000002 28415.750000000004 0.0085000000000000023 1.9945000000000002 7.8865000000000007 0.27750000000000008 28398.150000000005 0.28150000000000003 28374.950000000004 28441.750000000004 28487.950000000004 28551.350000000002 28435.050000000003 28550.050000000003 28457.250000000004 28392.550000000003 28455.950000000004 28423.150000000005 28519.250000000004 28491.650000000005 28493.550000000003 28413.150000000005 28487.950000000004 28441.950000000004 28550.050000000003 28540.050000000003 28526.650000000005 28531.050000000003 28569.950000000004 0.61750000000000005 28573.750000000004 28573.750000000004 28583.150000000005 28316.050000000003 9.7165000000000017 0.48750000000000004 28586.100000000002 28489.850000000002 28471.950000000004 28550.050000000003 28279.450000000001 28430.150000000005 28605.350000000002 28467.850000000002 12.460500000000001
decision_type=10 8 10 10 10 8 10 2 10 10 10 10 8 10 10 2 10 2 10 10 2 10 10 10 10 10 2 10 8 10 10 10 2 10 2 10 10 2 10 10 10 2 10 10 2 10 10 10 10 10 10 10 10 2 10 2 10 2 10 2 10 10 2 10 10 2 2 2 2 2 2 10 2 2 2 2 2 10 10 10 2 2 2 2 2 10 2 2 2 2 10 2 10 10 10 2 2 10 2 2 2 2 10 10 2 2 2 2 2 10 2 2 2 10 2 2 2 10 10 2 2 8 10 2 2 2 2 10 2 10 2 2 2 2 2 2 2 2 2 2 2 10 2 2 2 10 2 10 2 10 2 10 2 2 2 2 10 2 10 2 2 2 10 10 2 10 2 10 2 10 2 10 2 2 2 10 2 10 10 2 2 10 2 2 2 2 10 2 2 2 2 2 2 10 2 2 2 2 8 2 10 2 2 2 2 2 2 2 2 2 10 2 2 2 2 2 2 10 2 2 2 2 10 2 2 2 2 10 2 2 2 2 2 2 2 2 2 2 2 2 2 2 2 2 2 2 2 2 2 2 2 2 2 2 2 2 2 2 2 2 2 2 2 2 2 2 2 2 2 2 2 2 2 2 2 2 2 2 2 2 2 2 2 2 2 2
left_child=1 3 6 8 5 13 14 11 17 18 23 41 38 31 30 32 28 -1 39 34 -13 66 42 48 43 50 -19 44 71 85 49 52 53 54 60 88 72 -28 122 121 90 -4 96 106 77 161 141 117 93 202 82 254 185 83 126 181 108 89 84 -26 80 79 140 162 -34 163 67 -10 199 118 -68 149 136 -43 177 214 125 143 282 105 241 -66 -15 191 175 283 137 190 91 232 279 -23 167 129 184 224 156 112 174 230 178 -58 169 -55 216 -35 -17 -90 -41 131 127 -61 145 114 213 -79 153 128 233 -103 -120 -5 124 180 243 -37 -20 -70 -25 130 -6 -42 -110 173 -123 -115 -21 -59 155 -101 -45 212 -143 -16 -128 146 -53 264 -149 150 -14 -84 -153 154 -56 -76 252 221 159 -67 258 253 -36 256 -163 166 -92 168 -49 270 -171 206 -173 -60 -99 -44 -177 -46 204 -180 -94 -32 -82 227 -40 195 188 281 -80 -183 203 -8 -122 -111 -195 -3 234 240 -117 219 -78 -151 226 -65 205 -54 -74 -77 -87 -71 257 -212 236 -62 225 245 -63 218 274 -51 -187 -158 246 -224 -81 249 -2 -167 -229 -170 -95 235 -29 255 -138 -205 265 -238 -107 -200 -100 -11 -85 -7 280 251 262 -221 -184 -57 -145 -175 -12 -24 -33 -38 -47 -129 -160 260 -169 -206 -211 -249 -52 -27 -50 -124 -161 -219 -96 -150 -190 -203 -48 -132 -269 -172 -272 -18 -73 -188 -31 284 -30 -285
right_child=2 4 7 9 10 12 15 -9 21 19 22 20 16 25 27 24 40 26 33 36 -22 35 45 47 59 46 37 57 29 78 55 51 64 61 63 76 69 -39 94 56 109 73 58 62 74 65 217 92 266 68 147 97 100 103 116 75 101 86 133 111 113 104 -64 87 81 158 70 -69 110 209 -72 244 171 -75 138 207 200 115 186 95 182 -83 151 242 -86 208 -88 -89 107 -91 165 -93 123 99 102 -97 -98 98 197 139 -102 119 -104 -105 -106 238 -108 -109 132 193 -112 -113 -114 135 -116 198 -118 -119 120 -121 192 134 267 -125 -126 -127 144 210 -130 -131 275 -133 -134 -135 -136 -137 196 -139 -140 -141 -142 142 -144 250 -146 -147 -148 148 271 201 -152 152 -154 -155 -156 -157 157 -159 160 268 -162 164 -164 -165 -166 183 -168 259 229 170 277 172 -174 215 -176 176 -178 -179 179 -181 -182 189 248 -185 -186 220 187 -189 272 -191 -192 -193 -194 194 -196 -197 -198 -199 239 -201 -202 273 -204 231 261 -207 -208 -209 -210 222 211 -213 -214 -215 -216 -217 -218 269 -220 247 -222 -223 223 -225 -226 -227 -228 228 -230 -231 -232 -233 -234 -235 -236 -237 237 -239 -240 -241 -242 -243 -244 -245 -246 -247 -248 263 -250 -251 -252 -253 -254 -255 -256 -257 -258 -259 -260 -261 -262 -263 -264 -265 -266 -267 -268 276 -270 -271 278 -273 -274 -275 -276 -277 -278 -279 -280 -281 -282 -283 -284 285 -286 -287
leaf_value=-0.84833064546753678 0.14091934988330093 -0.1100687462006126 0.50999076954809253 -0.31305644225935181 0.035169356559021134 -0.029830644037025313 0.28059792936701433 1.3024193526251147 -0.46530684893186325 -0.1993306373613051 0.080169358347160491 0.89016935732536662 -0.0098306429939440283 -0.059982160236137255 0.19591935107539385 0.36477462552052603 0.015169357751114033 -0.6927338748425762 -0.25016396989990985 -0.1455203043888772 0.71807257800087454 -0.37346699857013416 0.1101693535787889 0.054643042432203338 0.43574627152054257 -0.049830642844932417 -0.62783066024948875 0.24091937193701951 0.00016935690768502492 0.0051693568570443599 0.17016935596297469 -0.089830640460746625 0.32063811669181075 -0.2278663482750995 -0.17262476960799575 -0.34005791134569402 -0.12983064403702532 -0.55441399366229493 -0.022330642993944029 -0.2936306418435744 0.025169357155067584 0.55445505628417224 0.09016935477088181 0.39564555677063695 0.21741074859187462 0.12016935596297471 -0.03983064344097887 0.065169354770881802 0.050169357155067588 0.14926026115248886 -0.059830645229118212 -0.080153224759095823 -0.099962227627281838 0.2987407921978576 -0.23389313643743312 0.18041934678385943 -0.26399729997485594 0.25737523859640826 0.10289662403024792 0.46665082004873021 -0.18142155540374813 -0.19983063688446795 0.41645965016411801 -0.16133064975907122 0.33543252251607047 0.1249193514330217 -0.41941399723857364 -0.43649732648473133 0.15674829824931552 -0.12108065297772204 -0.4443544720666579 -0.0048306432919672524 -0.1398306464212111 0.57766933927367414 0.23412769585281898 0.18866934904883592 -0.32864015706094674 0.20266935179064957 0.0079193571029135199 -0.20983062734772479 -0.19233064999748981 0.34891936430762494 -0.069830641652839517 0.28966937193701947 0.099581121720703727 0.0037407854429416928 0.26916936747518605 -0.15206748971856718 -0.3737495555456371 0.25057476813431273 0.015169357751114033 -0.38633064260651384 0.071919356380207203 0.040169357751114035 -0.019830643142955642 -0.21965822802416268 0.08850268903139849 -0.069830641652839517 -0.079830644037025306 0.045169355962974687 -0.092138333547884282 -0.27583063593079366 -0.014830643440978866 0.30780824471940882 -0.20870159616638934 -0.22033064117600237 0.37350269538922726 -0.36459253892158899 -0.28379615379699408 0.030169358347160481 0.16630571786538503 0.45816933641265117 -0.086830642427699903 -0.17983064403702531 -0.18795564820935046 0.20850268770685085 -0.23998689329196726 0.060169359539253377 -0.12309988122521782 -0.27037118167788043 -0.12721159891569614 -0.30569270272587973 -0.029830644037025313 0.079419358168346554 -0.034830642248885969 -0.3462889726019871 -0.25316396703888694 0.16016935357878892 0.059633645125814851 0.040169357751114035 0.040169357751114035 0.030169358347160481 -0.28920564403702537 0.10516935447285859 -0.31113498325931138 -0.17458064665962969 -0.1498306488053969 0.26209243600383303 0.22746102709998972 0.049652115652437288 0.39039663866047891 -0.044830641652839523 -0.049830642844932417 0.1999193514330217 -0.25743932528042429 -0.079830644037025306 -0.084830645229118207 -0.054830644037025318 -0.059830645229118212 -0.0083306430833509949 -0.014830643440978866 -0.064830640460746616 -0.069830641652839517 -0.23233063450028213 -0.23816397637694789 0.22999694471848367 0.081169358585579068 0.086836024616462865 0.13016934642623154 0.13016934642623154 0.13371101815929301 0.11466934928725449 -0.16983065357376848 0.12294713109165714 0.11074627610551527 0.020169357453090807 0.020169357453090807 0.070169355962974703 0.069419355784160766 -0.014830643440978866 -0.019830643142955642 -0.13533065071274553 -0.1398306464212111 0.1001693571550676 -0.073330642487304545 0.09016935477088181 0.094919355903370056 0.22016936788390365 -0.096080644633071755 -0.099830648805396896 0.07516935715506759 0.17066935548613754 -0.18983064642121111 0.022419357318980357 -0.024830642844932419 -0.10983065118958268 0.010169357304079196 0.014169357661707065 0.010169357304079196 0.17366935322116106 -0.16210337846230996 0.27829436013529979 -0.12983064403702532 0.033169357274276876 0.030169358347160481 -0.11243934435391056 -0.14792588758183095 -0.077925881678132775 0.20966935405562606 0.15166935155223099 -0.33063063230683126 -0.0098306429939440283 0.14169109011771741 -0.1598306511895827 -0.099830648805396896 -0.10191398015190874 -0.14112694324732647 0.19016934881041733 0.0051693568570443599 -0.11983065357376847 0.16016935357878892 0.16241935143302169 -0.051080643142955642 -0.17997770307092406 0.17916934737990586 0.1012038376939291 -0.20125920695064747 -0.03983064344097887 -0.042080642636316161 0.15041935095618456 -0.10911636445350306 0.080169358347160491 -0.11858065178562913 -0.11983065357376847 -0.21083063116242204 0.18103891288754587 0.14016934881041732 0.020169357453090807 0.02166935736368384 0.070169355962974703 0.040919357482893132 -0.15933065107037339 0.24016937265227525 -0.13033064475228104 -0.14933064868618759 -0.16033065071274552 -0.049830642844932417 -0.050580643023746354 -0.21983064165283953 0.21016935357878891 -0.079330643917816024 -0.19983063688446795 0.29016937265227521 -0.030330643858211378 -0.004580643282057398 0.10041935661862579 -0.1200806533353499 0.15016935119460312 -0.19008064677883899 0.18016934642623153 0.20016935119460313 0.1001693571550676 0.080169358347160491 0.1101693535787889 -0.089830640460746625 -0.12983064403702532 0.12016935596297471 0.16016935357878892 0.13016934642623154 0.070169355962974703 0.070169355962974703 -0.099830648805396896 -0.11983065357376847 0.15016935119460312 -0.059830645229118212 -0.049830642844932417 0.050169357155067588 -0.029830644037025313 0.13016934642623154 -0.03983064344097887 -0.019830643142955642 -0.059830645229118212 0.010169357304079196 -0.0098306429939440283 -0.03983064344097887 0.040169357751114035 -0.029830644037025313 -0.019830643142955642 -0.019830643142955642 0.015169357751114033 -0.0048306432919672524 0.010169357304079196 0.0051693568570443599 0.00016935690768502492 0.00016935690768502492 0.00016935690768502492
leaf_weight=20 20 21 28 31 42 22 35 20 21 20 231 28 45 33 20 38 55 31 30 29 31 22 105 38 26 437 20 20 493083 119 73 274 32 28 34 22 97 24 20 25 52 21 254 21 29 49 55 26 424 22 216 31 38 28 32 20 24 34 22 27 22 24 31 20 38 20 24 21 38 20 21 228 112 20 24 20 21 20 20 29 22 28 344 20 34 21 35 38 37 37 26 20 20 39 963 29 27 21 37 32 26 30 60 36 31 20 27 21 29 769 22 20 20 33 24 30 32 469 26 37 21 29 693 20 39 24 36 57 28 504 29 22 24 20 23 20 64 26 24 29 22 29 39 20 23 245 23 32 27 20 26 28 44 30 24 29 20 21 75 25 24 20 69 27 26 912 77 291 20 27 51 20 31 130 20 39 20 36 20 34 20 20 59 20 59 152 29 20 1494 20 22 24 22 20 32 23 21 21 20 20 25 1789 23 58 171 24 27 76 78 61 21 20 20 34 20 29 21 547 20 20 35 46 20 20 20 23 110 77 20 52 20 20 20 20 20 20 36 20 43 42 20 33 25 20 20 20 20 45 20 41 38 20 25 89 21 21 108 22 37 21 27 22 32 20 190 23 47 107 22 33 61 30 70 38 21 23 37 24 21 25 43 22 21 1773 303489 49
leaf_count=20 20 21 28 31 42 22 35 20 21 20 231 28 45 33 20 38 55 31 30 29 31 22 105 38 26 437 20 20 493083 119 73 274 32 28 34 22 97 24 20 25 52 21 254 21 29 49 55 26 424 22 216 31 38 28 32 20 24 34 22 27 22 24 31 20 38 20 24 21 38 20 21 228 112 20 24 20 21 20 20 29 22 28 344 20 34 21 35 38 37 37 26 20 20 39 963 29 27 21 37 32 26 30 60 36 31 20 27 21 29 769 22 20 20 33 24 30 32 469 26 37 21 29 693 20 39 24 36 57 28 504 29 22 24 20 23 20 64 26 24 29 22 29 39 20 23 245 23 32 27 20 26 28 44 30 24 29 20 21 75 25 24 20 69 27 26 912 77 291 20 27 51 20 31 130 20 39 20 36 20 34 20 20 59 20 59 152 29 20 1494 20 22 24 22 20 32 23 21 21 20 20 25 1789 23 58 171 24 27 76 78 61 21 20 20 34 20 29 21 547 20 20 35 46 20 20 20 23 110 77 20 52 20 20 20 20 20 20 36 20 43 42 20 33 25 20 20 20 20 45 20 41 38 20 25 89 21 21 108 22 37 21 27 22 32 20 190 23 47 107 22 33 61 30 70 38 21 23 37 24 21 25 43 22 21 1773 303489 49
internal_value=0.000188174 -0.000447989 0.273136 -0.229856 0.000214196 -0.000131508 0.233087 0.748041 -0.457291 -0.186809 0.0738175 0.661419 0.000162019 -0.0673526 0.188294 0.352753 0.000228336 -0.676883 -0.249497 -0.152114 0.799746 -0.382519 0.101718 0.0539064 0.40965 -0.0527466 -0.631164 0.2276 0.000165643 0.000191536 0.162666 -0.0923595 0.307406 -0.227419 -0.1755 -0.356185 -0.133247 -0.587785 -0.024048 -0.289097 0.0241062 0.54314 0.0898614 0.386716 0.213347 0.119834 -0.0445025 0.0649368 0.0443325 0.151006 -0.0639249 -0.0836847 -0.103594 0.291628 -0.24343 0.179802 -0.278854 0.255111 0.0953054 0.45332 -0.18767 -0.213892 0.402804 -0.163069 0.334455 0.125557 -0.440635 -0.450902 0.156244 -0.124712 -0.431053 -0.00921498 -0.143257 0.565779 0.225205 0.184844 -0.336515 0.204485 0.00979888 -0.218411 -0.193597 0.341154 -0.068795 0.284112 0.0913653 0.000169939 0.263011 -0.158623 -0.374281 0.245364 0.0197939 -0.379593 0.0705215 0.0405036 -0.0197607 -0.213741 0.0812099 -0.0795453 -0.0765533 0.0439194 -0.0991739 -0.27049 -0.0194702 0.303841 -0.203844 -0.222413 0.3684 -0.370434 -0.288613 0.0299459 0.160447 0.463042 -0.0806614 -0.180808 -0.182768 0.208294 -0.236017 0.0597488 -0.128768 -0.272816 -0.126497 -0.309951 -0.030054 0.0755027 -0.0323615 -0.343309 -0.253258 0.159631 0.0567603 0.0398182 0.0379353 0.0266558 -0.286246 0.100978 -0.3081 -0.17785 -0.148525 0.259419 0.230494 0.0473005 0.39296 -0.0496568 -0.0476983 0.199016 -0.254831 -0.0802487 -0.0821455 -0.0595074 -0.0580329 -0.00988278 -0.0116616 -0.0694941 -0.0678862 -0.23454 -0.235723 0.231867 0.0806358 0.0820084 0.130071 0.128602 0.130794 0.110607 -0.170753 0.120577 0.112452 0.0201208 0.0189072 0.0698375 0.0686898 -0.0197129 -0.0185071 -0.139541 -0.138066 0.100599 -0.071538 0.0904729 0.0917795 0.218939 -0.0997659 -0.0984418 0.0735444 0.170877 -0.190425 0.0202422 -0.0241977 -0.110004 0.0101905 0.0112961 0.0101409 0.172169 -0.160402 0.279661 -0.128552 0.0302424 0.0313232 -0.111308 -0.149354 -0.0791896 0.209517 0.150287 -0.329722 -0.0098144 0.140496 -0.160085 -0.100046 -0.100718 -0.140082 0.189857 0.00486633 -0.11986 0.160544 0.161267 -0.0499053 -0.180545 0.180217 0.100345 -0.200497 -0.0398972 -0.0402994 0.150029 -0.109697 0.0804724 -0.1197 -0.119206 -0.210239 0.180467 0.140285 0.0201991 0.0204786 0.069961 0.0404236 -0.159831 0.240544 -0.129903 -0.149712 -0.159959 -0.0498597 -0.0500985 -0.219989 0.210008 -0.0796552 -0.199642 0.289947 -0.0300687 -0.00481346 0.100199 -0.119875 0.150228 -0.189894 0.180251 0.200083 0.100169 0.0801694 0.110169 -0.0898306 -0.129831 0.120169 0.160169 0.130169 0.0701694 0.0701694 -0.0998306 -0.119831 0.150169 -0.0598306 -0.0498306 0.0501694 -0.0298306 0.130169 -0.0398306 -0.0198306 -0.0598306 0.0101694 -0.00983064 -0.0398306 0.0401694 -0.0298306 -0.0198306 -0.0198306 0.0151694 -0.00483064 0.0101694 0.00516936 0.000169357 0.000169357 0.000169357
internal_weight=0 816487 1903 2350 814137 810331 1755 148 374 1976 3806 128 806808 3523 1277 478 804604 95 704 1272 59 279 1585 2221 212 2224 75 504 802497 800288 773 1299 266 452 568 192 704 44 2204 252 2107 69 958 139 332 627 1280 1032 1189 460 944 733 566 168 207 313 169 172 588 73 287 245 74 281 98 387 87 42 307 380 45 2209 324 41 142 200 92 190 1795 169 154 66 449 104 347 798493 95 178 100 77 1212 42 497 718 1286 78 370 438 119 120 335 91 1207 64 76 91 65 58 78 895 180 47 319 133 80 112 118 535 207 67 69 83 918 60 81 46 89 158 66 598 94 74 53 241 52 53 134 60 77 61 43 604 68 78 59 299 54 495 89 1918 71 416 72 86 56 53 343 87 203 67 136 240 103 184 46 1132 103 437 98 1147 102 190 51 221 41 313 59 65 309 54 40 113 101 1029 79 231 1655 71 1584 40 140 59 43 821 52 44 105 78 92 127 46 1847 153 118 255 62 139 96 99 173 120 41 536 56 104 199 45 676 96 107 187 66 153 40 49 84 130 1009 97 72 59 98 40 138 84 78 516 56 63 62 57 53 45 42 291 170 113 85 79 61 58 150 256 194 295 118 157 79 112 339 318 193 93 65 406 460 471 837 47 580 1045 57 1564 1827 76 52 144 75 82 80 271 51 140 798394 796572 1822
internal_count=818390 816487 1903 2350 814137 810331 1755 148 374 1976 3806 128 806808 3523 1277 478 804604 95 704 1272 59 279 1585 2221 212 2224 75 504 802497 800288 773 1299 266 452 568 192 704 44 2204 252 2107 69 958 139 332 627 1280 1032 1189 460 944 733 566 168 207 313 169 172 588 73 287 245 74 281 98 387 87 42 307 380 45 2209 324 41 142 200 92 190 1795 169 154 66 449 104 347 798493 95 178 100 77 1212 42 497 718 1286 78 370 438 119 120 335 91 1207 64 76 91 65 58 78 895 180 47 319 133 80 112 118 535 207 67 69 83 918 60 81 46 89 158 66 598 94 74 53 241 52 53 134 60 77 61 43 604 68 78 59 299 54 495 89 1918 71 416 72 86 56 53 343 87 203 67 136 240 103 184 46 1132 103 437 98 1147 102 190 51 221 41 313 59 65 309 54 40 113 101 1029 79 231 1655 71 1584 40 140 59 43 821 52 44 105 78 92 127 46 1847 153 118 255 62 139 96 99 173 120 41 536 56 104 199 45 676 96 107 187 66 153 40 49 84 130 1009 97 72 59 98 40 138 84 78 516 56 63 62 57 53 45 42 291 170 113 85 79 61 58 150 256 194 295 118 157 79 112 339 318 193 93 65 406 460 471 837 47 580 1045 57 1564 1827 76 52 144 75 82 80 271 51 140 798394 796572 1822
is_linear=0
shrinkage=1


Tree=1
num_leaves=306
num_cat=0
split_feature=134 134 134 134 134 134 134 139 134 134 134 134 134 134 134 131 134 112 134 134 47 134 134 134 134 134 121 134 134 134 134 134 132 134 109 132 134 134 134 134 134 131 134 134 132 134 134 134 134 134 134 134 134 132 134 132 134 131 134 132 134 134 131 134 61 49 134 132 132 132 134 132 97 132 132 131 134 134 134 45 132 132 0 131 14 134 134 132 47 67 132 134 134 134 134 0 58 134 0 52 129 132 0 134 134 0 132 116 132 134 6 77 0 131 134 76 132 0 134 73 134 67 0 128 134 45 0 0 0 132 134 134 0 134 0 0 0 108 115 134 131 53 0 59 134 0 0 117 134 0 134 0 134 0 111 134 0 134 0 134 2 132 0 132 124 134 134 132 134 0 134 8 134 0 134 0 129 134 58 0 51 0 134 131 0 132 134 103 14 0 43 121 0 134 0 139 124 140 71 128 14 134 8 132 109 43 51 120 73 9 134 49 118 128 56 134 130 3 0 128 132 11 131 73 139 114 41 134 4 89 43 33 27 21 123 17 49 77 101 93 21 93 29 5 121 43 93 25 131 85 0 131 31 0 6 51 107 129 0 1 1 0 116 73 1 27 47 19 15 115 0 1 9 0 0 0 0 0 0 0 0 0 1 0 0 0 0 0 0 0 0 0 4 0 0 0 0 0 0 0 1 1 3 3 111
split_gain=11510.5 10046.7 2931.72 1863.59 1677.97 1295.09 761.979 575.678 497.407 348.112 171.264 169.632 104.924 104.23 104.195 99.8971 97.562 60.3169 49.8544 45.4601 35.2938 34.5864 27.5772 18.9982 17.1983 16.6012 16.4172 16.0077 15.7885 13.4503 12.5101 10.2543 9.19563 7.92939 7.42811 6.9605 5.53548 4.87151 4.59691 4.35994 4.29779 4.19435 3.65477 3.31774 2.82582 2.68181 2.46106 2.42193 2.15238 2.05123 1.64502 1.51049 1.29889 1.24918 1.22148 1.14093 1.11733 1.07282 1.0646 1.01021 0.945441 0.901038 0.805759 0.777628 0.765378 0.973886 0.734755 0.70465 0.622561 0.605768 0.525933 0.513676 0.44716 0.381218 0.375718 0.34392 0.32065 0.263604 0.255853 0.247276 0.239202 0.237522 0.22407 0.218792 0.206663 0.176889 0.175568 0.168169 0.165595 0.196312 0.156636 0.148381 0.137146 0.136163 0.134227 0.131522 0.125471 0.118472 0.130035 0.114887 0.113772 0.113018 0.112163 0.110088 0.104891 0.102424 0.0974227 0.0973993 0.0750405 0.0707297 0.0696803 0.0685213 0.0657815 0.0650313 0.0624726 0.0747334 0.0624008 0.0560478 0.0544661 0.0482448 0.0432196 0.041917 0.039007 0.0386487 0.0383169 0.0376564 0.0372769 0.0371429 0.0356996 0.0343621 0.0385434 0.0336866 0.0325228 0.0320277 0.047049 0.0313054 0.0311266 0.0278472 0.0278017 0.0271708 0.0277229 0.0262721 0.0247625 0.0242139 0.0238078 0.0336805 0.0208847 0.0193896 0.0192047 0.0233988 0.0191098 0.0415011 0.0188974 0.0333697 0.018638 0.0182337 0.03465 0.017789 0.0522564 0.0174722 0.0313223 0.0200814 0.0159519 0.0156926 0.0151451 0.0144034 0.0143988 0.0140924 0.0135166 0.0393597 0.0134808 0.035819 0.0131858 0.0402022 0.0122889 0.0199403 0.0112889 0.0108136 0.027163 0.00951798 0.0086081 0.00855563 0.0083724 0.00827607 0.00783071 0.00748753 0.00734501 0.0186186 0.0080977 0.00728998 0.00689725 0.00642295 0.00611948 0.00525251 0.00906742 0.00513187 0.00408969 0.00403165 0.00367182 0.00366275 0.00360553 0.00357874 0.0105087 0.00341119 0.00339209 0.00313082 0.00302718 0.00275558 0.00273131 0.00264675 0.00263374 0.00496126 0.00262123 0.00251837 0.00235233 0.00146595 0.00649266 0.00133577 0.00132622 0.00118636 0.0011757 0.00116597 0.00115833 0.000922806 0.000864884 0.000781516 0.000752441 0.000679297 0.00289346 0.000648199 0.000647191 0.000640105 0.000573806 0.00042703 0.000377974 0.000360364 0.000348046 0.000329308 0.000297571 0.000290781 0.000724823 0.000279821 0.000156445 0.000118258 0.000114386 0.000111391 9.77321e-05 9.46884e-05 9.0371e-05 8.68391e-05 5.8124e-05 5.79147e-05 2.46508e-05 2.33647e-05 1.6732e-05 1.3737e-05 1.1937e-05 9.59211e-06 5.3933e-06 3.41948e-06 3.30702e-06 3.00121e-06 2.87619e-06 1.88843e-06 1.86365e-06 1.50414e-06 1.42859e-06 1.14858e-06 8.36477e-07 7.8012e-07 6.2515e-07 5.64066e-07 5.28737e-07 4.41104e-07 7.47281e-08 2.84217e-14 2.84217e-14 2.84217e-14 2.84217e-14 2.84217e-14 2.84217e-14 2.84217e-14 2.84217e-14 1.42109e-14 1.42109e-14 1.42109e-14 1.42109e-14 1.42109e-14 1.42109e-14 1.42109e-14 1.42109e-14 1.42109e-14 1.42109e-14 7.10543e-15 7.10543e-15 3.55271e-15 3.55271e-15 1.77636e-15 1.77636e-15 4.44089e-16 2.22045e-16 5.55112e-17 3.46945e-18 2.1684e-19 2.1684e-19
threshold=4.8259936334171811e-05 -4.0531463151083351e-05 0.00017090917804085673 -0.00011385079891151893 1.2289919290475739e-05 -1.3183133187155692e-05 9.5340837995339114e-05 18.778000000000009 -0.00017323900425120217 -7.0354781596559932e-05 2.8004539483816874e-05 0.00021727949559180451 -5.2606475506866693e-06 -2.4727642848887396e-05 6.7142435622891141e-05 3.325000000002547 5.2559931638107579e-06 -0.38100326358161268 -9.1658080571044285e-05 -5.2917620830428273e-05 0.97650000000000003 -0.00014058879630646223 3.8497343692878168e-05 1.7688721463460236e-05 0.00014974388968691524 -1.9299103410086446e-05 -0.14449999999999996 8.4250445754108241e-05 -1.0000000180025095e-35 1.7576669615326781e-06 5.9509956820025252e-05 -3.1803524992324299e-05 2.8000000000010918 -8.0791493883680663e-05 -0.19999999999999996 -1.6174999999948338 -0.00012429185378048932 -4.7278048951326916e-05 -9.6515108484185302e-06 -0.00010523872990664261 8.7720934949242508e-06 5.0587500000001464 3.15229251868221e-05 0.00013415236969482883 1.8900000000048751 4.1256080781537647e-05 -1.5782665602093179e-05 2.1988500695124816e-05 1.7501793935226221e-05 5.1119763736395825e-05 -2.119530953759163e-05 -3.1489506125581539e-05 -3.7002112707185113e-05 2.6250000000000004 -8.6178544408677102e-05 1.6025000000008733 -9.8491515630905177e-05 2.3750000000018194 3.5023325792749034e-05 4.0375000000003647 -6.6507049969133356e-05 -7.3779104196591825e-05 3.8537500000002187 -5.9525999147380653e-05 1.2475000000000003 0.17750000000000002 0.0001149342058585079 1.1450000000004368 1.3800000000028378 -1.1200000000008001 -1.7675658477989129e-06 -1.2975000000005819 0.31050000000000005 1.9850000000024013 1.6799999999984723 -3.1487500000002906 7.0580222366500869e-05 1.767529330565232e-06 -7.7138040075419565e-05 0.40050000000000008 -1.7899999999990539 3.0625000000036384 28307.150000000005 2.7199999999975266 28553.450000000004 1.0000000180025095e-35 9.154785438614256e-05 -1.4074999999993449 0.36650000000000005 1.1965000000000001 2.2450000000008008 5.2909633116993157e-06 2.4750462738420968e-05 1.4126164306516033e-05 -7.0733863998251314e-06 28477.650000000005 28561.850000000002 -2.8029950160601832e-05 28324.050000000003 28316.950000000004 0.87845157529770457 -0.89750000000094576 28393.950000000004 -5.2891773597574235e-06 0.00010592453926450142 28467.250000000004 -2.0200000000004361 0.80050000000000021 -2.6100000000024006 1.0496245025026775e-05 28567.650000000005 0.10450000000000001 28535.350000000002 2.520000000002256 -6.332375859668947e-05 28424.250000000004 1.8000000000010916 28469.550000000003 2.0999837267776659e-05 1.3735000000000002 -4.5576934056046341e-05 0.87050000000000016 28523.050000000003 0.46240316951079841 -1.0602505018775242e-05 0.13550000000000004 28558.550000000003 28303.250000000004 28366.150000000005 0.92000000000371085 3.529036040406109e-05 5.6118494250356761e-05 28572.350000000002 1.4011489452681049e-05 28547.050000000003 28581.150000000005 28435.850000000002 0.666819152180543 -8.0669999999999984 -5.2666505175713578e-05 -1.6912499999998543 0.15250000000000002 28568.150000000005 1.0575000000000003 -1.7500078752952227e-05 28570.650000000005 28358.450000000004 -0.15549999999999994 -2.8255721963910126e-05 28310.850000000002 -2.1008660829657796e-05 28559.350000000002 -3.5356490720173102e-06 28513.250000000004 -0.68512402325189425 -2.4516714277500459e-05 28551.350000000002 2.8230843672316656e-05 28364.750000000004 4.5653521381194835e-05 28485.450000000004 1.2000000000025468 28454.850000000002 1.0200000000022558 -2.4489999999999998 -5.9917808028664414e-05 4.2415492772396319e-05 1.0649999999986905 7.0028992013027044e-06 28559.350000000002 2.4534415738686203e-05 28533.950000000004 -7.0010422891231264e-06 28566.150000000005 -4.9064705091528264e-05 28540.650000000005 -0.89383083631068372 3.1785497353831189e-05 28315.750000000004 28307.150000000005 7.025500000000001 28395.850000000002 5.9969646932889205e-05 -1.837500000001455 28554.950000000004 -1.0199999999986173 3.5353428222695275e-06 28283.950000000004 28289.750000000004 28328.150000000005 2.1105000000000005 -0.30049999999999993 28532.350000000002 1.0605541043373636e-05 28282.150000000005 14.124500000000003 -9.3704999999999981 -14.954499999999998 0.64750000000000008 0.94935645984923422 28289.750000000004 -3.5251485638321249e-05 28356.850000000002 -1.2599999999965801 0.39865414757656142 1.1575000000000002 0.59550000000000003 -1.0000000180025095e-35 0.10150000000000002 0.48250000000000004 5.6443163537811543e-05 0.040500000000000008 -5.8484999999999987 0.73960753937406232 28561.950000000004 -1.4121326931681997e-05 28324.000000000004 0.90650000000000019 28335.050000000003 -1.0000000180025095e-35 -0.98999999999978161 0.50450000000000006 -1.5212500000052385 0.6585000000000002 9.6290000000000031 0.33524555645037429 0.51250000000000007 7.0629200232819053e-06 28313.950000000004 0.31450000000000006 1.0565000000000002 0.20050000000000004 2.3110000000000004 0.60150000000000003 -0.022999999999999837 0.11050000000000001 0.088500000000000009 1.3465000000000003 0.027500000000000004 0.95950000000000013 0.10250000000000001 0.34050000000000008 0.71050000000000002 2.6355000000000004 1.1115000000000004 0.011500000000000002 0.0025000000000000005 0.54050000000000009 -0.89999999999963609 0.46650000000000008 28515.350000000002 -1.4737499999973804 1.1295000000000002 28551.350000000002 28408.250000000004 1.6715000000000002 0.7024624955084442 0.49015140121795425 28478.750000000004 6.0545000000000009 5.113500000000001 28484.650000000005 -1.4464999999999997 0.24050000000000002 2.3305000000000002 0.088500000000000009 0.74350000000000016 2.1015000000000001 1.909 -8.0669999999999984 28409.850000000002 5.932500000000001 0.18550000000000003 28414.950000000004 28551.950000000004 28519.950000000004 28537.850000000002 28525.150000000005 28458.250000000004 28485.850000000002 28444.950000000004 28473.450000000004 15.027500000000002 28550.050000000003 28543.750000000004 28556.050000000003 28417.750000000004 28531.050000000003 28505.650000000005 28474.650000000005 28450.250000000004 28568.150000000005 28409.950000000004 28561.250000000004 28518.050000000003 28543.750000000004 28579.150000000005 28586.100000000002 28330.950000000004 28586.100000000002 0.028500000000000004 12.605500000000001 3.9015000000000004 35.563000000000009 0.99611524724583755
decision_type=10 8 10 10 10 8 10 2 10 10 10 10 8 10 10 2 10 2 10 10 2 10 10 10 10 10 2 10 8 10 10 10 2 10 2 2 10 10 10 10 10 2 10 10 2 10 10 10 10 10 10 10 10 2 10 2 10 2 10 2 10 10 2 10 2 2 10 2 2 2 10 2 2 2 2 2 10 10 10 2 2 2 2 2 2 10 10 2 2 2 2 10 10 10 10 2 2 10 2 2 8 2 2 10 10 2 2 2 2 10 2 2 2 2 10 2 2 2 10 2 10 2 2 8 10 2 2 2 2 2 10 10 2 10 2 2 2 2 2 10 2 2 2 2 10 2 2 2 10 2 10 2 10 2 2 10 2 10 2 10 2 2 2 2 2 10 10 2 10 2 10 2 10 2 10 2 10 10 2 2 2 2 10 2 2 2 10 2 2 2 2 2 2 10 2 2 2 2 2 10 2 10 2 2 2 2 2 2 2 2 10 2 2 8 2 10 2 2 2 8 2 2 2 2 2 2 2 10 2 2 2 2 2 2 2 2 2 2 2 2 2 2 2 2 2 2 2 2 2 2 2 2 2 2 2 2 2 10 2 2 2 2 2 2 2 2 2 2 2 2 2 2 2 2 2 2 2 2 2 2 2 2 2 2 2 2 2 2 2 2 2 2 2 2 2 2 2 2 2 2 2 2 2 2 2
left_child=1 3 6 8 5 13 14 11 17 18 23 41 38 31 30 32 28 -1 39 35 -13 64 42 48 43 50 34 44 70 85 49 52 53 54 -19 60 88 71 124 123 91 -4 96 107 76 163 144 118 93 205 82 -33 185 83 128 182 108 90 84 -26 80 78 141 165 65 -10 -34 166 198 120 152 139 -43 176 209 121 146 -31 106 -67 237 -68 -15 190 177 302 -59 192 89 -23 232 -18 170 133 180 231 157 112 -99 226 -90 179 -58 172 -55 196 -35 -17 -41 135 131 -61 148 -88 115 213 -78 147 132 -104 233 -38 -122 -5 127 -125 181 241 -20 223 -131 -70 -25 134 -6 -42 -110 -75 -116 251 -141 -45 -101 -130 214 -146 -16 154 149 -53 284 -152 153 -14 -56 277 -157 275 217 160 -69 -161 -139 276 219 -37 -47 -165 169 -93 171 -49 293 -174 203 -176 -46 282 271 -54 254 -94 -32 -82 227 195 188 301 -79 -184 -8 -124 206 285 -195 -3 -63 -118 218 -77 -154 202 262 255 -76 224 -65 -87 -71 -57 278 -212 253 -62 239 216 -48 -159 -51 -100 280 -211 -210 250 -2 257 -95 295 -229 -178 234 -80 -29 261 -208 -173 -108 -11 -85 274 -241 -7 245 267 268 -224 -220 272 -221 -148 252 -21 266 -203 -40 -73 -206 -199 -247 -219 -237 -39 -181 -209 -226 -238 -60 -223 -72 -257 -248 -179 -185 -253 -27 -12 -24 -84 286 290 -187 -258 -44 -50 -52 -111 -133 294 289 -150 -167 -217 -126 -96 -135 -170 -190 298 -202 300 -175 -188 -30 304 -304
right_child=2 4 7 9 10 12 15 -9 21 19 22 20 16 25 27 24 40 26 33 37 -22 36 45 47 59 46 -28 57 29 77 55 51 66 61 -36 63 75 69 94 56 109 72 58 62 73 67 215 92 283 68 150 97 101 104 117 74 102 86 129 111 114 105 -64 87 -66 79 81 159 110 208 244 174 -74 137 204 199 116 186 95 -81 183 -83 155 238 -86 207 113 -89 100 -91 -92 168 126 99 103 -97 -98 98 164 142 -102 -103 119 -105 -106 -107 236 -109 136 193 -112 -113 -114 -115 138 -117 197 -119 -120 -121 122 -123 191 125 292 -127 -128 -129 143 130 -132 210 -134 287 -136 -137 -138 162 -140 140 -142 -143 -144 -145 145 -147 249 -149 288 -151 151 -153 200 -155 -156 156 -158 158 -160 161 -162 -163 -164 167 -166 279 -168 -169 184 -171 -172 235 173 299 175 -177 229 178 -180 201 -182 -183 189 247 -186 220 187 -189 296 -191 -192 -193 -194 194 -196 -197 -198 225 -200 -201 297 212 -204 -205 256 -207 230 263 222 221 211 -213 -214 -215 -216 291 -218 259 246 248 -222 243 242 -225 264 -227 -228 228 -230 -231 -232 -233 -234 -235 -236 260 265 -239 -240 240 -242 -243 -244 -245 -246 258 270 -249 -250 -251 -252 273 -254 -255 -256 269 281 -259 -260 -261 -262 -263 -264 -265 -266 -267 -268 -269 -270 -271 -272 -273 -274 -275 -276 -277 -278 -279 -280 -281 -282 -283 -284 -285 -286 -287 -288 -289 -290 -291 -292 -293 -294 -295 -296 -297 -298 -299 -300 -301 -302 -303 303 -305 -306
leaf_value=-0.76366694211959851 0.1266918134689331 -0.10147670791262674 0.45882236106055124 -0.28192015847852153 0.031483063101768495 -0.026985118064013398 0.25063010351998466 1.1720080554485321 -0.40676741981506348 -0.17952693402767184 0.071983063220977792 0.80098308495112835 -0.0090169355273246772 -0.054153299331665045 0.17615806043148041 0.32812779200704478 0.013483065366744996 -0.56975177889284889 -0.22498359680175783 -0.13521020030975342 0.64609598498190612 -0.33551519215106967 0.098983067274093631 0.049009381783635994 0.39200231295365556 -0.045016935467720037 -0.62551818052927655 0.21594182729721068 -1.6935690655373038e-05 0.0044830642640590673 0.15298306941986084 -0.081016933917999273 0.28840493559837344 -0.20524907069546836 -0.48847431486303156 -0.15553163815947141 -0.31258919835090637 -0.11701693534851075 -0.022629435956478122 -0.26443694496154785 0.022483064234256746 0.49884018898010257 0.080983060598373416 0.35614540576934817 0.19489858150482178 0.10798306465148927 -0.036016935110092164 0.058628599771431512 0.044983065128326422 0.1341648817062378 -0.054016935825347903 -0.072307259228921714 -0.08784895300865174 0.26869734270232065 -0.21443694305419922 0.16099246561527253 -0.23872608677033458 0.23127586214165941 0.089981043880636047 0.41213175654411316 -0.16330685944392764 -0.18014501251023393 0.37464435485101522 -0.14536693096160888 -0.41286325671456076 -0.37374490737915039 0.30171990645559216 0.11225807070732118 0.14090411757168017 -0.1091419404745102 -0.0045169357210397719 -0.12591970860958099 0.51973308563232423 0.20426838994026186 0.16954306483268738 -0.29594549792153496 0.18223306059837341 0.0069580644927918905 -0.18898121033396043 -0.38946990966796879 -0.17326694130897524 0.31385806202888489 -0.063016933202743527 0.26049556612968444 0.089587342197244818 0.003223324150101028 0.23609029551347099 -0.13703008670555919 -0.32857316732406616 -0.3489298486709595 0.22534792229935929 0.013483065366744996 0.064558061063289637 0.035956141505485928 -0.018016935884952547 -0.19773027141888938 0.079483061366611055 -0.063108005055359434 -0.071067040899525522 0.040483063459396368 -0.33761099974314374 -0.08309385547271142 -0.24926877551608617 -0.013516935706138612 0.2768580655256907 -0.1885742743810018 -0.19850444078445437 0.335983059141371 -0.25558590971190354 0.026983064413070679 0.1495058005506342 0.41985438134935171 -0.078316937983036045 0.24293155670166017 -0.16201692819595337 -0.16932943761348726 0.18734139341574452 -0.21615756675601006 0.053983068466186529 -0.24356894493103029 -0.11095924010643593 -0.30649982507412254 -0.11467169848355381 -0.27455260157585143 -0.027016937732696533 -0.27995064514023915 0.071308063566684718 -0.031516936421394352 -0.23097798385118185 0.089941684625766904 0.095002474854974192 0.14398306608200073 0.053500921066318242 0.035983064770698549 0.035983064770698549 0.026983064413070679 -0.26045445203781131 0.20680566642965592 -0.15729192852973939 -0.12919796764850619 -0.13379763960838317 0.35118972944176718 0.044517545556199967 -0.22697078227996825 -0.040516933798789984 -0.045016935467720037 0.17999425091241536 -0.20939837203306311 -0.072016936540603635 -0.076516938209533703 -0.049516937136650091 -0.054016935825347903 -0.0076669358089566236 -0.013516935706138612 -0.2106477251759282 -0.058516931533813481 -0.063016933202743527 0.072938064038753511 0.077983063459396373 0.11698305606842041 0.11698305606842041 0.12017056892315547 0.21021230662310564 0.10303306579589844 -0.068682775549266648 -0.15301693677902223 0.11048307021458943 0.099502298465141886 0.01798306405544281 0.01798306405544281 0.062983065843582153 0.062501814365386973 -0.013516935706138612 -0.018016935884952547 -0.12196693420410157 -0.12601693868637084 0.19809340715408327 0.080959310531616216 0.085484751760959626 -0.089970243722200402 -0.020154436081647874 0.067483061552047738 0.1534330725669861 -0.17101693153381348 0.020008063837885857 -0.099016934633255005 0.0089830644428730011 0.012583065330982208 0.0089830644428730011 0.15613306820392611 0.25283112525939944 -0.11711670784723192 -0.14606238820336082 0.026934677458578544 0.029625921164240156 -0.099314533886702167 -0.18200379729270935 0.18909055829048158 0.13633306205272674 -0.29773694133758544 -0.0090169355273246772 -0.090009172381581487 -0.09266079246997834 -0.12722989916801453 0.17107306480407716 0.12735263005546901 -0.14401779770851136 0.0044830642640590673 -0.10730490198841802 0.16291779620306834 0.14389735346748717 0.14609806656837462 -0.088972182627077456 -0.16196479620756929 -0.046148185878992082 -0.036016935110092164 -0.038041935712099073 0.071928063929080965 0.13522931277751923 -0.071791461110115057 -0.098374078103474205 0.16198068005698069 -0.10776569008827211 0.090656577944755568 0.12594931185245514 0.18828972518444062 0.036710564345121384 0.01798306405544281 0.019333064407110218 0.19732961475849153 -0.14350943624973297 -0.18972192704677582 0.21669932723045351 -0.11750943481922149 -0.14452193558216095 0.06303556203842163 -0.19797944426536562 -0.18004117553884336 0.26101307392120365 -0.044989851944976386 -0.045740685462951659 -0.027501936852931976 -0.10828319132328033 0.16225828349590302 -0.0042706857225857679 -0.10801391240322229 0.13496181428432466 -0.1712619322538376 -0.072076652050018314 0.17973681747913361 0.089776641726493842 -0.13501693010330201 0.089856103658676148 -0.090098017615240986 -0.022516936063766479 -0.12601693868637084 0.17098306417465212 0.18899844242976263 -0.10807318985462189 0.071983063220977792 0.062983065843582153 -0.11697442829608917 -0.090015740828080615 0.0045187786221504217 0.12598305940628052 -0.1980169415473938 0.089952328375407634 0.16194798404520208 -0.0045381857641041282 -0.12599619626998901 0.13498306274414062 0.080983060598373416 -0.17099693298339846 -0.13503597855567934 -0.045010685473680499 0.071983063220977792 0.098983067274093631 -0.063016933202743527 0.14398306608200073 -0.15301693677902223 -0.099016934633255005 0.17098306417465212 0.080983060598373416 0.044983065128326422 -0.054016935825347903 0.026983064413070679 0.14398306608200073 0.035983064770698549 -0.072016936540603635 -0.072016936540603635 -0.15301693677902223 -0.036016935110092164 -0.027016937732696533 -0.018016935884952547 0.035983064770698549 0.01798306405544281 0.0089830644428730011 -0.0090169355273246772 -0.0090169355273246772 -0.018016935884952547 -0.018016935884952547 0.0089830644428730011 -1.6935690655373038e-05 -1.6935690655373038e-05 -1.6935690655373038e-05
leaf_weight=20 20 21 28 31 42 22 35 20 25 20 203 28 45 33 20 38 80 23 26 25 31 24 173 38 26 440 30 20 756965 140 73 295 32 28 22 34 20 98 20 25 52 21 225 20 20 157 76 28 438 22 370 31 20 28 25 20 31 38 99 20 29 29 31 20 22 20 38 20 38 20 251 20 20 22 20 21 20 20 28 20 22 28 324 20 33 22 24 38 26 20 37 26 20 39 1022 30 27 28 23 32 30 26 27 60 36 27 20 27 29 712 22 27 20 33 33 24 26 32 469 33 26 26 22 24 350 28 20 39 38 27 34 32 28 456 52 22 24 28 20 20 38 23 29 25 29 39 38 34 184 23 32 57 20 26 27 28 44 20 21 112 47 24 27 20 23 27 27 26 885 77 339 20 27 24 20 31 25 20 20 24 20 20 20 39 20 74 27 20 1516 20 24 21 22 31 21 23 20 20 20 25 213 148 20 28 20 23 58 57 27 21 21 20 27 27 20 542 20 20 20 20 35 21 20 20 20 20 20 77 20 20 20 20 20 20 20 20 20 33 25 36 20 20 20 20 20 66 20 20 25 20 20 31 20 37 39 66 36 26 20 26 30 20 33 20 90 23 21 22 20 25 45 20 20 20 20 53 21 20 20 21 78 20 29 33 36 57 27 20 30 31 21 38 487 23 28 27 48 30 1584 24 27 24 35366 1627 4436
leaf_count=20 20 21 28 31 42 22 35 20 25 20 203 28 45 33 20 38 80 23 26 25 31 24 173 38 26 440 30 20 756965 140 73 295 32 28 22 34 20 98 20 25 52 21 225 20 20 157 76 28 438 22 370 31 20 28 25 20 31 38 99 20 29 29 31 20 22 20 38 20 38 20 251 20 20 22 20 21 20 20 28 20 22 28 324 20 33 22 24 38 26 20 37 26 20 39 1022 30 27 28 23 32 30 26 27 60 36 27 20 27 29 712 22 27 20 33 33 24 26 32 469 33 26 26 22 24 350 28 20 39 38 27 34 32 28 456 52 22 24 28 20 20 38 23 29 25 29 39 38 34 184 23 32 57 20 26 27 28 44 20 21 112 47 24 27 20 23 27 27 26 885 77 339 20 27 24 20 31 25 20 20 24 20 20 20 39 20 74 27 20 1516 20 24 21 22 31 21 23 20 20 20 25 213 148 20 28 20 23 58 57 27 21 21 20 27 27 20 542 20 20 20 20 35 21 20 20 20 20 20 77 20 20 20 20 20 20 20 20 20 33 25 36 20 20 20 20 20 66 20 20 25 20 20 31 20 37 39 66 36 26 20 26 30 20 33 20 90 23 21 22 20 25 45 20 20 20 20 53 21 20 20 21 78 20 29 33 36 57 27 20 30 31 21 38 487 23 28 27 48 30 1584 24 27 24 35366 1627 4436
internal_value=0 -0.000572547 0.245653 -0.20704 2.34193e-05 -0.000287714 0.209609 0.673068 -0.411731 -0.168298 0.0662664 0.595108 -2.35395e-05 -0.0607867 0.169295 0.317308 3.61457e-05 -0.609364 -0.224717 -0.137072 0.719602 -0.344436 0.0913771 0.0483464 0.368516 -0.0476413 -0.568217 0.204671 -2.02778e-05 3.02587e-06 0.14623 -0.0832929 0.276496 -0.204847 -0.530016 -0.158119 -0.320736 -0.120092 -0.0218125 -0.260356 0.0215263 0.488657 0.0807059 0.347875 0.191843 0.107682 -0.0402216 0.0582738 0.0397299 0.135736 -0.0577018 -0.0754856 -0.0934039 0.262296 -0.219256 0.161652 -0.251138 0.229431 0.0856055 0.407819 -0.169073 -0.192672 0.362355 -0.146932 -0.396741 -0.391284 0.30084 0.112832 0.14045 -0.11241 -0.00846284 -0.1291 0.509032 0.202515 0.166191 -0.303033 0.183867 0.00864964 -0.196739 -0.381607 -0.174407 0.306869 -0.0620849 0.255531 0.0820594 -1.64116e-05 0.236541 -0.14293 -0.337022 -0.341613 0.220658 0.0176452 0.0633 0.0362839 -0.0179539 -0.192536 0.0729195 -0.0717601 -0.0690674 0.0393581 -0.333415 -0.0894259 -0.24361 -0.0176926 0.273288 -0.183629 -0.200341 0.331391 -0.259921 0.0267819 0.144233 0.416568 -0.0727646 0.240051 -0.162897 -0.164661 0.187296 -0.212585 0.0536046 -0.246134 -0.11606 -0.309147 -0.114017 -0.279125 -0.0272179 -0.277459 0.0677831 -0.0292947 -0.228101 0.0907113 0.0927625 0.143499 0.0509149 0.035667 0.0339724 0.0238209 -0.257791 0.207275 -0.160234 -0.133842 -0.132212 0.353495 0.0424011 -0.229388 -0.0448605 -0.0430978 0.178945 -0.211255 -0.0723932 -0.0741003 -0.053726 -0.052399 -0.00906386 -0.0106648 -0.212469 -0.062714 -0.0612669 0.0724029 0.0736382 0.116894 0.115573 0.117546 0.208478 0.0993768 -0.070901 -0.153847 0.10835 0.101037 0.0179393 0.0168471 0.0626844 0.0616514 -0.017911 -0.0168258 -0.125756 -0.124429 0.196875 0.0812683 0.0824757 -0.0899587 -0.0219473 0.0660206 0.15362 -0.171552 0.0180487 -0.0991728 0.0090021 0.00999715 0.0089575 0.154783 0.251525 -0.115866 -0.144531 0.0270488 0.0280215 -0.100346 -0.180904 0.188396 0.135089 -0.296919 -0.00900232 -0.0901047 -0.0906886 -0.126244 0.170702 0.126277 -0.144246 0.00421034 -0.108043 0.162026 0.144321 0.144971 -0.0898926 -0.16266 -0.0450841 -0.0360768 -0.0364388 0.0722558 0.134857 -0.0716513 -0.0988966 0.162272 -0.107899 0.0900162 0.126087 0.188812 0.0362119 0.0180098 0.0182614 0.197754 -0.144017 -0.18929 0.216321 -0.117082 -0.144147 0.0628606 -0.19816 -0.179847 0.260783 -0.0450429 -0.045258 -0.0272312 -0.108027 0.162057 -0.00450147 -0.107978 0.135036 -0.171074 -0.0719499 0.179905 0.0899361 -0.135086 0.0899589 -0.0900269 -0.0225551 -0.125995 0.171007 0.189038 -0.108028 0.0719592 0.0630041 -0.11701 -0.0899966 0.00449234 0.125977 -0.198 0.089976 0.161964 -0.0045185 -0.126011 0.134977 0.0809712 -0.17101 -0.135024 -0.0450167 0.0719831 0.0989831 -0.0630169 0.143983 -0.153017 -0.0990169 0.170983 0.0809831 0.0449831 -0.0540169 0.0269831 0.143983 0.0359831 -0.0720169 -0.0720169 -0.153017 -0.0360169 -0.0270169 -0.0180169 0.0359831 0.0179831 0.00898306 -0.00901694 -0.00901694 -0.0180169 -0.0180169 0.00898306 -1.69357e-05 -1.69357e-05 -1.69357e-05
internal_weight=0 816487 1903 2350 814137 810331 1755 148 374 1976 3806 128 806808 3523 1277 478 804604 95 704 1272 59 279 1585 2221 212 2224 75 504 802497 800288 773 1299 266 452 45 568 192 704 2204 252 2107 69 958 139 332 627 1280 1032 1189 460 944 733 566 168 207 313 169 172 588 73 287 245 74 281 87 65 98 387 307 380 2209 324 41 142 200 92 190 1795 169 40 154 66 449 104 347 798493 95 178 100 44 77 1212 497 718 1286 78 370 438 119 120 56 335 91 1207 64 76 91 65 78 895 180 47 319 57 133 80 112 118 535 60 207 46 69 83 918 52 60 81 89 241 61 158 66 598 94 74 53 77 53 134 58 43 61 63 604 68 78 86 299 54 495 89 1918 71 52 416 72 343 87 203 67 136 55 240 91 103 184 46 1132 103 437 98 1147 102 190 51 65 314 60 309 79 40 113 101 1029 231 1655 71 1584 40 59 43 140 821 52 44 49 92 127 46 1847 289 77 139 96 153 118 99 173 104 120 41 212 56 536 676 96 66 107 68 187 84 153 180 130 66 59 1009 97 45 98 48 40 138 78 70 63 53 45 516 56 42 126 63 291 106 85 79 45 58 160 76 140 185 59 111 76 46 86 46 50 118 57 77 110 43 120 43 271 91 65 40 59 51 460 256 194 344 79 69 152 56 254 471 406 769 59 504 245 215 48 580 837 1045 484 912 1564 1827 1797 75 51 51 798394 41429 39802
internal_count=818390 816487 1903 2350 814137 810331 1755 148 374 1976 3806 128 806808 3523 1277 478 804604 95 704 1272 59 279 1585 2221 212 2224 75 504 802497 800288 773 1299 266 452 45 568 192 704 2204 252 2107 69 958 139 332 627 1280 1032 1189 460 944 733 566 168 207 313 169 172 588 73 287 245 74 281 87 65 98 387 307 380 2209 324 41 142 200 92 190 1795 169 40 154 66 449 104 347 798493 95 178 100 44 77 1212 497 718 1286 78 370 438 119 120 56 335 91 1207 64 76 91 65 78 895 180 47 319 57 133 80 112 118 535 60 207 46 69 83 918 52 60 81 89 241 61 158 66 598 94 74 53 77 53 134 58 43 61 63 604 68 78 86 299 54 495 89 1918 71 52 416 72 343 87 203 67 136 55 240 91 103 184 46 1132 103 437 98 1147 102 190 51 65 314 60 309 79 40 113 101 1029 231 1655 71 1584 40 59 43 140 821 52 44 49 92 127 46 1847 289 77 139 96 153 118 99 173 104 120 41 212 56 536 676 96 66 107 68 187 84 153 180 130 66 59 1009 97 45 98 48 40 138 78 70 63 53 45 516 56 42 126 63 291 106 85 79 45 58 160 76 140 185 59 111 76 46 86 46 50 118 57 77 110 43 120 43 271 91 65 40 59 51 460 256 194 344 79 69 152 56 254 471 406 769 59 504 245 215 48 580 837 1045 484 912 1564 1827 1797 75 51 51 798394 41429 39802
is_linear=0
shrinkage=0.1


Tree=2
num_leaves=314
num_cat=0
split_feature=134 134 134 134 134 134 134 140 134 134 134 134 134 134 134 134 99 134 134 132 83 134 134 0 131 134 134 134 134 134 134 134 134 134 134 134 134 134 134 15 132 132 134 134 134 134 134 134 134 134 134 132 134 134 134 132 134 134 134 132 134 134 132 132 131 29 132 49 132 134 132 19 134 134 132 134 131 53 134 134 134 81 134 132 0 14 53 134 132 134 132 132 134 134 134 0 77 58 0 132 132 132 132 0 52 132 132 134 0 132 134 132 134 123 131 47 131 0 134 0 0 17 85 134 1 73 0 0 134 134 0 0 0 26 0 134 0 0 0 124 91 0 134 0 106 33 0 16 16 134 0 134 0 134 0 19 134 0 134 2 132 113 132 101 134 134 0 134 0 134 0 134 0 134 132 134 58 134 139 118 83 0 117 0 121 132 134 103 14 77 123 128 132 134 108 134 129 79 124 83 118 14 118 131 5 35 118 111 95 56 13 57 139 57 132 0 0 0 75 104 132 37 11 109 101 111 115 134 61 104 113 2 73 101 75 61 5 112 35 93 111 0 25 0 65 45 0 0 71 43 73 2 109 16 21 132 2 0 117 0 110 0 9 139 3 71 0 139 21 139 123 0 121 97 27 115 0 49 15 0 110 55 35 118 72 13 0 0 0 0 0 0 0 0 0 0 0 0 0 0 0 0 0 0 3 0 0 3 0 0 0 1 1
split_gain=9323.49 8137.81 2387.38 1509.51 1359.16 1049.03 906.736 412.289 402.9 281.971 141.916 138.723 114.37 84.9883 84.4259 79.0252 58.4564 40.382 36.8227 28.3039 22.7627 22.3375 20.757 18.841 18.7189 17.1383 15.9346 15.3886 13.4469 12.7887 10.8947 8.30597 6.4228 5.66024 5.56879 3.94593 3.7235 3.53155 3.48121 3.4005 3.1356 2.97071 2.96036 2.76271 2.55622 2.17226 2.01711 1.99346 1.96177 1.74343 1.36119 1.33611 1.33247 1.2235 1.0521 1.01754 0.989401 0.905036 0.862327 0.847399 0.729841 0.683108 0.570766 0.525245 0.517047 0.503127 0.490672 0.463131 0.43447 0.426006 0.416078 0.385932 0.367502 0.297093 0.291923 0.282221 0.278575 0.230278 0.225133 0.21352 0.207241 0.199028 0.184714 0.18296 0.181497 0.167397 0.158375 0.14328 0.126052 0.120188 0.114192 0.111835 0.111088 0.110292 0.108724 0.106635 0.102124 0.101632 0.0979907 0.0979342 0.0970098 0.0964192 0.0949396 0.0934749 0.0930588 0.0928738 0.0915442 0.0891716 0.0829633 0.0789128 0.0679795 0.060783 0.0572911 0.0527786 0.0523521 0.0482408 0.0471071 0.0453987 0.0441174 0.0438167 0.0391509 0.0361793 0.0363881 0.0350077 0.0343675 0.0320243 0.0315955 0.0314058 0.0310367 0.0310028 0.0301942 0.0300857 0.0289165 0.0282842 0.0263435 0.0259424 0.0381097 0.0253574 0.0252123 0.0229681 0.0220168 0.0200576 0.0192843 0.0272812 0.0172569 0.0191509 0.0169938 0.0157333 0.015482 0.0154789 0.0336159 0.0153069 0.0270295 0.0147693 0.0280666 0.0144284 0.0144091 0.0423277 0.0141525 0.0253711 0.0162659 0.0137077 0.012711 0.0124467 0.011663 0.0109485 0.0318814 0.0109194 0.02907 0.0106805 0.0325638 0.00995406 0.0161517 0.00880249 0.0154646 0.00875899 0.0220021 0.00855122 0.00828617 0.00728715 0.00727933 0.00693007 0.00661147 0.00634288 0.00624999 0.00606486 0.00594946 0.0150811 0.00655913 0.00571238 0.00569491 0.00554951 0.00490293 0.00425453 0.00799439 0.00424849 0.00380044 0.00360133 0.00331266 0.00319871 0.00296487 0.00292048 0.00291365 0.00280602 0.00279409 0.00278198 0.0025262 0.00250315 0.00192074 0.00190539 0.0018536 0.00177432 0.00149712 0.00145693 0.00128256 0.00124789 0.0011276 0.00112025 0.00155894 0.00104982 0.000952327 0.000862622 0.000807439 0.000778378 0.000758274 0.000716425 0.000580402 0.000550231 0.00241561 0.000474808 0.000421172 0.000420205 0.00111723 0.00040926 0.00036844 0.000349763 0.000334356 0.000267088 0.000259353 0.000235534 0.000726435 0.000147778 0.000144501 0.000112706 0.000110186 9.41638e-05 7.28466e-05 7.06618e-05 4.17363e-05 3.8581e-05 3.51178e-05 3.03806e-05 2.97008e-05 2.7862e-05 2.63279e-05 2.45715e-05 2.1323e-05 8.51507e-05 2.01252e-05 1.91104e-05 1.64954e-05 1.05027e-05 6.70902e-06 6.40255e-06 5.94311e-06 5.17985e-06 3.74302e-06 3.21052e-06 2.84604e-06 2.44628e-06 2.21255e-06 1.34378e-06 1.09963e-06 1.04627e-06 1.03366e-06 9.19802e-07 8.63203e-07 6.10025e-07 5.94927e-07 2.60207e-07 1.95932e-07 1.72981e-07 7.46261e-08 8.61451e-09 6.74859e-10 5.78069e-10 2.84217e-14 2.84217e-14 2.84217e-14 2.84217e-14 1.42109e-14 1.42109e-14 1.42109e-14 1.42109e-14 1.42109e-14 1.42109e-14 1.42109e-14 1.42109e-14 1.42109e-14 7.10543e-15 7.10543e-15 3.55271e-15 3.55271e-15 3.55271e-15 3.55271e-15 1.77636e-15 8.88178e-16 4.44089e-16 5.55112e-17 2.77556e-17 3.46945e-18 1.35525e-20 4.23516e-22
threshold=4.8259936334171811e-05 -4.0531463151083351e-05 0.00021727949559180451 -0.00011385079891151893 1.2289919290475739e-05 -1.3183133187155692e-05 0.00010592453926450142 2.6765000000000012 -0.00017323900425120217 -7.0354781596559932e-05 7.4053183201305841e-05 2.8004539483816874e-05 0.00014974388968691524 -5.2606475506866693e-06 -2.4727642848887396e-05 5.2559931638107579e-06 0.33050000000000007 -9.1658080571044285e-05 -5.2917620830428273e-05 -3.6899999999986899 0.17350000000000002 3.8497343692878168e-05 5.9969646932889205e-05 28398.150000000005 5.0587500000001464 8.7752711152466758e-05 0.00012289595683911972 1.7688721463460236e-05 -1.9299103410086446e-05 -1.0000000180025095e-35 1.7576669615326781e-06 -3.1803524992324299e-05 -8.0791493883680663e-05 -5.9917808028664414e-05 -0.00012429185378048932 -4.7278048951326916e-05 -9.6515108484185302e-06 -0.00010523872990664261 8.7720934949242508e-06 0.19050000000000003 3.4300000000021105 2.4724999999998549 3.15229251868221e-05 5.6118494250356761e-05 6.7142435622891141e-05 4.1256080781537647e-05 0.00017090917804085673 -1.5782665602093179e-05 2.1988500695124816e-05 1.7501793935226221e-05 0.0001149342058585079 1.9850000000024013 -2.119530953759163e-05 -3.1489506125581539e-05 -3.7002112707185113e-05 -1.6925000000010184 -8.6178544408677102e-05 -9.8491515630905177e-05 3.5023325792749034e-05 4.0375000000003647 -7.3779104196591825e-05 5.1119763736395825e-05 1.1450000000004368 1.6799999999984723 3.8537500000002187 0.10150000000000002 -1.1200000000008001 0.31650000000000006 -1.4699999999993449 -1.7675658477989129e-06 -1.2975000000005819 0.28850000000000003 0.00010153300469428751 9.154785438614256e-05 1.474999999998545 8.4250445754108241e-05 -3.1487500000002906 1.2035000000000002 -6.7168546079188194e-05 1.767529330565232e-06 -7.7138040075419565e-05 1.7335000000000003 7.0580222366500869e-05 2.8000000000010918 28307.150000000005 28553.450000000004 0.097500000000000017 1.0000000180025095e-35 1.6025000000008733 5.2909633116993157e-06 3.0625000000036384 -1.6174999999948338 2.4750462738420968e-05 1.4126164306516033e-05 -7.0733863998251314e-06 28519.250000000004 0.20650000000000002 28561.850000000002 28361.550000000003 -1.4074999999993449 1.3800000000028378 -0.6775000000016006 1.8900000000048751 28366.150000000005 28316.950000000004 2.6250000000000004 -0.89750000000094576 -5.2891773597574235e-06 28467.250000000004 -2.0200000000004361 -2.8255721963910126e-05 -2.6100000000024006 1.0496245025026775e-05 0.97849999999999981 2.520000000002256 1.4585000000000001 2.3750000000018194 28469.550000000003 2.0999837267776659e-05 28310.850000000002 28323.050000000003 0.25050000000000006 1.3245000000000002 -4.5576934056046341e-05 1.0795000000000001 1.3735000000000002 28523.050000000003 28464.150000000005 -1.0602505018775242e-05 -5.9525999147380653e-05 28558.550000000003 28303.250000000004 28366.150000000005 28535.350000000002 28572.350000000002 1.4011489452681049e-05 28547.050000000003 28581.150000000005 28435.850000000002 -4.7179999999999991 6.0070000000000006 28568.150000000005 -1.7500078752952227e-05 28570.650000000005 -0.73983080915263966 0.57850000000000013 28498.250000000004 28360.450000000004 28443.950000000004 -2.1008660829657796e-05 28559.350000000002 -3.5356490720173102e-06 28513.250000000004 -2.4516714277500459e-05 28551.350000000002 0.055500000000000008 2.8230843672316656e-05 28364.750000000004 4.5653521381194835e-05 28485.450000000004 1.2000000000025468 -0.00060190220871159095 1.0200000000022558 0.012500000000000002 4.2415492772396319e-05 7.0028992013027044e-06 28559.350000000002 2.4534415738686203e-05 28532.350000000002 -7.0010422891231264e-06 28566.150000000005 -4.9064705091528264e-05 28540.650000000005 -3.5027006303756096e-05 -0.90749999999752606 3.1785497353831189e-05 28315.750000000004 5.9509956820025252e-05 8.8075000000000028 -16.449999999999996 0.20450000000000002 28395.850000000002 -1.2974999999999997 28554.950000000004 1.3675000000000004 -1.0199999999986173 3.5353428222695275e-06 28283.950000000004 28289.750000000004 2.7575000000000003 1.4640000000000002 0.73960753937406232 -1.079999999999927 1.0605541043373636e-05 0.97819033026980717 7.7403108196261186e-05 -0.79889202671245474 0.38350000000000006 -9.3704999999999981 1.6595000000000002 -7.152499999999999 28289.750000000004 -9.347999999999999 1.8362500000002913 0.10350000000000001 2.4320000000000004 -0.18400000000000005 -0.15036170117166334 1.1675000000000002 28561.950000000004 1.5665000000000002 0.5445000000000001 13.711500000000003 0.28150000000000003 0.8000000000010915 28573.750000000004 28340.950000000004 28369.850000000002 5.0345000000000004 0.012500000000000002 -0.98999999999978161 1.0685000000000002 0.75150000000000017 0.71440708823886412 0.090500000000000011 0.93148566573692437 -3.8149999999999995 7.0629200232819053e-06 0.046500000000000007 0.0015000000000000002 0.3447071980771958 28524.550000000003 0.48950000000000005 0.17650000000000002 1.6505000000000003 0.50150000000000017 8.2405000000000026 -0.0012687523695851797 0.86150000000000004 0.95950000000000013 -0.33396345305608061 28516.850000000002 0.35050000000000003 28540.050000000003 0.0015000000000000002 0.080500000000000016 28476.550000000003 28476.550000000003 0.39250000000000007 0.72350000000000014 0.69750000000000012 28347.850000000002 0.88290485607558777 28321.550000000003 0.023500000000000004 -1.2599999999965801 28325.150000000005 28320.850000000002 0.025000000000000008 28399.050000000003 0.63650979245834571 28485.850000000002 1.7995000000000003 11.229500000000003 2.4265000000000003 1.8045000000000002 28491.650000000005 25.661500000000007 0.53050000000000008 13.568500000000002 -0.35649999999999993 28475.750000000004 0.97700000000000031 0.48050000000000004 0.088500000000000009 1.0180000000000011 28424.450000000004 0.079500000000000015 1.8275000000000003 28411.950000000004 -0.87498786643370197 0.044500000000000005 1.6745000000000003 -16.449999999999996 28552.250000000004 0.081500000000000017 28537.850000000002 28550.050000000003 28523.050000000003 28499.850000000002 28536.750000000004 28476.550000000003 28551.350000000002 28484.650000000005 28559.350000000002 28553.650000000005 28438.550000000003 28433.350000000002 28516.150000000005 28573.750000000004 28523.050000000003 28560.250000000004 28533.950000000004 28535.350000000002 0.024500000000000004 28572.350000000002 28310.850000000002 0.071500000000000008 28566.150000000005 28333.250000000004 28596.150000000005 14.144000000000002 16.276500000000002
decision_type=10 8 10 10 10 8 10 2 10 10 10 10 10 8 10 10 2 10 10 2 2 10 10 2 2 10 10 10 10 8 10 10 10 10 10 10 10 10 10 2 2 2 10 10 10 10 10 10 10 10 10 2 10 10 10 2 10 10 10 2 10 10 2 2 2 2 2 2 2 10 2 2 10 10 2 10 2 2 10 10 10 2 10 2 2 2 2 10 2 10 2 2 10 10 10 2 2 2 2 2 2 2 2 2 2 2 2 10 2 2 10 2 10 2 2 2 2 2 10 2 2 2 2 10 2 2 2 2 10 10 2 2 2 2 2 10 2 2 2 2 2 2 10 2 2 2 2 2 2 10 2 10 2 10 2 2 10 2 10 2 2 2 2 2 10 10 2 10 2 10 2 10 2 10 2 10 2 10 2 2 2 2 2 2 2 2 10 2 2 2 2 8 2 10 2 10 10 2 2 2 2 2 2 2 2 2 2 2 2 2 2 2 2 2 2 2 2 2 2 2 2 2 2 2 2 2 2 10 2 2 2 2 2 2 2 2 2 2 2 2 2 2 2 2 2 2 2 2 2 2 2 2 2 2 2 2 2 2 2 2 2 2 2 2 2 2 2 2 2 2 2 2 2 2 2 2 2 2 2 2 2 2 2 2 2 2 2 2 2 2 2 2 2 2 2 2 2 2 2 2 2 2 2 2 2 2 2 2 2 2 2 2 2
left_child=1 3 6 8 5 14 10 20 16 17 22 27 26 36 31 29 -1 37 33 65 -4 42 43 -18 46 51 50 49 52 69 87 54 56 55 77 70 128 121 89 -25 96 73 97 61 63 162 59 142 118 93 83 102 84 287 185 78 132 111 85 -14 80 205 164 88 -42 -10 123 -67 129 151 139 -26 180 116 229 146 124 81 148 309 109 86 147 -8 -16 175 -21 310 184 -17 -52 191 167 135 179 219 115 156 -84 226 213 110 -12 -59 225 276 173 169 198 -34 119 -39 137 -61 -75 -28 -27 144 134 -55 -112 122 -5 230 -36 -105 -125 -77 131 254 181 237 -19 178 -29 136 -6 -40 -113 197 155 -106 209 -144 -58 -146 190 -46 -11 292 -151 152 -15 293 -155 -134 290 214 159 -64 296 -102 286 -164 289 166 -91 168 -50 301 -171 202 -173 200 -175 288 277 -76 -60 -38 -43 -94 -80 227 -24 192 188 -188 -81 -128 -53 196 -3 299 -195 -104 -57 -20 -62 -78 238 -153 255 252 -202 221 -89 217 222 239 -100 236 -90 216 264 231 -63 218 -68 -82 -187 249 -122 -170 -149 -95 241 303 -229 -45 268 256 -233 262 -150 -111 260 -7 253 282 -241 263 250 245 -71 -184 265 -193 279 269 -219 -231 -65 -56 -35 283 257 306 -208 -181 -180 297 -214 -70 -158 -199 -252 -225 271 -2 -265 -37 278 -254 -237 -260 -74 -177 308 -218 -247 -271 284 285 -30 -72 -23 -33 291 -47 -13 -44 -54 -86 -120 -130 -160 -179 -258 -114 -137 302 304 -167 -96 -156 -49 -304 -246 -32 -31 -312 -313
right_child=2 4 7 9 11 13 12 -9 19 18 25 21 24 15 28 38 23 32 35 34 -22 45 44 39 71 41 40 48 47 30 79 53 60 68 76 66 94 57 112 -41 64 72 58 74 82 62 -48 215 92 -51 90 75 149 101 106 91 117 103 133 113 108 100 158 203 -66 67 207 -69 99 244 171 -73 105 114 177 127 199 -79 182 186 95 -83 98 -85 153 -87 -88 206 212 165 -92 -93 130 104 107 -97 -98 -99 210 -101 161 -103 195 125 141 -107 -108 -109 -110 235 120 138 193 -115 -116 -117 -118 -119 294 -121 208 -123 -124 126 -126 -127 189 -129 295 -131 -132 -133 140 -135 -136 300 -138 -139 -140 -141 -142 -143 143 -145 145 -147 -148 224 234 150 -152 201 -154 154 305 -157 157 -159 160 -161 -162 -163 163 -165 -166 183 -168 -169 223 170 -172 172 -174 174 -176 176 -178 261 211 259 -182 -183 243 -185 -186 220 187 -189 -190 -191 -192 247 -194 194 -196 -197 -198 246 -200 -201 204 -203 -204 -205 -206 -207 258 -209 -210 -211 -212 -213 233 -215 -216 -217 248 242 -220 -221 -222 -223 -224 267 -226 -227 -228 228 -230 251 -232 232 -234 -235 -236 274 -238 -239 -240 240 -242 -243 -244 -245 272 280 -248 -249 -250 -251 266 -253 273 -255 -256 -257 298 -259 275 -261 -262 -263 -264 270 -266 -267 -268 -269 -270 281 -272 -273 -274 -275 -276 -277 -278 -279 -280 -281 -282 -283 -284 -285 -286 -287 -288 -289 -290 -291 -292 -293 -294 -295 -296 -297 -298 -299 -300 -301 -302 -303 307 -305 -306 -307 -308 -309 -310 -311 311 312 -314
leaf_value=-0.69567963736397886 0.1133419507741928 -0.089207102571214947 0.71659901857376107 -0.24630803380693711 0.028334757685661318 -0.024267660487781874 0.2491722563902537 1.1599925947189331 -0.35043374810900008 -0.15856696026665826 0.17088270895183089 0.064784759283065804 0.3528020785405086 -0.0081152424216270457 -0.048737970084855059 0.012134758383035661 -0.5694957453629067 -0.20248525005120499 -0.1202252277961144 -0.30250860242282646 0.58354142242007789 0.089084762334823611 0.14055476248264315 -0.49072059726715089 0.46476463187824602 0.20298466407335722 0.30483796596527102 0.044108443511159799 -0.040515241026878361 -1.524212129879743e-05 0.0040347579866647724 -0.072915238142013547 -0.18472417507852829 -0.13757986962795257 -0.27537774606184529 -0.10531523227691651 -0.018102992400527002 -0.23799324893951415 0.020234757661819459 -0.43539922356605532 0.3197771969594454 0.22822166946199207 0.072884756326675418 0.13008639931678773 0.1586361491161844 0.097184765338897708 0.39774178997162851 -0.032415243983268741 0.052620202302932739 0.040484759211540225 0.27152642531272692 0.18476280087516422 -0.048615244030952458 -0.065076536324716383 -0.081122826635837558 -0.14812130265765719 -0.18819440126419068 -0.21389431754748026 0.083155856891111893 0.37849283695220948 -0.16213051368450296 0.12060193836688995 0.1010322603583336 0.15403547173454649 0.33717990306115925 -0.37858088874816898 -0.096003663539886486 -0.35969220002492275 -0.12955376307169597 -0.0038306825306443945 -0.11341524124145508 0.44557115674018866 0.23493960738182068 0.21248126427332559 0.13560588189533779 0.19461655544512202 -0.26649582294317392 -0.31499332406304104 -0.15192510214718907 0.0062622579187154781 -0.1709954369068146 -0.29723575264215468 0.16177302428654261 0.25956444144248964 -0.056715244054794313 0.080628609115427186 -0.31287653629596418 0.0028963245102204384 0.14641785402047008 0.012134758383035661 0.28067285560426258 -0.13997848559828366 0.058102258145809174 0.032341149143683606 -0.016215242445468903 -0.17808873530091912 0.29407650793299961 0.07153475814395481 0.16911711736961649 -0.12369601329167684 0.12497534638359434 -0.05938632993987112 0.17662991583347321 -0.2235954761505127 0.036434757709503177 0.24251544740464956 -0.074784473272470328 -0.012165242433547975 -0.16971684296925862 -0.17868930757045748 -0.06012977749109269 -0.23002731882292649 0.024284759163856508 0.37169253485543385 0.21851082642873132 0.29805979388100762 0.20857066777017386 -0.19454181119799616 0.04858475923538208 -0.070142611076957309 -0.06482406604381008 -0.25365782124655589 -0.25185823793764467 -0.099863322881551891 -0.28084961573282879 -0.21919888934573614 -0.1030994801294236 0.19963848769664766 -0.024315242469310761 -0.13321975588798524 0.064177255928516391 -0.028365242481231692 -0.20593431104313242 0.085241329967975621 0.048150831673826493 0.032384759187698363 0.032384759187698363 0.024284759163856508 -0.23440898656845094 -0.11825552429471697 -0.20370793581008911 0.040065793847215592 -0.036465242505073547 -0.040515241026878361 -0.18978822198179035 -0.19364764571189882 0.1893473354252902 0.16200282219293957 -0.16205654016562873 -0.044565242528915409 -0.048615244030952458 -0.0069002421200275417 -0.012165242433547975 -0.05266523957252503 -0.056715244054794313 -0.20959886936914351 0.064698559045791623 0.070184761285781869 0.10528475046157837 0.10528475046157837 0.10815350959698361 0.12847377806901933 0.089426066875457774 0.092728439399174287 0.099434762310098734 0.016184757649898528 0.016184757649898528 0.056684756278991701 0.055991090834140778 -0.012165242433547975 -0.016215242445468903 -0.10977023839950562 -0.11341524124145508 -0.077596513628959654 -0.081100896351477686 0.07286171823740005 0.076936277449131008 0.13768476247787476 0.080873831199563082 -0.020391241908073426 0.22602581519346973 0.06073476076126099 -0.15364464467222042 0.018007258102297783 0.13805476427078248 -0.089115244150161754 0.0080847576260566715 0.011324758529663087 0.0080847576260566715 -0.10540528134866195 0.18686935937765875 -0.14578030672338274 -0.091320496797561657 0.026787753328680993 0.024239136837422848 0.17827230923705631 -0.14641023635864259 -0.12157458901405334 -0.16380342364311218 -0.26817797183990483 -0.081198636510155422 -0.0081152424216270457 -0.11455167531967164 0.15266845226287842 -0.082831758558750163 0.11459188828101526 0.0041609592549502845 -0.098143123434140139 -0.063970073425408572 -0.041533367782831197 0.1702421806752682 0.081936662611754044 0.14583448821848088 0.12220876514911652 0.065698758363723755 -0.033177326619625094 0.12146618933904739 -0.097083009779453278 -0.097210839520330022 -0.1700536740237269 -0.088536671229771213 0.11405934453010561 -0.064179618018014098 0.056753074345381363 0.16123857378959658 0.033077295273542411 -0.1289540022611618 0.016141216042968962 0.017282157719135285 0.12945657876821667 -0.1057982724905014 -0.032415243983268741 -0.033108046379956332 0.14525133848190308 -0.16149457395076752 -0.1781679760326039 0.081377175024577558 -0.024772584140300754 -0.081324380251669118 -0.040463753127389486 -0.04121542125940323 -0.1292986762523651 -0.097497761249542236 -0.15408382356166839 -0.0040652420371770862 -0.1539092141389847 -0.1217584139108658 -0.14601474046707152 0.12131015360355378 0.11321861267089844 -0.097216086536645888 0.12958476543426514 0.15388335026800634 -0.080997723120230222 -0.13771524429321289 -0.11329394578933716 -0.032415243983268741 -0.032180117666721346 0.0040609268099069595 -0.020271011652090613 0.080965600230477081 0.13759971559047698 0.14575724498085355 -0.12964404537564231 0.064771066720669096 -0.12151009422360044 -0.097266039997339251 0.056703044833808114 -0.10526862995965142 0.11338511832216953 -0.12960412996571238 -0.10528613924980164 -0.0040910485200583938 0.15391250669956208 -0.17819899320602417 0.0040340436995029453 0.23491022706031803 0.072886416912078852 -0.0040832234174013144 0.12147971879352222 -0.15389521658420563 0.11337401449680329 -0.040509022325277332 -0.11341747760772705 -0.040515835583209994 -0.11341590143385388 0.089084762334823611 -0.072915238142013547 0.072884756326675418 0.097184765338897708 0.064784759283065804 0.072884756326675418 -0.048615244030952458 -0.056715244054794313 0.04858475923538208 -0.024315242469310761 0.10528475046157837 0.13768476247787476 -0.032415243983268741 0.024284759163856508 0.032384759187698363 -0.016215242445468903 -0.016215242445468903 0.016184757649898528 -0.016215242445468903 -0.056715244054794313 -0.032415243983268741 -0.016215242445468903 -0.0040652420371770862 0.0040347579866647724 -1.524212129879743e-05 -1.524212129879743e-05 -1.524212129879743e-05
leaf_weight=21 20 21 20 21 42 22 36 20 21 21 32 217 26 45 33 80 29 26 26 34 36 173 20 25 22 26 21 38 420 794766 32 274 28 20 22 77 20 25 52 20 38 36 196 20 23 114 31 40 26 471 39 21 385 31 20 27 30 24 22 25 29 20 20 21 31 25 20 27 21 21 36 20 20 24 28 33 26 22 22 20 20 32 21 32 289 33 26 24 38 26 21 34 20 39 610 29 34 27 27 39 21 33 28 30 32 27 26 60 27 20 20 29 748 21 36 21 36 32 443 38 262 35 27 26 24 37 21 20 750 20 20 39 22 20 28 468 52 22 24 35 20 29 29 39 36 20 22 37 28 32 57 20 26 28 24 21 20 21 86 47 24 24 25 21 27 864 77 339 20 27 75 20 31 20 34 20 20 28 23 20 26 20 22 20 20 152 51 20 1564 22 33 36 23 20 32 36 25 20 20 20 22 1827 27 23 20 26 20 26 33 20 32 23 22 20 20 24 21 20 23 29 35 20 21 23 20 20 20 72 25 26 20 79 33 20 20 22 21 20 31 36 20 20 20 20 208 20 20 20 20 20 40 64 32 162 51 20 432 20 20 39 132 20 23 21 26 33 24 29 21 47 41 20 20 20 21 35 20 20 20 44 20 20 20 35 20 21 21 21 20 43 39 38 21 55 26 87 26 25 21 21 36 26 77 48 305 20 27 27 22 108 3492 113 23
leaf_count=21 20 21 20 21 42 22 36 20 21 21 32 217 26 45 33 80 29 26 26 34 36 173 20 25 22 26 21 38 420 794766 32 274 28 20 22 77 20 25 52 20 38 36 196 20 23 114 31 40 26 471 39 21 385 31 20 27 30 24 22 25 29 20 20 21 31 25 20 27 21 21 36 20 20 24 28 33 26 22 22 20 20 32 21 32 289 33 26 24 38 26 21 34 20 39 610 29 34 27 27 39 21 33 28 30 32 27 26 60 27 20 20 29 748 21 36 21 36 32 443 38 262 35 27 26 24 37 21 20 750 20 20 39 22 20 28 468 52 22 24 35 20 29 29 39 36 20 22 37 28 32 57 20 26 28 24 21 20 21 86 47 24 24 25 21 27 864 77 339 20 27 75 20 31 20 34 20 20 28 23 20 26 20 22 20 20 152 51 20 1564 22 33 36 23 20 32 36 25 20 20 20 22 1827 27 23 20 26 20 26 33 20 32 23 22 20 20 24 21 20 23 29 35 20 21 23 20 20 20 72 25 26 20 79 33 20 20 22 21 20 31 36 20 20 20 20 208 20 20 20 20 20 40 64 32 162 51 20 432 20 20 39 132 20 23 21 26 33 24 29 21 47 41 20 20 20 21 35 20 20 20 44 20 20 20 35 20 21 21 21 20 43 39 38 21 55 26 87 26 25 21 21 36 26 77 48 305 20 27 27 22 108 3492 113 23
internal_value=0 -0.000515292 0.221088 -0.186336 2.10774e-05 -0.000258943 0.198243 0.770254 -0.370558 -0.151468 0.159872 0.0596398 0.327585 -2.11855e-05 -0.0547081 3.25311e-05 -0.548428 -0.202245 -0.123365 -0.309993 0.631062 0.0822394 0.137204 -0.50664 0.399358 0.204304 0.289463 0.0435118 -0.0428771 -1.825e-05 2.72329e-06 -0.0749636 -0.184362 -0.142307 -0.291032 -0.108082 -0.0196313 -0.234321 0.0193736 -0.466133 0.312163 0.22227 0.0726353 0.124311 0.154459 0.0969135 0.376415 -0.0361995 0.0524464 0.0357569 0.263749 0.184263 -0.0519316 -0.067937 -0.0840635 -0.151254 -0.19733 -0.226024 0.077045 0.367232 -0.173405 0.118497 0.101549 0.14791 0.327596 -0.363498 -0.101169 -0.368773 -0.131168 -0.00761656 -0.11619 0.455625 0.232849 0.211083 0.13321 0.190911 -0.27273 -0.305802 -0.156403 0.00778467 -0.177065 -0.303605 0.164242 0.254063 -0.0558764 0.0738535 -0.307001 -1.47704e-05 0.144069 0.0158807 0.274728 -0.14498 0.05697 0.0326555 -0.0161586 -0.173283 0.298151 0.0656276 0.167639 -0.128062 0.12286 -0.0645841 0.17533 -0.219249 0.0354223 0.237984 -0.0804833 -0.0159233 -0.165266 -0.180307 -0.0650076 -0.233929 0.0241038 0.375388 0.216099 0.301449 0.206228 -0.191326 0.0482441 -0.0678665 -0.0644205 -0.251213 -0.24943 -0.104454 -0.278233 -0.221168 -0.102615 0.196512 -0.0244961 -0.136697 0.0610048 -0.0263652 -0.205291 0.0816402 0.0458234 0.0321003 0.0305752 0.0214388 -0.232011 -0.120457 -0.206449 0.038161 -0.0403744 -0.038788 -0.19013 -0.191167 0.187005 0.160844 -0.160832 -0.0483534 -0.0471591 -0.00815747 -0.00959834 -0.0564426 -0.0551402 -0.207724 0.0651626 0.0662744 0.105205 0.104015 0.105791 0.126841 0.0894391 0.0909337 0.0975149 0.0161454 0.0151624 0.056416 0.0554863 -0.0161199 -0.0151432 -0.113181 -0.111986 -0.0809628 -0.079803 0.0731415 0.0742281 0.137092 0.0813143 -0.0197526 0.227301 0.0594185 -0.153464 0.0162438 0.139305 -0.0892555 0.00810189 0.00899743 0.00806175 -0.104279 0.18605 -0.146555 -0.0903118 0.024344 0.0252194 0.177554 -0.147299 -0.121236 -0.162813 -0.267227 -0.0812084 -0.00810209 -0.113619 0.153632 -0.0819763 0.113649 0.0037893 -0.0972387 -0.0646921 -0.0405757 0.169727 0.0811107 0.145919 0.121427 0.0650302 -0.0324692 0.121278 -0.0970787 -0.0966494 -0.170438 -0.089007 0.113457 -0.0647762 0.0565213 0.161735 0.0325907 -0.129447 0.0162088 0.0164353 0.129646 -0.105374 -0.0324431 -0.0326194 0.145628 -0.161822 -0.178344 0.0810027 -0.0245081 -0.081057 -0.0405386 -0.0407322 -0.129543 -0.0972562 -0.153877 -0.00405132 -0.153811 -0.121596 -0.145864 0.121436 0.113344 -0.0971987 0.129548 0.153935 -0.0810115 -0.137677 -0.113394 -0.0324065 -0.0323612 0.00407506 -0.0203118 0.080952 0.137661 0.145795 -0.129601 0.0647395 -0.121534 -0.0972348 0.0567252 -0.105302 0.113373 -0.129618 -0.105309 -0.00406849 0.153895 -0.178183 0.00404382 0.234925 0.0728741 -0.00406668 0.121475 -0.153902 0.113382 -0.040515 -0.113416 -0.0405153 -0.113415 0.0890848 -0.0729152 0.0728848 0.0971848 0.0647848 0.0728848 -0.0486152 -0.0567152 0.0485848 -0.0243152 0.105285 0.137685 -0.0324152 0.0242848 0.0323848 -0.0162152 -0.0162152 0.0161848 -0.0162152 -0.0567152 -0.0324152 -0.0162152 -0.00406524 0.00403476 -1.52421e-05 -1.52421e-05 -1.52421e-05
internal_weight=0 816487 1903 2350 814137 810331 1827 76 374 1976 1409 3806 418 806808 3523 804604 95 704 1272 279 56 1585 933 74 145 476 273 2221 2224 802497 800288 1299 452 568 206 704 2204 252 2107 45 145 251 958 534 399 627 103 1280 1032 1189 128 225 944 733 566 315 207 169 588 72 245 323 387 239 69 73 380 52 253 2209 324 42 129 122 211 129 92 114 173 1795 169 92 160 68 449 347 60 798493 143 1212 60 142 497 718 1286 78 76 370 80 162 170 438 96 91 120 67 335 1207 76 91 405 78 895 46 60 42 62 118 535 69 336 83 48 207 46 67 69 53 918 91 60 81 89 241 66 598 94 74 53 134 63 61 604 68 86 56 76 80 69 495 89 1918 71 416 72 43 343 87 203 67 136 45 240 46 184 1132 103 437 98 1147 102 190 51 309 54 314 60 101 221 79 62 40 104 1029 40 231 1655 71 1584 43 54 108 44 821 52 64 52 99 49 46 255 1847 139 96 42 153 99 173 316 536 59 199 103 125 66 676 105 147 43 49 187 127 283 72 57 59 123 1009 97 110 138 652 112 65 48 63 176 42 213 516 56 103 104 82 291 62 73 56 85 107 84 90 73 182 71 112 540 87 75 59 155 73 45 83 46 53 64 52 118 87 62 97 270 52 43 55 40 40 250 65 40 67 460 92 440 57 194 295 254 157 256 234 406 344 469 837 112 53 453 769 504 1045 1019 912 915 44 67 104 230 140 798394 3628 136
internal_count=818390 816487 1903 2350 814137 810331 1827 76 374 1976 1409 3806 418 806808 3523 804604 95 704 1272 279 56 1585 933 74 145 476 273 2221 2224 802497 800288 1299 452 568 206 704 2204 252 2107 45 145 251 958 534 399 627 103 1280 1032 1189 128 225 944 733 566 315 207 169 588 72 245 323 387 239 69 73 380 52 253 2209 324 42 129 122 211 129 92 114 173 1795 169 92 160 68 449 347 60 798493 143 1212 60 142 497 718 1286 78 76 370 80 162 170 438 96 91 120 67 335 1207 76 91 405 78 895 46 60 42 62 118 535 69 336 83 48 207 46 67 69 53 918 91 60 81 89 241 66 598 94 74 53 134 63 61 604 68 86 56 76 80 69 495 89 1918 71 416 72 43 343 87 203 67 136 45 240 46 184 1132 103 437 98 1147 102 190 51 309 54 314 60 101 221 79 62 40 104 1029 40 231 1655 71 1584 43 54 108 44 821 52 64 52 99 49 46 255 1847 139 96 42 153 99 173 316 536 59 199 103 125 66 676 105 147 43 49 187 127 283 72 57 59 123 1009 97 110 138 652 112 65 48 63 176 42 213 516 56 103 104 82 291 62 73 56 85 107 84 90 73 182 71 112 540 87 75 59 155 73 45 83 46 53 64 52 118 87 62 97 270 52 43 55 40 40 250 65 40 67 460 92 440 57 194 295 254 157 256 234 406 344 469 837 112 53 453 769 504 1045 1019 912 915 44 67 104 230 140 798394 3628 136
is_linear=0
shrinkage=0.1


Tree=3
num_leaves=318
num_cat=0
split_feature=134 134 134 134 134 134 134 81 134 134 134 134 134 134 134 134 106 0 134 134 132 134 109 134 131 134 134 134 134 134 134 134 134 134 134 134 134 134 134 132 132 134 134 134 134 139 134 134 134 134 134 132 134 134 134 134 134 134 134 134 134 132 104 132 131 132 132 134 132 19 134 132 132 69 134 131 53 134 134 81 132 134 132 0 132 14 53 17 134 132 14 134 132 134 77 134 134 0 134 0 58 0 132 132 132 0 52 132 132 134 0 132 132 134 0 96 131 0 112 134 35 131 67 134 104 35 0 132 134 0 134 134 0 0 0 0 85 134 0 0 134 131 41 102 11 0 134 0 85 16 108 134 0 134 0 134 0 134 0 134 0 134 2 132 132 132 134 134 0 134 8 134 0 134 0 55 0 134 58 134 7 0 0 139 0 115 128 132 134 103 14 97 139 119 134 0 134 128 81 47 113 134 134 62 123 43 14 2 119 118 35 32 97 77 83 75 134 130 29 79 0 53 73 99 139 106 81 87 27 34 115 111 99 19 140 112 106 63 59 116 134 2 0 131 47 11 132 12 0 73 51 106 139 0 0 71 0 31 87 93 109 2 139 118 35 81 95 51 57 57 0 65 37 114 21 100 73 51 57 109 113 100 43 121 107 41 128 21 0 65 104 3 93 77 51 15 2 21 0 0 0 0 0 0 0 0 0 0 0 0 0 0 0 3 1 0 0
split_gain=7552.02 6591.63 1933.78 1222.7 1100.92 849.712 734.456 344.922 326.349 228.396 114.952 112.366 92.6393 68.8405 68.385 64.0104 49.8775 41.5603 32.7094 29.8264 22.9262 18.0934 17.5737 16.8132 15.1623 13.882 12.907 12.4647 10.892 10.3588 8.82474 6.72783 5.20247 4.58479 4.51072 3.1962 3.01603 2.86056 2.81978 2.53984 2.40627 2.3979 2.2378 2.07053 1.75953 1.7318 2.88023 1.6147 1.58903 1.41217 1.10257 1.08225 1.0793 0.991034 0.852202 0.826947 0.801415 0.733079 0.698485 0.591171 0.553318 0.462321 0.459517 0.425448 0.418808 0.397444 0.351921 0.345064 0.337024 0.312605 0.297676 0.246556 0.236458 0.236243 0.228599 0.225646 0.186525 0.172951 0.167865 0.161212 0.156358 0.149618 0.148198 0.147013 0.138772 0.135591 0.128283 0.126533 0.116057 0.102103 0.100901 0.0973526 0.0924955 0.0899814 0.089826 0.0893364 0.0880662 0.0867224 0.0830341 0.0932962 0.0823217 0.0793726 0.079327 0.0785778 0.076901 0.0760813 0.0753776 0.0752275 0.0741509 0.072229 0.0676065 0.0639193 0.0492342 0.0464057 0.04484 0.0447159 0.0406956 0.036773 0.0367135 0.0357351 0.0329758 0.0324673 0.0324318 0.0283563 0.0277612 0.0265084 0.0255924 0.0255129 0.0286297 0.0254386 0.0251397 0.0251123 0.0244574 0.0243694 0.0239543 0.0213382 0.0212042 0.0210134 0.0308689 0.0205395 0.020132 0.020963 0.0190483 0.0174099 0.0182934 0.0162467 0.0156203 0.0220978 0.0151215 0.0127439 0.0126714 0.0125379 0.0272289 0.0123986 0.0218939 0.0119631 0.0227339 0.0119513 0.0150455 0.0116714 0.0342855 0.0114635 0.0205507 0.0131753 0.010296 0.0102162 0.00944702 0.00886826 0.0258239 0.00884474 0.0237365 0.00865117 0.0263767 0.00806274 0.0130828 0.00773442 0.00716133 0.00709477 0.0178217 0.00692647 0.00684005 0.00643779 0.00590489 0.00574896 0.00513773 0.00501237 0.00495311 0.00491257 0.00481906 0.0122157 0.0053129 0.00451019 0.00407311 0.00373035 0.00344617 0.00651474 0.00344127 0.00323679 0.00294407 0.00283383 0.00277965 0.00254863 0.00253383 0.00820238 0.00243196 0.00241209 0.00236559 0.00227792 0.00226149 0.00201384 0.00157383 0.00155974 0.00146261 0.00133552 0.0012406 0.00153751 0.00121313 0.00513049 0.00120853 0.000843814 0.000842865 0.000759037 0.000725508 0.000681549 0.000651546 0.000600237 0.000552751 0.000533811 0.000500365 0.000462097 0.00134006 0.000437706 0.00041397 0.000393702 0.000363196 0.000341099 0.000332324 0.000319268 0.000288695 0.000275188 0.000192483 0.000807414 0.000148656 0.000119567 0.000112768 0.000105628 8.46567e-05 7.14172e-05 6.81887e-05 5.57635e-05 5.54424e-05 5.28688e-05 5.0449e-05 4.67712e-05 4.50741e-05 3.84285e-05 3.26101e-05 3.12314e-05 2.61945e-05 1.90415e-05 1.63019e-05 1.1079e-05 1.10125e-05 1.08357e-05 9.34461e-06 8.99752e-06 8.85448e-06 8.6633e-06 7.48966e-06 6.8166e-06 5.67873e-06 5.02487e-06 3.25663e-06 2.64904e-06 2.63515e-06 2.56852e-06 9.32875e-06 2.47486e-06 2.34476e-06 2.25377e-06 1.84009e-06 1.6134e-06 1.25577e-06 1.00336e-06 9.92304e-07 8.73108e-07 8.70828e-07 8.63861e-07 6.99485e-07 6.97244e-07 5.9314e-07 5.88243e-07 3.33923e-07 2.44846e-07 2.21132e-07 2.06078e-07 1.65e-07 1.00685e-07 7.30751e-08 1.42109e-14 1.42109e-14 1.42109e-14 1.42109e-14 1.42109e-14 1.42109e-14 1.42109e-14 7.10543e-15 7.10543e-15 7.10543e-15 7.10543e-15 3.55271e-15 1.77636e-15 8.88178e-16 8.88178e-16 2.22045e-16 2.77556e-17 2.77556e-17
threshold=4.8259936334171811e-05 -4.0531463151083351e-05 0.00021727949559180451 -0.00011385079891151893 1.2289919290475739e-05 -1.3183133187155692e-05 0.00010592453926450142 1.0565000000000002 -0.00017323900425120217 -7.0354781596559932e-05 7.4053183201305841e-05 2.8004539483816874e-05 0.00014974388968691524 -5.2606475506866693e-06 -2.4727642848887396e-05 5.2559931638107579e-06 -0.3669294315441981 28464.150000000005 -9.1658080571044285e-05 -5.2917620830428273e-05 -3.6899999999986899 3.8497343692878168e-05 -0.34627953745600798 5.9969646932889205e-05 5.0587500000001464 8.7752711152466758e-05 0.00012289595683911972 1.7688721463460236e-05 -1.9299103410086446e-05 -1.0000000180025095e-35 1.7576669615326781e-06 -3.1803524992324299e-05 -8.0791493883680663e-05 -5.9917808028664414e-05 -0.00012429185378048932 -4.7278048951326916e-05 -9.6515108484185302e-06 -0.00010523872990664261 8.7720934949242508e-06 3.4300000000021105 2.4724999999998549 3.15229251868221e-05 5.6118494250356761e-05 6.7142435622891141e-05 4.1256080781537647e-05 12.031500000000003 0.00017090917804085673 -1.5782665602093179e-05 2.1988500695124816e-05 1.7501793935226221e-05 0.0001149342058585079 1.9850000000024013 -2.119530953759163e-05 -3.1489506125581539e-05 -3.7002112707185113e-05 -6.6507049969133356e-05 -8.6178544408677102e-05 -9.8491515630905177e-05 3.5023325792749034e-05 -7.3779104196591825e-05 5.1119763736395825e-05 1.1450000000004368 0.34550000000000003 1.6799999999984723 3.8537500000002187 -1.1200000000008001 -1.4699999999993449 -1.7675658477989129e-06 -1.2975000000005819 0.28850000000000003 0.00010153300469428751 2.340000000001965 1.474999999998545 0.5415000000000002 8.4250445754108241e-05 -3.1487500000002906 1.2035000000000002 1.767529330565232e-06 -7.7138040075419565e-05 1.7335000000000003 -1.7899999999990539 7.0580222366500869e-05 2.8000000000010918 28307.150000000005 -1.6174999999948338 28553.450000000004 0.097500000000000017 0.055500000000000008 1.0000000180025095e-35 1.6025000000008733 28476.850000000002 5.2909633116993157e-06 3.0625000000036384 2.4750462738420968e-05 0.20650000000000002 1.4126164306516033e-05 -7.0733863998251314e-06 28477.650000000005 -2.8029950160601832e-05 28542.050000000003 28561.850000000002 28361.550000000003 -1.4074999999993449 1.3800000000028378 1.8900000000048751 28393.950000000004 28316.950000000004 2.6250000000000004 -0.89750000000094576 -5.2891773597574235e-06 28433.350000000002 -2.0200000000004361 -2.6100000000024006 1.0496245025026775e-05 28535.350000000002 28570.750000000004 2.520000000002256 28469.550000000003 0.32647680488992631 2.0999837267776659e-05 0.17650000000000002 2.3750000000018194 0.87050000000000016 -4.5576934056046341e-05 0.16750000000000004 0.0095000000000000015 28523.050000000003 0.92000000000371085 3.529036040406109e-05 28464.150000000005 -1.0602505018775242e-05 -5.9525999147380653e-05 28558.550000000003 28303.250000000004 28377.150000000005 28572.350000000002 2.5575000000000006 1.4011489452681049e-05 28547.050000000003 28581.150000000005 -5.2666505175713578e-05 -1.6912499999998543 0.42550000000000004 1.5000000000000002 0.098500000000000018 28568.150000000005 -1.7500078752952227e-05 28570.650000000005 0.10750000000000001 28360.450000000004 0.98149004693870567 -2.1008660829657796e-05 28559.350000000002 -3.5356490720173102e-06 28513.250000000004 -2.4516714277500459e-05 28551.350000000002 -2.8255721963910126e-05 28310.850000000002 2.8230843672316656e-05 28364.750000000004 4.5653521381194835e-05 28485.450000000004 1.2000000000025468 1.0200000000022558 1.0649999999986905 4.2415492772396319e-05 7.0028992013027044e-06 28559.350000000002 2.4534415738686203e-05 28533.950000000004 -7.0010422891231264e-06 28566.150000000005 -4.9064705091528264e-05 28540.650000000005 2.0695000000000001 28307.150000000005 3.1785497353831189e-05 28315.750000000004 5.9509956820025252e-05 0.24650000000000002 28349.450000000004 28328.150000000005 12.398500000000006 28554.950000000004 -12.268999999999997 0.73960753937406232 -1.0199999999986173 3.5353428222695275e-06 28283.950000000004 28289.750000000004 0.71750000000000014 14.124500000000003 -3.3399999999999994 1.0605541043373636e-05 28282.150000000005 7.7403108196261186e-05 0.94935645984923422 0.54350000000000021 0.0045000000000000014 -0.41615842087655214 -4.232603106807397e-05 -3.5251485638321249e-05 28358.150000000005 -0.54649999999999987 1.1575000000000002 28289.750000000004 28376.050000000003 -0.14849999999999994 -5.8484999999999987 2.1395000000000004 28558.650000000005 0.35550000000000004 0.5505000000000001 0.11950000000000001 0.11550000000000002 -1.4121326931681997e-05 28324.000000000004 0.73350000000000015 2.8800000000000003 28335.050000000003 0.071500000000000008 0.6585000000000002 0.05050000000000001 9.6290000000000031 -0.58771687103758274 4.0965000000000016 0.42050000000000004 0.71250000000000002 28504.550000000003 2.9789999999999992 0.47375310002755583 0.81650000000000011 0.50050000000000006 -8.3004999999999907 -0.048395937662517673 -0.62318290324520142 0.6645000000000002 2.3905000000000007 -1.2885 -1.7648387649948912e-05 28325.150000000005 28515.350000000002 -1.4737499999973804 1.4585000000000001 2.2175000000000007 -0.98999999999978161 28332.350000000002 28551.350000000002 0.30950000000000005 1.6205000000000003 -0.69463520135850343 16.789500000000007 28505.650000000005 28351.750000000004 0.38650000000000007 28317.050000000003 1.1295000000000002 0.78050000000000008 0.95950000000000013 0.89015298427063139 28573.150000000005 21.871500000000008 -0.019000000000000069 0.96150000000000013 2.9975000000000005 1.1315000000000002 1.8495000000000001 1.5765000000000002 0.38150000000000006 28502.050000000003 0.029500000000000002 0.70450000000000002 0.0093257771443330823 0.071500000000000008 28527.750000000004 0.48950000000000005 5.8905000000000003 0.061500000000000006 0.96970114251854833 0.17067161382928689 28478.850000000002 0.35250000000000004 0.97700000000000031 -0.98418763973071688 0.28050000000000008 0.8659163532821389 0.31950000000000006 28424.450000000004 0.0025000000000000005 0.03450000000000001 2.1075000000000004 0.50250000000000006 0.0025000000000000005 1.0325000000000002 1.4585000000000001 28316.650000000005 0.076500000000000012 28478.750000000004 28413.150000000005 28476.550000000003 28516.850000000002 28518.050000000003 28556.050000000003 28557.350000000002 28544.850000000002 28557.350000000002 28573.750000000004 28487.950000000004 28357.350000000002 28561.250000000004 28297.650000000005 28559.350000000002 0.0095000000000000015 13.271500000000001 28274.950000000004 28414.050000000003
decision_type=10 8 10 10 10 8 10 2 10 10 10 10 10 8 10 10 2 2 10 10 2 10 2 10 2 10 10 10 10 8 10 10 10 10 10 10 10 10 10 2 2 10 10 10 10 2 10 10 10 10 10 2 10 10 10 10 10 10 10 10 10 2 2 2 2 2 2 10 2 2 10 2 2 2 10 2 2 10 10 2 2 10 2 2 2 2 2 2 10 2 2 10 2 10 2 10 10 2 10 2 2 2 2 2 2 2 2 2 2 10 2 2 2 10 2 2 2 2 2 10 2 2 2 10 2 2 2 2 10 2 10 10 2 2 2 2 2 10 2 2 10 2 2 2 2 2 10 2 2 2 2 10 2 10 2 10 2 10 2 10 2 10 2 2 2 2 10 10 2 10 2 10 2 10 2 2 2 10 2 10 2 2 2 2 2 2 8 2 10 2 2 2 2 2 10 2 10 10 2 2 2 10 10 2 2 2 2 2 2 2 2 2 2 2 2 2 10 2 2 2 2 2 2 2 2 2 2 2 2 2 2 2 2 2 2 2 2 2 2 2 10 2 2 2 2 2 2 2 2 2 2 2 2 2 2 2 2 2 2 2 2 2 2 2 2 2 2 2 2 2 2 2 2 2 2 2 2 2 2 2 2 2 2 2 2 2 10 2 2 2 2 2 2 2 2 2 2 2 2 2 2 2 2 2 2 2 2 2 2 2 2 2 2 2 2 2 2
